[{"type": "conv", "kernels": [[[-1.8754441388349088, -2.4332811800433607, -0.6996623762730734]], [[-1.7703484642345337, -1.2943950995213662, -1.0493112242610996]], [[-737198079.5752598, -11708221847.813826, -1204058613.9084957]], [[-2784464920.3781753, -11303831975.40866, -7766104457.591081]], [[-10332075472.87536, -900141316.340619, -1052305860.2473304]], [[-24430495414.14078, -2019258453.9523787, -486196846.4529267]], [[-5089526558.232806, -425798105.904294, -100491651.5443308]], [[-7.727587540479707, -1.8566936185509375, -7.216823328348896]]], "biases": [-10298149.324527545, -8018004.347840287, -318510974.52354497, -419215059.24886304, -240195306.03545678, -526710721.8705443, -122710463.92818984, -0.2550386698956627]}, {"type": "relu"}, {"type": "pool", "pool_size": 2}, {"type": "dense", "activation": "relu", "W": [[-0.08139781600942367, -0.529343325375057, 0.29691797252277635, -1.287051086880353, -5.849157924543285, -0.5248809140623566, 0.17929943503560958, -0.38158799889011896, 0.03666455419322559, -0.08036507185600213, 0.12308313154806068, -0.018641020081238753, -0.15340714244769493, 0.024076803822570374, 0.03069540651828703, -0.3339460646595406, -0.21569573887880802, -1.4348128505847961, -4.8816550536355665, -0.7372104344348038, -0.2500996552392228, 0.10531109793734886, -0.31660622938496863, -0.11431463689413719, 0.0993045638194781, -0.21667450230938684, 0.013432512314143047, 0.00420590811286674, 0.1508473677019639, 0.15539808443653919, -0.15535940158468434, -2.0512054262936705, -3.943109140620466, 0.05503004844197837, 0.1637323727613504, -0.05523623154606298, 0.07037829887516539, -0.01899397472541079, -0.03933173598252143, 0.0011107935012960644, 0.07198837681248553, -0.010013571438085246, -0.06085304615227442, -0.013075673022711938, -1.4913505002424616, -2.359120178137469, -4.251737969825353, -0.1847456811866251, -0.15476826948758374, -0.06257645112682966, 0.19047574332164138, -0.2791166935236866, 0.08633122127389613, -0.03016912510716061, -0.10006716188686442, 0.092740620431525, -0.03942314754533072, -0.09100658037066305, -0.028579135927092436, -0.37692378238266155, -3.869455571192945, -0.4632703327384829, -0.06952706874201202, -0.12498754549201913, 0.12524308753776053, 0.09504989707368872, -0.32662449357228474, 0.0029651772702971005, 0.22311115348864638, 0.05326191312057628, 0.09283436510184355, -0.2340586747699225, -0.16112320140018116, -3.903318193551534, -9.380141947684827, -0.563928060332439, 0.32236958308386526, -0.3412635424908687, 0.12019145196724942, -0.034879570439114306, -0.13508877268966402, -0.02265277329423621, 0.12080429368840925, 0.07542054859326734, -0.4018463853363047, 0.02334783908872154, -10.85490834532991, -23.632711505753985, -2.120835363819789, -0.30765794503747373, -0.43139831060745243, -0.5370472105049965, -0.08235472108284331, 0.1331839560176354, 0.0890842098617151, -0.1998631971142944, 0.055508965933146116, -0.14004305767056122, -0.20323929614518838, -0.16195082597247623, -1.8844603525214447, -7.914594507757397, -8.986212842080908, -0.7910489437554963, -0.0364136696337117, 0.4094862965010688, -0.23289352729616344, 0.22841501525801977, -0.22404415982604248, 0.063630995798517, 0.04749098175076677, -0.12244177059273856], [-0.12157897713790408, -0.1360976744131966, 0.0988066239122173, -0.8423215206444247, -3.1238807674700766, -0.5082726857483826, -0.00244593087608684, -0.03041607871246152, -0.23061196386732957, -0.02681038594429383, -0.27368250695771773, 0.2089284201663703, 0.17243662849053046, -0.09860481849224535, 0.041060169598530344, 0.07492975506754478, -0.1857422894427843, -0.6740235478665388, -3.0031379432566907, -0.3937974124148106, 0.14428902801490837, -0.07235644557879514, -0.24275141889911317, -0.02903646188966227, -0.13940015584183296, 0.04372917162238749, 0.09353210609862912, 0.15279344045749677, 0.13027924102674412, 0.11072146070314733, 0.147505691165689, -1.0789076616821114, -2.244666473773721, 0.19747090090580827, 0.2764805004228451, -0.15985450155277803, -0.19186388886959774, -0.026996049471895947, 0.28080974163711225, 0.11207853253230744, 0.09918004854722437, 0.11989988450176539, -0.2745870042798047, -0.08019481920268857, -0.5281120656783058, -1.32771899655439, -2.4398609201629142, -0.17427387352252172, -0.15592230178514832, -0.14886001798371454, -0.06484148155470221, 0.04841310634634428, 0.11940346931217954, 0.00027936263777040806, -0.019440742790749792, 0.3187040900699427, -0.1859326232608429, -0.06406594848432486, 0.09986984670725131, -0.05228679107194402, -2.3682466474248267, -0.24905658656227264, 0.017938960075323057, -0.10196991062345895, -0.1843749205996564, -0.05794850518480245, 0.05314869116761906, 0.022186056914493834, 0.017413593974703583, 0.0626947371380498, -0.21846158406448507, 0.1395253275685755, 0.0076712057311418185, -2.1799177417532825, -5.49810858429009, -0.0662898896870345, -0.02103596088432069, 0.06738598527962261, 0.22008051050853938, 0.10458539124388931, -0.11654470884648684, 0.08086181747045068, -0.07227564448383522, -0.06868257302891766, -0.29519140579999853, 0.09795258076610529, -6.239765457991894, -13.332959691480408, -1.232945722365082, 0.12721698042683333, -0.23709960470469874, -0.23555753890764872, 0.15622347077913862, -0.19278961827742513, -0.13374530472487314, -0.0604612043167304, 0.3157481087559133, 0.06066176378517623, 0.20930723296964687, -0.15205756150050803, -1.2699940552476567, -4.270301527989189, -4.959192674636957, -0.3819896787727928, -0.07339180923386587, -0.3337111164223425, 0.07087013635604736, -0.1774721431422449, -0.0343132989489105, -0.18866434010505145, 0.07060659980248118, -0.0218689437660335], [-0.2829903589918031, -0.00808976365652842, -17404.491016908803, -0.12150368233610562, -0.02119890847773768, -0.1555570196283932, -0.3530819950126933, 0.07317987612655955, 0.25481900690302306, -17404.808600693883, -17404.423115861227, -17404.39213101224, -17404.406074174316, -0.038530597394924496, -0.0052941808694485695, -0.029672601878817453, -21702.911359425158, 0.10897876313852545, 0.1678403571312083, 0.07079010822874185, -0.09931261475606983, 0.1499023452327741, -0.11764871316223185, -21702.94738844778, -21702.92104762043, -21702.96222720261, -21702.863815823286, -0.2925093890576637, -41552.94700101841, -25943.51433472249, -5775.787737006622, -1605413.2647938982, -4563962.580687077, 0.08911390214842763, -108663.1390755223, -108663.06889179973, -108662.73984297046, -5776.077568716228, -5775.624201196907, -5775.7460542276685, -5775.547093304994, -108663.09314623564, -2240865.678048358, -1869672.6037064886, -8651271.781810328, -31814180.0568754, -84456122.46120335, -2186997.673575206, -1767310.0076473807, -1767309.7599837438, -1767309.6788103376, -229624.85027131572, -127262.00799569569, -127261.87070263345, -600818.0438324185, -1767309.71427679, -190619.94799321276, -1460164.749168977, -32179.793541207735, -11324926.596243799, -55285126.56813533, -4809206.223028058, -379829.2528639602, -923306.3544849819, -923306.5905833564, -1112515.5746055965, -32179.68149853865, -32179.763384710554, -32180.003060853298, -1112515.7474965716, -0.07314994580635341, -108617.95871877375, -0.1295908787482603, -0.042744090968456015, -5493206.8192653535, -209961.96519176633, -0.08348069468986132, -0.09217475507196048, -0.11762052274638066, -108617.8679444201, 0.012325682276796458, 0.0578489890725953, 0.08426525158569773, -108617.73121360356, -0.3511466197292219, -5610.5344550691625, -0.10140343299257593, 0.07210404470163592, -1187724.7509843954, -34916.05845591472, 0.1499968426597701, -0.12202549197783584, 0.23967004446810594, -5610.165424875917, 0.14682987973744777, 0.1099862686291118, -0.09469209083927024, -5610.150792137974, -0.07883623231743192, 0.12965368892876603, -0.2633004229502219, -0.16139484939901064, -0.14661215385111093, -0.1433669850062891, 0.0622108010137483, -0.11571289076659565, -0.10060014900180607, -0.055793487233212605, -0.010062418163765111, -0.17045615666515848, 0.08058788823025397, -0.019937347003340912], [0.12755130168826573, 0.2561617017209034, -802284.1297908078, 0.6426200649732021, 2.467780766875263, 0.43284676641664654, 0.054750405495213914, -0.16889050887697377, 0.05975355043339794, -802284.2118813465, -802284.2461996913, -802284.3766743342, -802284.2493704633, -0.044214204992884976, -0.20399185768829584, 0.15171016200534798, -1000426.2004624523, 0.6014158901617938, 2.4018539880807186, 0.3567485638044179, -0.2604904804607233, -0.007474151869209309, 0.20789477615750696, -1000426.1168801453, -1000426.3211786342, -1000426.0984343477, -1000426.2636791181, 0.09282597754647222, -1915445.9228854459, -1195898.527725615, -266240.77622242185, -74003703.48015185, -210382067.55649725, -0.33434930989751066, -5008969.203682676, -5008969.362489943, -5008968.88121666, -266240.74469537445, -266240.6342889351, -266240.7489326794, -266240.9311643558, -5008969.041352985, -103295766.43188353, -86185108.69795996, -398792163.34682024, -1466517935.762157, -3893119945.4318695, -100812633.10290074, -81466552.21844554, -81466552.1885174, -81466552.16943066, -10584866.982671281, -5866310.562373591, -5866310.5649727015, -27695524.682464108, -81466552.47054309, -8786880.87714946, -67308289.51404966, -1483371.5912438936, -522037922.14181554, -2548443175.433741, -221686904.61814338, -17508736.318989187, -42561069.26322519, -42561069.41376118, -51282924.965650566, -1483371.844417084, -1483371.6804569552, -1483371.8372815736, -51282925.0407314, 0.12432664219687453, -5006887.02767649, 0.08630783296058796, 1.8637120959267544, -253216846.31686547, -9678484.425117651, 0.1884725042026376, 0.03451271808311815, -0.03902857115784935, -5006886.708048859, -0.02735637004243952, 0.047582094830258326, 0.10023511183132777, -5006886.931559912, 0.17606881179780084, -258614.53881086266, 5.017286370054448, 11.061590743346354, -54749790.11614642, -1609492.455917981, 0.18442252945783127, 0.16889530510576486, 0.044845227027351824, -258614.8782255378, 0.20419056578994943, 0.03675171908493552, -0.2735471706528237, -258614.92579783394, -0.021150890143938443, 0.09077107186349069, 0.8782521825749569, 3.663639745083881, 4.154716232190537, 0.5759579854711695, 0.1411946416889734, -0.1257668186950278, 0.13778353703335136, 0.10859884655414004, 0.03475277247106771, -0.06244488641146798, 0.12645025077639718, 0.07215559983383536], [-0.12057256804043792, -0.05712730617039867, -0.10357002546196872, -0.6621787622573589, -2.9782600688900613, -0.3399893734949974, -0.01751869860533701, -0.15439896884317603, -0.0741013702885687, -0.024479993231020233, -0.048667745983549046, -0.11228445896358531, -0.05977687825570369, 0.18461422850686005, -0.03878272616800813, -0.17875539462413131, -0.1930160979832278, -0.5378346773986604, -2.5945657167191833, -0.3609879821851755, -0.06953271197902776, 0.023360766874115636, 0.09454829671745359, -0.05079584173745128, 0.05218770085852978, 0.12603359223333213, 0.01351764837928386, 0.1869134837706607, -0.17814624754224123, 0.3432073736813679, 0.03896600339319227, -0.9820435058974633, -1.7809058079579811, 0.017174381642198425, -0.10704011888096432, -0.09893040408044476, -0.07765205886385454, 0.12100038007570758, 0.01779950129956876, -0.015500537319149944, 0.10964115119929682, 0.07051896032212804, -0.12793076546031426, 0.10081212986449765, -0.7391130527465739, -1.1026555331207388, -2.2140130388112635, -0.07809091724462834, 0.15889085204688164, 0.15480649023615314, -0.07489720821550727, -0.016432827818525876, 0.08420710045619452, -0.03889679165319655, -0.039248471037292974, 0.07088703539253316, 0.04677269920006988, -0.11559508042521005, 0.040313332877853714, -0.09580154615535029, -2.0708930972696935, -0.5228016825593613, 0.030017605870260047, 0.15661177703187737, 0.15834174087787023, 0.1340616585730929, 0.011730868837436284, -0.0784348754446703, 0.1357893103162918, 0.07201980770360625, 0.06928247686026746, -0.09233651920426134, 0.05466416972955243, -2.2885834115531347, -4.821063467227317, -0.1185434103858719, 0.0709352744124174, -0.34173945942007133, -0.11555857703312958, 0.10607402254471184, 0.16449068212753903, 0.04753255185622629, -0.0685726995917109, 0.008929550782892282, -0.2661042858044703, -0.03329090002529095, -5.4520931965077075, -11.883954510435137, -0.9402576136957691, -0.14714092766650935, -0.4004126284189604, -0.058534209343844346, 0.23084995211853823, 0.22795045915244136, -0.07392076711435572, -0.021742007390444452, -0.11849791450570946, -0.07782499753535964, -0.07796423117232429, -0.24834478225725387, -0.6531913746576092, -3.7948685902325736, -4.34530331708747, -0.5468368149705353, -0.1373258472375384, -0.04386206992754663, -0.1467002688699227, 0.13089127648573262, 0.1072970557359817, -0.1598732980816596, -0.19736389262237153, -0.035728334216073805], [-0.01810183829435612, -0.010410775135154102, 24784.799949394677, -0.09409096128725525, 0.01668508623459903, -0.23515995604807768, -0.1383708130227982, -0.03850917745671538, -0.029056324261093714, 24784.862710763708, 24784.785773153577, 24784.874530099434, 24784.70075251256, -0.05535705217056298, -0.20701103509200067, -0.10191425047773783, 30905.765246240608, -0.08479163700126455, -0.09756708968473124, -0.11848533697836154, 0.16189528686862098, -0.06936924547792798, 0.17092054689514136, 30905.946969378052, 30905.62580159528, 30905.716875131584, 30906.016232948125, -0.15601579544887073, 59173.055517286375, 36944.25855299438, 8224.846177220867, 2286172.681691937, 6499266.08947456, 0.07146270661181045, 154740.43117594687, 154740.58680422083, 154740.67478663233, 8224.827627012599, 8225.064610464868, 8224.999680083061, 8225.031242774632, 154740.42378887642, 3191083.062526342, 2662489.0909867114, 12319758.79044585, 45304669.91474461, 120268909.5294859, 3114372.5748664564, 2516719.9650615677, 2516720.0817678836, 2516720.084082149, 326995.1093621525, 181225.7889090927, 181226.1543654857, 855588.9651306135, 2516720.4628070416, 271450.4690500255, 2079333.4943368912, 45825.47008298039, 16127150.288968582, 78728240.14433363, 6848502.559637326, 540891.9004154819, 1314825.6240968492, 1314825.4795875372, 1584267.0053165688, 45825.33631151082, 45825.254401399376, 45825.21135911201, 1584266.6271774457, -0.0406676227477825, 154676.13870707597, 0.2298753454629806, -0.1971558602148796, 7822547.296472563, 298994.3715961517, 0.21284603763792356, 0.019347867107283083, 0.10984271761801596, 154675.9983935998, 0.0955644919032873, 0.17592110507408404, -0.015814438777584726, 154676.1900534122, -0.10192777384503768, 7989.4080819677465, -0.1585053551448269, -0.061055347904084574, 1691367.6585788636, 49721.44533625722, 0.058928620073704086, -0.08468044370745238, -0.12366889299719422, 7989.169835396099, 0.1398852908243285, 0.010590178112248157, -0.19653858400683208, 7989.087065147243, -0.03527766995741066, -0.1642146941425298, 0.2852821932634361, -0.09511658852338489, -0.05918985585630762, -0.22218673772335207, -0.06994207813486766, 0.05551259452872366, -0.2999325911290613, 7.044463373620134e-05, 0.05758305406249454, 0.16090849171550833, 0.23564744147579675, -0.14816325404552957], [-0.07310235250991251, -0.26064182123968693, -0.0010811973442179858, -2.6421332151108032, -10.979598145748074, -1.0092650476892322, 0.07106996789924928, -0.2967855438394712, -0.37317036832157363, 0.016872396998231634, -0.13048043276017038, 0.07903218109453433, 0.029571150120442632, 0.007443444473555791, 0.05982589692000659, -0.2603320187067173, -0.08087655365905003, -2.4825316368332246, -9.780655482561322, -1.4007856885718872, 0.06939031951212778, -0.013504263327910087, -0.30487457908756, 0.043235033733627325, -0.0034528211327577176, 0.016727284533424182, 0.15367371932022114, -0.2564360275856698, -0.05286211047367566, -0.18763136912985667, -0.03387678120932661, -3.710768720218128, -7.610472092929602, 0.04388634818919787, -0.10504092045509686, -0.1883485989154088, 0.004572363995923293, -0.09956081602071716, -0.3191515805496946, 0.14999800820782094, 0.014988988821232122, -0.10122941636512246, -0.39906249912269365, -0.04859546040556832, -2.5561584146382716, -4.304133902015194, -8.627050191620045, 0.0845566447686068, -0.39035057891738406, -0.09246950405436846, 0.029405463776878398, -0.02380191101521303, -0.05871724516067524, -0.073826611415951, -0.0740934837886332, -0.016824025872260683, 0.0500593895131291, -0.39086310840461097, -0.05612866179796453, -0.4374054647300545, -7.894059183618423, -0.8088476461310737, 0.11499952284089152, -0.2973773881872326, -0.20322151932643714, 0.06768226489458669, 0.05868997593563624, 0.033817698973164924, 0.10667823282931164, -0.17880403420719204, 0.22582756847119065, -0.7100086203000638, 0.0068941673043798135, -8.363132146866814, -18.88531366836849, -0.7662876684070801, 0.13098030575359976, -0.42755649939559737, 0.12766969678408435, 0.16485616317855645, 0.11680712168069805, 0.020958801924697772, 0.0946572166710984, -0.020115630025781928, -0.5520865830582602, -0.021053952879212037, -21.325082172315067, -46.889467140007596, -4.4431196751954065, -0.6021508642434773, -1.137434157516146, -0.7546040243914566, -0.03534982215677365, -0.026681882999270625, 0.1060236111542674, -0.02487740183090812, -0.08498253185980861, -0.04730493945329854, 0.005935605438627978, -0.4541833587655926, -3.902050328384016, -15.448245821379215, -17.68112462923045, -1.9296810662053625, -0.01641261127381763, -0.1395470420979065, -0.4428508680006657, -0.06750328445342679, 0.04713416918906518, 0.21879832935158927, -0.16738423585937923, 0.11939802331156395], [0.18409438620483293, 0.08281415067084272, -224170.09051498974, -0.03159552202811718, -0.11433386297312094, 0.004326393148725467, -0.01662752070453266, -0.11891074063573076, 0.08112085348358065, -224170.00420508874, -224169.83520978942, -224169.94655140914, -224169.99426450557, -0.12993941124959124, -0.1895318765117752, 0.0452192787209316, -279533.6957458829, -0.06324500782002082, -0.03174254963817211, 0.12967030881557595, -0.07239736348841999, 0.05545391303372853, -0.15938039291289668, -279533.8163781266, -279533.68929756526, -279533.74160229973, -279533.71902728645, -0.1009279103568992, -535203.347888679, -334151.4262545918, -74391.5154695933, -20677709.966195244, -58783806.32110624, 0.0385957737465034, -1399578.6921703515, -1399578.987813255, -1399578.57570786, -74391.40249454016, -74391.43987608598, -74391.46855410535, -74391.50160405008, -1399578.6674692044, -28862337.486767817, -24081371.381699383, -111428323.36562824, -409766413.7086161, -1087794264.0968058, -28168514.342109796, -22762938.104678325, -22762938.02279366, -22762938.24865512, -2957565.3974350267, -1639132.4121305484, -1639132.367843167, -7738531.831232653, -22762938.065305285, -2455182.1997295655, -18806913.885978896, -414475.62034908345, -145864978.52193624, -712072041.91896, -61942541.27876892, -4892195.365809677, -11892180.715561826, -11892180.994488824, -14329194.132567758, -414475.5707865886, -414475.6106598888, -414475.4200717591, -14329194.405946083, 0.14061958989002568, -1398996.9417025617, -0.09036276695137545, 0.15910395976063535, -70752465.92183259, -2704308.859552013, -0.01670908046852728, 0.26262898778178, -0.1874469921021296, -1398997.0251930796, 0.06173397295276749, 0.04224412855576739, -0.017697975672264374, -1398996.865236045, 0.06437572367155757, -72260.66086841197, 0.21980219524071376, 0.3908280733268437, -15297887.179448567, -449715.63865670556, -0.17170360860702538, -0.0800745925516928, -0.004791390123756906, -72260.49223945136, 0.15358667997765538, 0.11641358212943731, 0.10823503153901169, -72260.58755174294, -0.04125407042912598, -0.19662312645913574, -0.00534486371309021, 0.04958018888314489, 0.0947982727849917, -0.017286861656764733, -0.03773445197321971, -0.1377130195119489, -0.11405217627853853, 0.00446618828451109, 0.1210089540785724, -0.08294824800079136, 0.01401650263351241, 0.0020321119748626547], [0.10776630002722909, 0.09411885162956159, -0.10348606914416497, -0.06420992918265088, -0.25724540992625594, -0.0872350768514143, 0.10570178622018209, -0.0023286290640906243, 0.0023104176805997757, 0.22791249919379294, 0.08696860976005312, 0.16301364611818608, 0.32323465791077793, 0.1349632074306166, -0.11553564595467831, -0.1483429770282781, 0.18047051893071744, -0.14504718250799703, -0.17541596940857626, -0.11456067646272951, 0.07221228576477957, -0.25741026199170647, 0.16918844312865855, 0.052323558134481855, 0.023580546771527603, -0.22800440127601124, 0.07461821993331955, 0.04373766671974067, 0.11923064238828446, 0.018767040227201194, 0.14071870997075842, -0.1609076218681266, 0.0588650153948934, 0.07515696068431059, 0.2208500333708262, -0.12331744603873282, 0.09061386085566982, -0.04673218429493057, -0.02231221928830646, -0.18653093188649464, 0.0845802992145134, -0.005882736013242995, -0.13236546663371565, 0.16147141843766644, 0.23894536568613622, -0.24418650235991793, 0.05421241481423122, 0.06778631524419067, 0.00936384126441234, -0.1883776593178216, 0.23210384076922153, 0.02169753155025415, 0.24537836111979205, 0.12273555549800375, -0.2933296928006412, 0.2785067957535711, 0.23150988784422263, 0.060327002752411645, -0.17672613235748538, -0.18519620886323962, 0.016701715859509126, 0.07605877472237399, -0.14135549510246273, 0.14337324007828067, -0.017799175895267014, -0.1775197789474616, -0.0722393335678295, 0.3824077435090673, 0.2471816149035198, -0.0727272785698822, -0.06207840983901706, -0.09172908920106985, 0.038446007939585206, 0.10172510529372408, -0.1525332201095408, -0.11489538108327756, -0.24359021036006065, 0.053144426177617936, 0.08931837424625515, 0.16179535443573823, -0.10967250674972917, 0.1066359893316307, -0.05054330132381611, 0.10128858094174145, 0.1617771883357242, 0.21172867203304066, 0.0034735243489720583, 0.07221288778251278, 0.014979642948926787, -0.004320546567797107, -0.07475779172991495, -0.009212671225688559, 0.048253895688153074, -0.11968710643731129, -0.11892433652510219, -0.015337654331858784, 0.17273955151943457, -0.03159450822884203, 0.15686263584241297, 0.2288942778224888, 0.04577851825936196, -0.014460589954556494, -0.13766413628924656, -0.12321275802167753, 0.2809259176607271, 0.1372745497983481, -0.22126451557209936, 0.09807471984875887, -0.08987650260724377, -0.08101179580712405, 0.18022650897048012, 0.11344770328210055], [0.31837058768896803, 0.11789734592681672, -0.20645847225509742, -0.08892913955670653, -0.6521793617433381, 0.09943414773395695, -0.011264221693551082, -0.26117827037700136, 0.16911406767738352, 0.18930923264213456, 0.14135065705660796, 0.04328549391112371, -0.05908514050430847, 0.006919918211917506, -0.25338573084532684, 0.030210919962539117, 0.07759895364821129, -0.2399446105465493, -0.4733333224623464, -0.11804933976003057, -0.006353720354672352, -0.08872442837328925, 0.18286273611238785, -0.030128357102821225, 0.03724481056915716, 0.015483067904596488, -0.17456943266295746, -0.10234076077385611, -0.0698133998029107, -0.17759340630231157, 0.20505299311888447, -0.4789487338582416, -0.5932998880873956, -0.17995377040674762, -0.07850968292652831, -0.07427901217487709, -0.0007052075542221631, 0.008634371088534713, 0.09796870548370351, -0.24327533059941023, 0.2979646290239292, -0.17543819014621792, 0.022331611822399622, -0.2815524535316863, -0.36740792955369195, -0.28558073847019705, -0.7942465883913273, -0.3734502035701731, -0.12020497975044246, 0.06254792731688032, -0.035414569138025306, 0.0041142965001431135, -0.17268013360049297, 0.07424953351444441, -0.03858867549374118, -0.28739347530581993, 0.0010821741043124536, 0.11105776925153496, 0.0703515502829716, -0.27651259795891586, -0.39346095856599195, 0.05726161513957331, -0.042393816314125414, 0.02861905048349025, 0.021136879857420028, 0.1246947281058837, -0.10790511073605383, -0.2875786638818111, -0.03616704421470701, 0.1508102387537998, -0.15524247296602486, 0.12054181617725865, -0.11669368647029843, -0.5124060686093216, -1.247654019661286, -0.13841039815736456, -0.09596827181257292, 0.010023008703962367, -0.023298716959075746, 0.1200605228486418, 0.15161742224662839, -0.17604812689003593, -0.25244648202826075, 0.30185814201787725, -0.053353529586058025, 0.1605205331763761, -1.4263644583238235, -3.3191694743858777, -0.46617973778365707, -0.1387476901024782, -0.13274606089126417, -0.11974125684561303, -0.07948196730187251, -0.10757552504086074, 0.0812173004691168, 0.022053879227917295, -0.3282370805821425, -0.06495273115203994, 0.012268181095701861, -0.10273967984103005, -0.2578367159522622, -1.1046588687358405, -1.2994590869160665, -0.04382475199100867, -0.07668052541694849, 0.08432613543321053, -0.186651854090034, -0.29903610906276856, 0.17955510239538686, 0.039148943061602846, 0.04498002902527612, 0.037398279598176994], [0.22722401825440816, 0.08299566863878756, -0.06527953205709862, -0.18952069610448233, -0.14286837081086046, 0.002489901516378082, 0.2500899751028067, -0.21623563434177429, -0.2736393659704091, 0.04401895140135472, 0.11000272164626546, 0.15526385826212652, 0.03990314617358052, -0.01385381867588783, -0.09804256662552838, -0.05846525999262904, 0.14093032935380903, 0.2501349911184643, -0.08232511690379242, 0.1570894567520848, -0.0032845509749560736, 0.17430970981905383, 0.1786398834564014, -0.042400976694412, 0.05722911934645713, -0.15719071142304059, 0.04842851930173962, -0.05945785689397967, -0.1359989882706928, 0.07599538573985766, 0.07190477489544211, -0.09138915269172153, -0.048645403182307104, 0.16006729030007769, 0.19625823950379903, 0.024294991838961263, 0.08605630678210137, 0.07098280250212395, 0.07476601065933809, -0.026756562114663374, 0.19239054666963679, 0.03615013689621825, 0.060896430834752116, -0.12452431885735535, -0.058159653628661136, -0.09548212804200337, 0.0037211947677781724, -0.22173979269820077, -0.043752578626795616, 0.052203834432801625, 0.18015651757346784, 0.12815185836417903, 0.029548314472730187, 0.07394089667554762, -0.0937221687315265, -0.023334520196775864, 0.049722031613420925, 0.06652440962452083, -0.005109604856928191, -0.019698467865140203, -0.3166890005506329, -0.11363169874881357, 0.07752394116866476, -0.09976716974001212, 0.04270704456869394, 0.00695230571091662, 0.06574744964972488, -0.05151478428265179, -0.13136469382668323, 0.2362107241788955, 0.11989706720947343, 0.0009722480787991235, -0.16174095612868014, -0.19215374180427822, 0.04798450194458576, 0.20377063383239843, 0.008473825897370592, 0.05215025552423335, -0.09568826543675342, -0.25603923118625926, 0.10487265748045224, 0.24724311682273364, 0.258612447606041, -0.16909430351670873, -0.32790971882239567, -0.05242830841461501, 0.0002615692232727908, -0.2360213882767498, -0.15315182725520868, 0.04608269878335423, -0.025356815499130745, 0.1343036910602884, -0.37895637677376637, -0.15737939349325997, -0.07988826234819706, -0.16555949811014184, -0.07500100913079913, 0.07146003375099011, 0.07376852654339665, 0.03159953862790821, 0.019380290990411563, -0.11881253282426069, 0.10270637991570261, -0.011865580868604168, 0.0672625490803181, -0.1457345494726196, 0.04127966003182997, 0.0364272853357997, 0.18140305203245, 0.07672365473668126, 0.09634465999774695, 0.0033849507473394567], [-0.14021769937631617, 0.052596195277437634, 25611.028666570586, 0.0667549781077867, 0.021052470526816493, 0.044698233642002295, 0.04645725584793781, 0.1068341358314941, 0.0060829415540001605, 25611.1272449169, 25610.791450022007, 25610.993379766496, 25610.922640353478, -0.08680985476961783, -0.0569900863245504, -0.13386285829781322, 31936.15941806826, 0.055033679603526064, -0.15876456644834844, -0.14545173330085523, 0.2686323649671172, -0.1613463569224549, -0.22583018569302368, 31936.2420327963, 31936.199601220367, 31936.264919168832, 31936.21440337045, 0.12685742889274812, 61146.23256332231, 38176.33307708826, 8499.18617399359, 2362390.2998442086, 6715941.487084644, -0.09534838141183465, 159899.40713653178, 159899.30300333072, 159899.340920048, 8499.163930801984, 8499.354930469986, 8498.98232264564, 8499.09713980988, 159899.28151204108, 3297468.879553994, 2751252.4391664346, 12730480.4015907, 46815057.68347692, 124278489.69900006, 3218200.925351968, 2600623.73482369, 2600623.634340488, 2600623.788724175, 337896.4230770574, 187267.78096279374, 187267.76747368491, 884113.1698341611, 2600623.648293307, 280500.2181371554, 2148655.357320821, 47352.98734963924, 16664804.892363401, 81352918.17866886, 7076821.027294345, 558924.4375976267, 1358659.8173709034, 1358659.814691268, 1637083.946430453, 47353.03583008384, 47352.83804165473, 47353.02543779444, 1637084.026124838, 0.036581757600608424, 159833.0079459443, 0.04833149391778463, -0.1798558721903294, 8083338.877477257, 308962.52471724706, -0.09536465617929075, -0.061056561260542284, -0.00816344849205182, 159832.8040007035, 0.06919868350660147, 0.13953076171646983, -0.2541506346402303, 159832.92694631158, 0.09494629376472132, 8255.307332168195, -0.14770640545423885, -0.2459965435223054, 1747755.504394734, 51379.46392431331, 0.09518197622578783, -0.2757789807591214, 0.10582496510232475, 8255.587118802066, -0.061848072902777135, 0.061130223480446715, -0.08015101896763459, 8255.60186659391, 0.2927931625352226, -0.04383599135248362, 0.14636862937917097, -0.12461098007379998, 0.1741110901513585, 0.07652388149674096, 0.0038499012378771205, 0.19709224446064036, -0.04573981905488137, -0.2573896386486528, -0.16992752914746784, 0.11643232521479904, -0.035534199064956556, 0.1362526516620826], [0.022657367581176494, 0.0957235856992654, 0.13096351769554698, -0.7173020375726442, -2.5554991545692705, -0.4147196722506879, -0.10497102128938615, -0.020603788698892178, 0.0040953218649325066, 0.07825735072067021, 0.19126102977767756, -0.06430729592886904, -0.018414489830234523, -0.03668458532445551, -0.06577319766458796, -0.18897674794849298, -0.036722075152725416, -0.3862408306757745, -2.1940209001945856, -0.34903350962781454, -0.29775817016785866, 0.026391068767767617, -0.01443725059907578, -0.07848849530050712, 0.017177609490053213, 0.22234661823887314, -0.1332080292764872, -0.04415663954027466, -0.028399607249367107, 0.29148803358439646, 0.0497615854838901, -0.8101887968247302, -1.792893115980999, 0.0927046968579266, -0.09074433527135749, -0.1963242898266736, 0.07323242745699098, -0.058874730152299715, 0.08154234807901864, -0.03444456778371282, 0.07673396286282623, -0.05313444196354915, -0.16224448385601042, 0.10186884691389839, -0.4380675314634203, -1.0924534576657892, -1.9278220990645925, -0.11559050358642187, -0.15091798881751312, -0.17423057744532625, 0.06721883552916849, 0.15950973487695097, -0.051770370535855176, 0.016868234168844344, 0.05141364902089645, -0.04402706984142509, -0.09207888108374951, 0.03561089285906473, 0.08983504852089265, -0.08663360202063689, -1.5905531197287677, -0.10909575489014592, 0.08660062013673447, -0.1822665793008173, -0.004461525842103971, 0.29059375035275875, -0.0006385987510547448, 0.06916432702392507, -0.06845307286689861, -0.16617718530380535, 0.07727725616769344, -0.1208794292600235, 0.09938082538652815, -1.7302167766942682, -4.062934471840463, -0.12405960925703396, 0.08896541923935437, -0.19865123289059758, -0.021248051814981884, 0.018503751835229402, -0.020774454223350697, 0.016561690570680333, -0.12641367449523655, -0.07425678253223522, -0.2965706944120212, 0.1395896394354013, -4.445247692780362, -9.738193934209487, -0.8237322242214968, -0.18361537449589832, -0.3270819085878046, -0.2440715955314443, 0.027137356549377573, 0.2395076047257463, -0.0798295193072175, -0.035029287391275116, -0.12459703789242148, 0.1176790197633426, 0.04962744887127503, -0.134685950713881, -0.5595741635387244, -3.439595696098696, -3.799734503588651, -0.319444001372173, 0.09051185117298932, -0.12231265442277495, 0.2315271168623632, -0.14985193677581857, -0.14318759484022767, 0.007489018258700544, 0.03909543343879673, -0.02057078435155057], [-0.04174665765897974, -0.21764929936118813, -0.0908873516114759, -1.75811327930591, -6.534714063365009, -0.6036305859425061, 0.02180986211691898, -0.23226166655816982, -0.0632445920816416, 0.11097336135736798, -0.10211211736817777, -0.03455781370109452, 0.03340315983737661, 0.06973770946849069, -0.10693820796228866, -0.1257374143092608, 0.07935852771339723, -1.4868780317591828, -5.793482961285876, -0.45051406761574425, 0.13835629449094233, 0.03512809059015049, -0.20639368381540252, -0.11672831879845881, -0.25653511941211965, -0.2769228145330124, 0.15228049503730184, 0.20576026894005325, -0.12888970520240597, 0.022637472244116434, -0.11112195970010437, -2.192275788078933, -4.446196224862427, 0.010933173771513408, -0.0953477375784219, -0.14639183217307364, 0.14671499137867236, -0.10272133611775933, -0.004730759331857047, -0.1920743987239168, 0.17745434591132445, -0.08899532548547119, -0.31129080811285054, 0.010714421804572202, -1.6332159548825447, -2.652143817970938, -5.004842127746464, -0.1430405516443378, -0.29148423123620876, -0.004425145812836595, 0.11893743417825516, -0.07080865698713544, -0.06006494939252411, -0.14725103801242967, -0.1641779817582566, -0.012940766448043676, 0.010145172540940437, -0.08170237894847932, -0.23313447345762733, -0.2887041897605711, -4.6070180882961465, -0.5766198093728624, -0.1800582504845305, -0.2978620541859292, -0.3213783894182263, 0.13365558617244455, -0.01720286266162698, -0.15686204908436735, -0.02521000158901621, 0.052361899611428606, 0.09348143786756433, -0.15150273852568533, -0.09397977012974877, -4.833300685638735, -11.028176266167977, -0.4655427673970751, 0.14931618388469994, -0.060773525522979654, -0.1699941822652749, -0.09248294462230426, 0.22447548541562612, -0.08629797916377165, -0.2558494441452575, -0.022561635930713562, -0.14865425764349183, 0.15361184465982572, -12.636546084334137, -27.721186349759357, -2.657900654157131, -0.491350016186895, -0.510984810189875, -0.3048168535537302, -0.3757021649198866, -0.004245065205702639, -0.0695456979714833, 0.04593160412706892, 0.012015020208203336, 0.14600821285650817, -0.0005596990595455875, -0.27148819634055166, -2.4069595186620707, -9.122405280190508, -10.502331472063357, -1.0345678297955725, -0.18289238124432752, -0.24495606889315913, -0.11499446216095165, -0.07660293142447833, -0.14135174252440988, -0.06581783399118243, -0.2029133029762142, -0.005598776767160176], [-0.05666213887982257, -0.027920031740359404, 54011.52945285714, -0.14331282023282005, -0.04810834674237379, 0.08379277889171619, 0.022837706989442774, -0.03199532357892926, -0.24917576979178943, 54011.188878065885, 54011.35147712688, 54011.4214009391, 54011.283098891174, 0.0601444095713282, -0.17651238097559488, -0.0362108684959963, 67350.41456532174, -0.023647737948587662, -0.052105896156400475, 0.30266371965076855, 0.21256224262295798, -0.14827413609953868, -0.08652382675857509, 67350.4227957472, 67350.3047588088, 67350.80523140728, 67350.84282891566, 0.12936820049869882, 128951.689852755, 80510.26696438734, 17923.911815598003, 4982073.798488293, 14163331.280183492, 0.266872207071317, 337213.6165888286, 337213.53805332497, 337213.6809269128, 17923.757629946755, 17923.878843110753, 17923.95707461163, 17923.886829397743, 337213.18446075765, 6954072.637239589, 5802149.769126804, 26847466.463546794, 98728849.64962627, 262092432.69402537, 6786903.257831655, 5484487.729546116, 5484487.13376554, 5484487.3440543255, 712594.0175458924, 394931.4019403638, 394931.69663485675, 1864516.4523161193, 5484487.161232787, 591550.0601268805, 4531325.507547752, 99863.72239638816, 35144611.567697234, 171566167.9540712, 14924395.241898444, 1178722.2857955417, 2865294.1640550755, 2865294.4650939214, 3452466.6676369207, 99863.39954472681, 99863.3134248319, 99863.50794861309, 3452466.5904627275, 0.1469594469388877, 337073.3547990826, 0.11404406719304765, 0.14975530956293426, 17047052.54507509, 651574.39674597, -0.12110267035977254, 0.037133422218281045, 0.07447437520210153, 337073.399949985, 0.10429497773388924, -0.004669908296903444, 0.4537806763493515, 337073.84588798863, -0.023462009807152646, 17410.695351070623, -0.10110663490590498, -0.162264871545443, 3685863.0249882187, 108354.37436334291, -0.13929451819816094, -0.09623431208371437, -0.021814218076811734, 17410.306833706767, 0.2582957551452385, -0.1096867903221475, 0.23121354792666157, 17410.46286277683, -0.08163461630302805, -0.12180493898643165, -0.0649234989287131, -0.030617432022065263, 0.139454533415772, -0.10147340581696535, -0.0417470998073071, 0.07845276914631663, -0.08709836418618752, 0.09896976369949533, -0.21104323104032288, -0.06780241096641303, -0.00371044511588986, 0.13919774636428195], [-0.00538436710290553, 0.1249976354882202, 0.08973512484390302, -0.2124912268950484, -0.16593822968716648, 0.027719206686383932, 0.01847114861875585, 0.06019092889758369, 0.12059014257230782, 0.17192148658996148, -0.14108694000340874, -0.006616651309980219, 0.2007169086661108, 0.03665168146695782, -0.23389323051714317, 0.05107870393521194, -0.1947646476049495, 0.18905985339802414, 0.042719598104792145, -0.07191861832225788, -0.038941612413571115, 0.24708159033511953, -0.1688191981504032, 0.1930187551572762, -0.032065724158036206, 0.10730488389417973, 0.011583289731990694, -0.04414022962136949, 0.0156611389102351, 0.1960396435384622, 0.16546735523741976, 0.06440403241592246, -0.39155678583267495, -0.13557337455456456, 0.05479709813084861, 0.16217991589573155, 0.002375903763806751, 0.029641357338541265, 0.1475114660634665, -0.06508527865094886, 0.0314963134659913, -0.0890701957211255, -0.15835473432240843, 0.2663437096912412, 0.25134792239505704, 0.03576421573492304, 0.030426556617897046, -0.03645769726830192, 0.07464890247628445, 0.2375515240016726, -0.048825051269879606, 0.20144819880251957, -0.049635142688606894, -0.12469436291865556, 0.026385705018063615, 0.06951269172663148, -0.0844074719152281, -0.11695598095309422, 0.03488108171460934, -0.023236740721408997, -0.2283409021518997, -0.12987581619399616, 0.030724033946611534, 0.06484580152846421, 0.244926573690104, -0.0883635760775383, 0.16368459221904813, -0.03504880653158699, 0.02718039068783447, 0.15646090545543387, -0.011565026100815367, -0.16409995119419402, -0.15014681790553935, 0.28456351387409884, 0.08609965820538716, 0.1781320984334524, -0.09112486540861768, -0.07226720242666448, -0.08121890610589022, 0.2316817920646374, -0.012854000585477482, -0.13651011702142304, 0.009848506100738532, -0.1332972989195577, -0.1586255406230339, -0.15580689418907556, 0.08733985325517016, -0.14671211843040763, -0.25877607107198686, 0.02488713505666587, -0.12724946350628907, 0.3044026855380823, -0.0023795491026906983, 0.04935535626805402, -0.12345441717109362, -0.12865860591848102, 0.27710233726426875, 0.06778325861210914, -0.019175878250742854, -0.006739355542592712, -0.018953541703248096, -0.050142171484390215, -0.06042257306431035, -0.030856807598005888, 0.1292481142946991, 0.17917380067119215, -0.1343671213040058, -0.20459743356424978, 0.16829937816396767, 0.011842840483707902, -0.01928271827128917, 0.040597889980106085], [-0.0671456969438287, 0.12783992464183302, -997348.5140488774, 0.6085797606454691, 2.5369798407270023, 0.13257295729273233, -0.02298377241896011, 0.0745960170894432, 0.17268479484747623, -997348.4502736263, -997348.2585901992, -997348.7453243249, -997348.378075119, -0.06157068208419076, -0.033884385360869164, -0.016300715586311396, -1243665.6370236538, 0.4778221975600316, 2.2402714535573365, 0.38260056538001097, -0.06599977073774217, 0.004614100213894861, 0.12185122612623467, -1243665.7982520596, -1243665.581245209, -1243665.6126610513, -1243665.921428999, -0.12721905935073918, -2381159.7774249157, -1486664.4173116863, -330973.22118290886, -91996662.60590756, -261533506.67266354, 0.21246552496107224, -6226829.252342268, -6226829.456670186, -6226829.363721224, -330973.35298228747, -330973.2206159352, -330973.5258392902, -330973.4596399868, -6226829.30371674, -128410678.0631876, -107139804.82976802, -495752864.619681, -1823081129.632934, -4839677262.294199, -125323805.99254829, -101273997.82145032, -101273997.87618382, -101273997.77476113, -13158428.386771085, -7292621.388967794, -7292621.542604755, -34429301.5584763, -101273997.97797166, -10923286.892220113, -83673352.70222391, -1844032.6338620863, -648964094.3613542, -3168061262.876981, -275586955.3004317, -21765739.331173703, -52909194.05674332, -52909194.146422155, -63751646.26254907, -1844032.696344478, -1844032.5934377492, -1844032.6972595346, -63751646.43388218, 0.08328750107841675, -6224240.721063264, -0.02289053698101772, 1.5967873011810207, -314782959.48508245, -12031671.430213014, -0.23410045277159322, 0.2934488362184357, -0.010119147887889195, -6224240.819015129, 0.26193682443293537, 0.34762273914301633, -0.010542296888194976, -6224240.931543563, 0.45999877140412926, -321493.09456547146, 4.84077814652938, 10.866334324487502, -68061431.08107099, -2000817.7745507555, 0.3137757577170649, 0.2683688161723129, -0.18361133748256392, -321493.11528401193, -0.07528927885444947, 0.19342811064600404, 0.061391101397558094, -321493.2259813996, 0.0014749670930461617, 0.1350416535515508, 0.8230483430206568, 3.5802868700269017, 4.2844849100445135, 0.6733875047232207, 0.035883217227685664, -0.0655329824983991, 0.19977482112961525, 0.09417106257370583, 5.716230927510467e-05, 0.17618520198606716, 0.1213109158017125, -0.12392164180320793], [0.003433507523780348, 0.0911758364542815, -1262789.690612885, 0.5036875048437258, 2.634959499270337, 0.2905867581686985, 0.06717801647470542, 0.14346422796033614, 0.04763700095069334, -1262789.8470022131, -1262789.9792515414, -1262789.7854703418, -1262789.7336370908, -0.17785354737676043, 0.26443438428511035, 0.0057426399357991195, -1574663.744165391, 0.8153318128795404, 2.397999087920266, 0.3740720220673438, -0.15629573254322776, 0.043622927787064336, 0.14990059550298165, -1574663.7228853097, -1574663.729713434, -1574663.711807378, -1574663.743188087, -0.3106618944998842, -3014898.192845573, -1882335.4455761497, -419060.9603879383, -116481300.63280433, -331139870.7000322, 0.02359417843065522, -7884081.6623159535, -7884081.496150429, -7884081.605112749, -419060.9620493098, -419061.15440982714, -419061.1619146995, -419061.02966001024, -7884081.6103193965, -162586797.62753406, -135654744.63273427, -627696013.3928394, -2308288742.925024, -6127742952.272939, -158678363.81247965, -128227770.77012542, -128227770.72600912, -128227770.74986546, -16660504.907472072, -9233530.931683253, -9233530.88221547, -43592557.70162352, -128227770.90512311, -13830487.31769227, -105942766.3632694, -2334816.389734952, -821683955.4007728, -4011231333.359586, -348933602.41633517, -27558625.715765376, -66990818.7720634, -66990818.598038934, -80718957.07387199, -2334816.4697677116, -2334816.5777441454, -2334816.2490571667, -80718957.07761626, 0.19617168253423642, -7880804.040013207, -0.10538790100143314, 1.9153031221412864, -398561507.6122955, -15233865.30860359, -0.04266737558411038, 0.14760536701060223, 0.05886727167242414, -7880804.267851341, 0.1767296406469382, -0.18651786590951916, 0.19668304021832753, -7880804.11892868, 0.32357863073045223, -407057.6441675184, 5.351384051338782, 11.56253643926529, -86175778.48021093, -2533329.3337147855, 0.37581122010749807, 0.1612447699808588, -0.31828975312093266, -407057.68761041766, 0.015566143870572615, -0.050711709767362174, -0.27120315606850093, -407057.50192647375, -0.11075811648819656, -0.21805298122674333, 0.8709712832286955, 3.6657316224821552, 4.301065005577708, 0.4345742751736984, -0.14192699442926365, 0.0025232300597286955, 0.2673292765270664, -0.20282054426167923, -0.14391477069705602, 0.028755762962914908, 0.05995510889914006, 0.2683537482478433], [0.13367406897946954, -0.00642435988680333, -1241096.3786962358, 1.217689365475596, 4.087715223757022, 0.226611711099784, -0.044428948717261336, 0.08432946146640713, 0.20041509959892415, -1241096.5580238744, -1241096.3884791057, -1241096.442409719, -1241096.5408958953, 0.17598971210856884, -0.22480740176724667, 0.12316773197160667, -1547612.7292084664, 0.8763147992777477, 3.455429303194087, 0.28531429430344646, -0.1639561220440922, 0.18641639184230163, 0.11038283636442874, -1547612.7363691877, -1547612.7081590642, -1547612.762337363, -1547612.5703754127, -0.040469000309764074, -2963105.856920454, -1849999.1191083407, -411862.069584084, -114480282.410955, -325451258.93960017, -0.07993260484656646, -7748641.7611841755, -7748641.961753608, -7748642.04824749, -411862.18152947933, -411861.68974508543, -411862.0876101446, -411862.3803357218, -7748642.096742228, -159793739.2721935, -133324348.40265019, -616912900.6008112, -2268634935.7022867, -6022475212.604215, -155952447.59851503, -126024961.6785538, -126024961.6045101, -126024961.89184794, -16374295.938931333, -9074909.369596716, -9074909.325016204, -42843686.61469746, -126024961.58261792, -13592895.215750199, -104122788.5711502, -2294706.9999636393, -807568348.3096601, -3942322884.97738, -342939315.3749062, -27085199.33575617, -65839991.76846831, -65839991.86981617, -79332296.22695334, -2294707.1045825663, -2294706.7246435303, -2294706.806254548, -79332296.21193407, 0.08392153711871617, -7745420.751186509, 0.19247641410216687, 3.101003165141713, -391714666.3421154, -14972164.416917916, -0.03968353286393234, 0.10560478142871031, 0.13359306042433344, -7745420.953594001, 0.0312777597082026, 0.1428109093231661, 0.05426246349774203, -7745420.647897454, 0.3317833635216379, -400064.7015155469, 7.484310127132834, 16.456895302587494, -84695374.8659076, -2489809.4762392924, 0.5030793163256588, 0.4357403749316555, 0.19874778882143035, -400064.8158011377, -0.16055849872306457, -0.04994020014054794, -0.14718189283612887, -400064.60317608266, 0.22202613093450613, 0.06429199952315885, 1.3952181057477042, 5.401876903250783, 6.4976650840049235, 0.7599306574709099, 0.01840599749830634, 0.07776831324608757, 0.09295472241261064, 0.16339513339317902, 0.05209823445493838, -0.1215143667332798, -0.1633243647595795, -0.15497930202963614], [0.16587289740928404, -0.021715785950639277, -97897.01180646231, 0.3375373159932691, 0.9467496466095632, 0.21272151538537334, -0.046146006905533464, 0.11839657801158325, -0.007081907225033858, -97896.78815847595, -97897.29121904189, -97897.07599578619, -97897.07262074179, -0.09572907223278075, -0.12837044177237802, -0.07682468299053974, -122074.8971859586, 0.21893123286112415, 0.9500562150563764, 0.12604751218085297, 0.028348247379735767, -0.05341456686040669, 0.14571689942980262, -122074.9917670121, -122074.92528022264, -122074.92262392666, -122074.74946681508, -0.04518006949384353, -233728.44349251952, -145926.86582242826, -32487.464523729326, -9030144.784850292, -25671425.319294643, 0.0741073038488528, -611208.7379748987, -611208.806202471, -611208.9221785313, -32487.361401813632, -32487.399157325963, -32487.510965933277, -32487.473599426834, -611208.8159640932, -12604446.995542856, -10516555.215570834, -48661768.34991491, -178948742.43580043, -475049708.72575927, -12301447.845403917, -9940783.253362037, -9940783.431913443, -9940783.35613783, -1291595.9292060824, -715824.0155219833, -715824.244261776, -3379487.5825341484, -9940783.523866627, -1072200.391954563, -8213151.537205219, -181005.13236564465, -63700570.87263554, -310968376.23830974, -27050874.87948735, -2136466.0583915473, -5193424.09607985, -5193424.226255487, -6257690.198734447, -181005.2139894819, -181005.1764624014, -181005.1821760153, -6257690.223105237, -0.12821982158670514, -610954.7768102018, -0.18941986673639388, 0.6138759394838891, -30898247.65813509, -1180996.4527448476, -0.16819065114862933, 0.17731594706585668, -0.0741700413699398, -610954.8607378898, 0.048661306978395935, -0.0021068639104381117, 0.21752505387313253, -610954.7406757311, 0.15101131987563837, -31556.787709142118, 1.9963022215914268, 4.698061439464436, -6680726.713219508, -196394.84851014375, 0.3430673111786306, 0.21247731542722437, 0.16136711933291942, -31556.92421945137, -0.050847518956904425, -0.018489023051695835, 0.0579623399466808, -31556.859731888668, 0.11171883439363628, 0.08565628891038352, 0.6034817872573729, 1.4563379083044206, 1.888637121837413, 0.2776226370777049, -0.029929513615723276, 0.24522737192740504, -0.08777077523481061, 0.046858969322890506, -0.09489074580931095, -0.1198924676480463, -0.16759231687103127, 0.061864114021188285], [0.010064525647407882, 0.14316401731838696, -461888.79143685475, 0.8335430732301099, 4.069355036898037, 0.31653991200187015, 0.14566058872993096, 0.13997602064252618, 0.07715847760630579, -461888.76923190895, -461888.91386326804, -461888.605873605, -461888.8922337721, 0.14786476054829334, -0.03822597704183902, -0.13492586399975856, -575962.7146078036, 0.7654830563753028, 3.4666616455903343, 0.447325693844879, -0.016902491808305106, -0.23530589989927753, -0.09232396985501581, -575962.5441852205, -575962.5091047041, -575962.6154052956, -575962.7039074291, -0.0841472640319077, -1102755.1718074542, -688499.2944796724, -153279.5342150089, -42605206.87955547, -121120580.93566555, -0.06300721252237607, -2883749.7500520814, -2883749.959594714, -2883749.86943883, -153279.2523648623, -153279.4216573214, -153279.4532573615, -153279.4628073382, -2883749.9211097425, -59469153.22431838, -49618252.70997233, -229591521.86751276, -844299652.5639552, -2241336255.301839, -58039570.81566905, -46901698.39586135, -46901698.28341829, -46901698.52610097, -6093890.250598489, -3377336.2165115494, -3377336.166113309, -15944791.193374548, -46901698.47214969, -5058758.444489864, -38750542.26852322, -854002.5785205076, -300546229.56513375, -1467182661.1648183, -127628971.97950405, -10080081.308834435, -24503141.120359305, -24503141.20931662, -29524463.862715676, -854002.7784785861, -854002.7709014125, -854002.6371135934, -29524463.739451732, -0.12106533533008684, -2882550.808739208, -0.015798079322844404, 2.738776909106647, -145781298.87835577, -5572069.954122381, -0.05742460669707538, 0.09683832050106761, 0.06117617807491719, -2882551.0189219653, 0.16688549184953574, -0.02757958517651275, -0.13019062652999466, -2882551.0948950024, 0.15694185516544584, -148889.07307628705, 7.655678388899315, 16.6825976921726, -31520396.995910972, -926612.3575376774, 0.17410207105895592, 0.17218521087480035, -0.11489825960346112, -148888.93565050082, 0.07390012133496046, -0.11980613919774072, -0.1085951208575424, -148889.02422948278, 0.10057068713251724, 0.16633883950280395, 1.360491336193321, 5.629138049821765, 6.432679650495637, 0.6550975779985827, 0.019653210068945187, -0.15365053471495968, 0.22375933703804915, -0.08698519159771642, -0.11046987836415453, -0.19898449736531634, -0.017519970970035527, 0.023108298391793392], [0.0752675998611653, 0.05384357708496483, -46769.10550697745, 0.059432811862186075, 0.1899097830185127, 0.04127038172607251, 0.0953063759474545, -0.0922827689478189, 0.006306052622470032, -46769.22466782676, -46769.27422634417, -46769.133663061395, -46769.131712337025, 0.023391583935635587, -0.09470404843110251, -0.34649301267691246, -58320.076557003544, 0.25447238914151693, 0.4828694203616493, 0.07287834185912685, -0.16903593007687787, -0.03743715301889195, 0.0310966347486486, -58319.85985637699, -58320.084741330815, -58320.13611766011, -58319.86553814735, 0.011054395099427017, -111661.212449775, -69714.8938193422, -15520.489245855755, -4314054.15206569, -12264245.693871664, 0.20595178970709813, -291998.4705179648, -291998.3416690082, -291998.3373748337, -15520.456138440173, -15520.064216522527, -15520.770648033378, -15520.575226773066, -291998.3359762777, -6021638.131024694, -5024170.63542882, -23247633.608499803, -85490826.89343615, -226949862.48901212, -5876883.639216849, -4749101.919084122, -4749102.019103919, -4749101.892591333, -617045.8676237703, -341977.4646195217, -341977.2792167979, -1614513.8020124673, -4749101.827763665, -512232.0364071527, -3923744.363891141, -86473.40208365605, -30432259.165439647, -148561779.82146582, -12923262.887549631, -1020673.6858863909, -2481102.3025658512, -2481102.155353222, -2989543.7418787703, -86473.41008272282, -86473.44396621887, -86473.41658158405, -2989543.7445222843, 0.23180626706325544, -291876.9327977082, -0.15828106427946811, 0.09946987797784454, -14761303.873670299, -564208.5765045842, -0.1125509940021264, 0.04518106764512193, -0.037057586725667585, -291876.9744977613, 0.20169219938129285, 0.029911796003441158, -0.09497568263885812, -291876.7526285885, 0.10786460827478524, -15076.013977151784, 0.9550056655323224, 1.928672977492546, -3191644.8128011767, -93825.69116368418, -0.10058228819668322, 0.13844564397513204, -0.05375950744569035, -15075.908756267863, 0.2732728797769328, 0.0970396444863872, -0.13182262597296426, -15076.115742071814, 0.048082355223366464, -0.10165608733470083, 0.05263865757315968, 0.6811307509399235, 0.5010541243227316, 0.28394640019954037, -0.06490614863237504, 0.15295109713218458, -0.15533432125500826, -0.008278306685061881, -0.0688634139069502, 0.09476132442722944, -0.13415154105478633, 0.09998944506122542], [0.012324081476707006, -0.12873012073238535, -35209.26409868119, 0.040374656140212066, -0.005389465125806391, 0.005621251029733708, -0.3340511453771512, 0.11282018292383166, -0.1629815883963002, -35209.29320298582, -35209.363451970574, -35209.44108397768, -35209.37193163438, -0.05260976347376872, 0.16832052417224214, -0.1657739838182544, -43905.22910442133, -0.19447126699275918, 0.3463045176898372, -0.2583343971628385, 0.041719842260505166, 0.08374742314928559, -0.029439586970730746, -43905.203470686945, -43905.106540633285, -43905.19121732144, -43905.13032958425, 0.07471936695269076, -84061.99217581266, -52483.55182456992, -11684.3596017366, -3247753.8807491567, -9232904.665944135, -0.15113130245121847, -219825.5273280098, -219825.54155733297, -219825.63932472782, -11684.567717705608, -11684.353052361139, -11684.569662021491, -11684.253329986455, -219825.48311318932, -4533275.874702746, -3782351.373127763, -17501539.138439253, -64360143.48153306, -170854888.722636, -4424299.9568874, -3575270.662749513, -3575270.844655682, -3575270.9137088754, -464531.3062931351, -257451.00166760277, -257451.01757765168, -1215456.257297554, -3575270.856986529, -385624.47267779673, -2953916.1715226937, -65099.705603629016, -22910347.540931463, -111841911.18280506, -9729032.786933523, -768394.9579526003, -1867850.6945997681, -1867850.339865867, -2250621.4123211154, -65099.66635614991, -65099.893675830885, -65099.588941116795, -2250620.894041657, 0.11200411734520384, -219734.19351264433, 0.06794126199762723, -0.17569064412275695, -11112767.512272924, -424753.261870557, 0.09863858579302273, -0.04164540184042806, -0.1561205848057146, -219733.95006637965, -0.15214962945531116, 0.10597812038648452, -0.07651173906178782, -219733.89804297252, 0.12935024716694074, -11349.700160752685, 0.04901411229611745, -0.1628447353719637, -2402769.2691999897, -70634.55888744954, -0.042440168753370436, 0.03799156579022526, -0.1980741873044494, -11349.63617088828, 0.362832446436555, -0.024441671372039057, 0.2358640428703886, -11349.46166111835, -0.06679529746201418, -0.027887421963571503, 0.12891463560479344, 0.01985668743833002, -0.10172937917419497, 0.05988718110180706, 0.1144366984759361, 0.1953611022069178, 0.21386861443143454, 0.0031854867464668345, 0.24813091659142886, 0.006139419591162375, -0.153113449095419, -0.07793375746611117], [0.3145681886064644, 0.26260481186940626, -1301258.2420465937, 1.8493441386225238, 7.4126923099764035, 0.7824909074450694, -0.07247027217211435, 0.5709472260445683, 0.2754176155409356, -1301258.4558750323, -1301258.2122062955, -1301258.5750787922, -1301258.1206641614, -0.010954609449249099, 0.017894652120841424, -0.19431203484261286, -1622632.5905179481, 1.5506950817906855, 6.498393682833128, 0.7992157287661997, -0.13341642497579068, 0.19680522034924366, 0.14285876119460675, -1622632.7336524848, -1622632.6260294195, -1622632.7121511297, -1622632.7534937898, -0.018266729565982544, -3106741.193326801, -1939677.4430646205, -431827.2057088364, -120029677.14235346, -341227404.8737316, 0.34170172591431325, -8124254.890228003, -8124254.917609527, -8124254.880409957, -431826.95681048365, -431826.7788700711, -431826.7848323685, -431826.84487915115, -8124254.94436953, -167539690.8492231, -139787204.942995, -646817560.7670628, -2378606306.5771394, -6314412821.10651, -163512194.00374883, -132133982.19684821, -132133982.50132048, -132133982.43245772, -17168034.81026693, -9514812.62287914, -9514812.799471112, -44920520.74050381, -132133982.7121471, -14251806.487089846, -109170108.1732314, -2405942.0775168426, -846714972.4565314, -4133425757.4008956, -359563191.8230097, -28398146.083447307, -69031564.90987009, -69031564.75301006, -83177904.55319689, -2405942.239656702, -2405942.2035320187, -2405941.8814304597, -83177904.45156676, 0.0408688873491766, -8120876.807247124, -0.03435327162783434, 5.321996253522542, -410702907.62424254, -15697935.196846234, 0.29008147671625745, 0.3515608531023968, -0.039901401818391705, -8120877.479419768, 0.06372712638729072, 0.0204969226234589, 0.07584098877417338, -8120877.802778046, 0.5812537676313784, -419457.61434587435, 14.146913553364296, 31.14495411320215, -88800955.75101164, -2610502.1543381396, 0.5892381954199591, 0.5783576206232677, 0.13894715000543378, -419457.61652138346, -0.19801213574110813, -0.22464321506976376, -0.02531027287568491, -419457.55937655515, 0.1387471303419114, 0.3770608898475248, 2.4255770266994134, 10.629177437112956, 11.645823216219949, 1.3642557873436951, -0.17268993425649765, 0.1705977581863931, 0.03824371945219715, -0.24484884303600332, -0.0017666630558557546, -0.20472208116965995, 0.09907642775340152, -0.06704972489312773], [-0.06488065102981555, -0.2967743097173196, 0.03298868913848138, -1.1310488361739568, -4.070024939735566, -0.25795326640541283, 0.13998209037196285, -0.1987133066922404, -0.015799584851287185, 0.10584437680065278, -0.112556140056801, 0.040498768659681036, -0.04355114204967821, 0.0066138030163034505, 0.041194537521902885, -0.153117454532383, 0.04578083860511036, -0.9810023211708961, -4.115779478621954, -0.5057703206748051, 0.09203010589294612, -0.0595210150318038, -0.08498897004994402, -0.0809549220947449, -0.023262501856748916, -0.013304058844195223, -0.06502979120746902, 0.12814855322346813, 0.043104483147947355, 0.2576584041770152, 0.07802004150146363, -1.5603591010979792, -3.0403782285653964, 0.18126590608062781, -0.014093019614368355, -0.060962578971660575, -0.03671826993150375, -0.00015405379538748704, -0.14898859720953633, -0.07033132009953105, 0.0019417690439534636, -0.0618162711653303, -0.0966987547337953, 0.0034721407495371236, -0.9719686580340231, -1.6365387142522752, -3.315631697870637, 0.03540805587187762, -0.17768839716892237, 0.04092471168869626, -0.02053322737015164, 0.08047371653731637, -0.2353181030628525, -0.04821355736735758, -0.4177476646602743, 0.1273174744947365, -0.0530374019807377, 0.016679220969915157, 0.0936548254136051, -0.2663949260960931, -2.8679469565799898, -0.22655114283313144, -0.28110902878855354, 0.03529617289942458, -0.0016519189316840169, -0.041222305094551215, -0.13024425428282502, -0.11646950151462528, -0.15943623644291885, 0.11769914743258096, 0.040931042277947464, -0.333264275090923, 0.06453152131283199, -3.1423094974406816, -7.377153017192325, -0.19589191764125208, 0.12153636817848797, -0.1153116307902933, -0.2610411499881122, 0.05557194026545743, -0.13616128985694304, 0.039004933185804495, -0.1958393169963562, -0.06108631184528705, -0.3631183795030888, -0.11725255428305141, -8.256267675579913, -18.02210514968487, -1.4516335100509212, -0.2685052305602604, -0.3982715505140173, -0.3442239545334065, 0.11548802339891505, -0.021472189375768117, 0.05228763007308905, 0.1578193769164906, 0.16516160563185717, -0.19988616366912204, -0.003856235783654627, -0.21668713805542028, -1.1962560779644003, -6.016834727435781, -6.7454820608336385, -0.8826363151314931, -0.11990938392582945, 0.048815726899646486, -0.2424764699404791, 0.11280546642737034, 0.31711121012355137, -0.19790491657353412, 0.08100184948830681, -0.11306346521986432], [0.11464158017076338, -0.030463762187681643, -8276.761974281324, 0.009904463786158366, 0.1519147363468496, 0.09413668683938808, 0.07049402369507089, 0.15670904768436272, 0.05031233825834444, -8276.622666681227, -8276.75196363447, -8276.855643967918, -8276.606548928112, 0.05906184962756839, -0.001342000961688847, 0.009213223706224368, -10320.741910152983, -0.04938701362880616, -0.16496067801880349, -0.146261924909865, -0.20053198440839784, -0.10957597261977954, 0.17058854456159414, -10320.503313686677, -10320.561188044612, -10320.552565492157, -10320.553635545155, 0.05460009258893291, -19760.37581049299, -12337.121415833864, -2746.895999301549, -763445.3342743237, -2170367.5021088882, 0.18050267967296416, -51674.17691467682, -51674.13320641375, -51674.19220028698, -2746.5135024330134, -2746.6429553567486, -2746.711498540592, -2746.648608229151, -51674.274677060566, -1065631.9299837109, -889112.8231087581, -4114065.694502366, -15129061.025859408, -40162652.415489435, -1040014.6247332745, -840434.8935017104, -840434.8318753422, -840434.7907602658, -109196.90943871783, -60518.64670395572, -60518.74215940303, -285715.6362975646, -840434.4258182968, -90648.53554612362, -694373.4730919761, -15302.932014915237, -5385507.520234321, -26290542.80567409, -2286991.8928980394, -180625.66996343894, -439073.5125223947, -439073.601415497, -529050.8802402946, -15303.054673249828, -15303.137132194304, -15303.014889933502, -529050.6315415013, 0.12338289234603102, -51652.56420978348, -0.043961005997818194, 0.21347249997905024, -2612264.924818548, -99846.46825833034, -0.2245582946364477, 0.34711751554623393, 0.1368077938979823, -51652.55115534423, 0.41223755778014, -0.27317165058268134, 0.10329663974609696, -51652.61742069337, 0.052853761466658204, -2667.850343715327, -0.19373437231843446, -0.09697167186992484, -564816.1237824436, -16603.997476625773, -0.08310262619509519, -0.0923513800454686, -0.10812112088714546, -2667.935080791219, 0.16328331672744217, -0.029507359734771463, 0.054000234431017494, -2667.8836580640623, -0.008890260615295468, 0.08129673229345827, -0.07652350500906852, 0.1148753699093957, -0.08001134293005194, -0.1337600345573886, -0.13088684012872254, 0.07791580365645284, -0.10494017937675933, 0.08903952735866746, 0.024158471937044994, -0.035535362024674104, -0.2041332327604683, -0.046566730001293806], [-0.026746698409768926, -0.06665624738332059, 0.044143016201429644, -0.645079744394444, -3.637428241677391, -0.4203288177541821, 0.009310094251410498, 0.20801128459216284, -0.32435514670070636, 0.39738272020358945, -0.037127708128549264, 0.22108852868857845, -0.044535831080635455, -0.014167494223042688, 0.04143316919262514, -0.08614571661572613, -0.1344373009034695, -1.0855863291656145, -3.380004804971559, -0.37275292443609037, -0.08727168719013394, 0.1687410556532181, -0.1187146997055476, -0.012497909189271244, -0.11755967447395524, 0.04537933526815902, -0.05327083265971624, 0.017491699307086384, 0.29058232665135736, -0.12303009378253864, 0.14587658941496864, -1.3482534525843224, -2.4445039076946444, -0.09654404085080721, 0.09043705285478973, -0.011549041005463057, 0.11052270062184044, -0.03473805819125563, -0.2890299793658069, -0.15394832756542973, 0.040103094145307536, -0.1128941383411372, -0.026574482514931864, 0.020520308640307808, -1.1063040284222208, -1.3795410601489269, -2.813495515076815, -0.00432924561200087, -0.34968775829859045, 0.04576781701162038, 0.13565713515828723, -0.011962178587133828, -0.11377082950782237, 0.1803865071580446, 0.13357564501920202, -0.059818837972732165, 0.1819638157251377, -0.13571382952340863, -0.04179558930757018, 0.0075347333790176385, -2.695909155887529, -0.4487970018487891, -0.1151888109515769, -0.05821582463167728, -0.06662124024274965, 0.09353146500001878, -0.1646336416803781, 0.028791793055439458, -0.03925815749888616, -0.013582038254451775, -0.04230474192591126, -0.2806518642591551, -0.000856110979422867, -2.7909598859028395, -6.354547238944365, -0.512983838435632, 0.31208581604789987, -0.28277977865055637, 0.027734531775608355, 0.16701510395434266, -0.01301003904603536, 0.0205569552437865, -0.30700118648369423, -0.1061569330923608, -0.2578382117750041, 0.07120574769353682, -7.217736751044095, -15.908711989148205, -1.7219515887869434, -0.1892882705204262, -0.38147934509624015, -0.312971699930538, 0.04867452994829465, 0.08540869366765826, -0.14257135978579333, -0.030867187304269742, 0.24823881665451503, -0.20504805823724812, -0.08907613648523297, -0.028463856370296192, -1.3440163681778141, -5.444012798185638, -6.054860068442723, -0.7012271834222119, 0.21880497828226242, -0.014764467401819165, -0.2432288912119027, -0.018484745245480515, -0.07824029587875024, 0.057934493448239144, -0.020365909739385898, 0.03719695776438415], [0.2125806095158732, -0.06262100504287342, -801176.2593328407, 0.41735853083724944, 1.8748345877059704, 0.16546326149735321, -0.14144963705752797, 0.10264876987994567, 0.010177448486585552, -801176.2570808018, -801176.3552999623, -801176.4683244948, -801176.4506995582, -0.0055506199611768245, 0.11748161334160628, 0.18323059885350382, -999044.3529182444, 0.2935063598006715, 1.787160230269597, 0.06391936655118843, -0.10704695183323677, -0.10247508036379005, 0.13377274709539227, -999044.6156820783, -999044.528441718, -999044.4467767642, -999044.5431186476, 0.05563712747518918, -1912800.6531006962, -1194246.9386487163, -265872.8805409666, -73901498.43355887, -210091513.61911076, -0.04279725592788862, -5002051.402631196, -5002051.316356624, -5002051.311478804, -265873.0677627441, -265873.2515781129, -265872.76942976424, -265873.06816089636, -5002051.479195596, -103153106.7021261, -86066080.29873396, -398241399.71755856, -1464492557.6290748, -3887743236.370976, -100673402.84703091, -81354040.52891476, -81354040.66247317, -81354040.47786476, -10570248.239789873, -5858209.071511569, -5858208.835374448, -27657274.8997802, -81354040.45438775, -8774745.25096348, -67215331.60581504, -1481322.951648534, -521316945.7878832, -2544923572.552179, -221380737.4546358, -17484555.6195906, -42502289.17447142, -42502289.31487328, -51212099.231009424, -1481322.8688587218, -1481322.9120437014, -1481323.1393692303, -51212099.058317035, -0.33667302752201256, -4999971.800611567, -0.14897525824767988, 1.394203163596166, -252867134.79479504, -9665117.662747752, 0.11990654273212746, 0.006359057483825495, 0.28371179914105016, -4999972.062938436, -0.15905886930102708, -0.044865674836179134, 0.024681382194859734, -4999972.053912869, 0.15472761961986123, -258257.4861208872, 3.404658256841079, 8.102959540981331, -54674176.40069563, -1607269.5018856197, 0.11153470436714233, 0.13245829986893476, 0.07813770408633977, -258257.44554895576, 0.17577667873418054, -0.046775367334088366, 0.06963692360046003, -258257.3940177822, 0.05530938034974718, 0.14278355175604618, 0.4565153378353092, 2.639449392428109, 2.9152437539986016, 0.3144447718415554, 0.1565916689718828, 0.1401117180046397, -0.07565820176541081, -0.13114069564116518, -0.047375750364283126, 0.05435131102746838, -0.14467849130439947, 0.22752143390261467], [-0.0876468119526526, -0.27214013165345435, -0.17750199934246802, -1.4007260798713497, -5.998312058364182, -0.6975807991724895, -0.06874111353841109, -0.2943560576407223, -0.41574540065406546, 0.01597605647627477, -0.0423071307111388, 0.12264579779085788, 0.028128887953604763, -0.0023724144777954284, -0.2533272241435112, 0.055035397583722584, -0.08697209341135144, -1.65001544950383, -5.615133825092529, -0.8064238347440749, 0.05924751152475638, -0.0069751199651458635, -0.2884496941015743, 0.034655740319257076, 0.13639569265704296, 0.09182978200302197, 0.08902814328453967, -0.02473242967448926, -0.06867806422365574, 0.12481290811967244, 0.2331898072954804, -2.056593657026375, -4.338344765998858, -0.12122944879410372, 0.11634488944349375, -0.18339610069380433, 0.06825042378070632, -0.006907927904307324, -0.11178875186335711, -0.21212379718991686, 0.09374710930021046, -0.11927543073183748, 0.03021974921570038, -0.10780420159531631, -1.1339247343024428, -2.2994951487292257, -4.678746925958852, 0.14939827807848005, -0.14442029272180437, -0.1661269671744725, 0.2701240459249466, -0.11927848739364028, 0.05825518012286722, -0.12737261413876508, -0.058934898552616806, 0.12304340228218358, -0.10255010731222265, -0.34507767835807135, 0.13328164653998206, -0.3654025199556089, -4.212218286450804, -0.4580893795342126, -0.06826530442435787, 0.16249419497550394, 0.14145002556936964, -0.0010633753144585819, -0.09843258478604829, 0.00397061526902337, -0.03827716493885507, -0.13976368910341025, -0.13278518524629315, -0.18232662310484338, 0.21764175907442584, -4.500155185422515, -10.093669865794686, -0.39959582422943507, -0.007463057762075657, -0.2929402952530589, 0.12235056673880693, 0.02781843134126513, -0.2796151805640081, 0.02234765471138949, -0.09723711730317965, 0.31066166007012425, -0.5220398276779988, 0.09182746763435377, -11.456958714613737, -25.23705348708738, -2.3515731321139954, -0.42162504766875875, -0.49816807018566844, -0.42192045426619695, -0.012343176231670062, -0.00780550204274971, 0.16104177632678443, 0.24192729060981832, 0.06455162658158595, 0.03771345921830742, -0.16721086007830616, -0.1419279036760575, -2.1375449932179964, -8.540380438574873, -9.546185462319833, -0.9705210621429708, -0.16323631393582572, -0.15972658879157473, -0.346797002511563, -0.027176329719194814, 0.18182003302964556, 0.07271020939886591, -0.18708177667609238, -0.06255093370229547], [-0.01523732305547037, -0.11760223640725243, -4210.414907890343, 0.06283628714639145, -0.045446613112460524, 0.11056033829901467, 0.16762119670159373, -0.1927772746281626, 0.012716276172024473, -4210.219164834989, -4210.047166103734, -4209.981670686811, -4210.132873861767, -0.23905997454668637, 0.17184139064202755, 0.0022713381168904642, -5250.066910430176, -0.030571068574043528, -0.052706483545898644, -0.312722205907353, -0.021580325902040013, -0.366533874187516, 0.09119840842599401, -5250.170255628319, -5250.158114636866, -5249.897798714777, -5249.824800307623, -0.06316592199554862, -10051.760594918973, -6275.919692960656, -1397.3292573849703, -388353.7900961619, -1104034.5517919853, 0.14709798296867926, -26285.837879730567, -26285.772304387272, -26285.773055088168, -1397.166557831873, -1397.3017502672758, -1397.0814968019636, -1396.875120698189, -26285.836189291327, -542071.3730689909, -452279.09645611583, -2092765.932034817, -7695935.35025374, -20430162.35693663, -529040.6266307641, -427517.0126135998, -427516.8285481627, -427517.0028859689, -55546.77168734428, -30784.705584149062, -30785.000701345525, -145339.45165826078, -427516.8457819747, -46111.20199181952, -353217.8832512318, -7784.418693351697, -2739530.1748546497, -13373620.395158187, -1163359.932063105, -91881.55297630196, -223350.4437820588, -223350.33746021177, -269120.46327010257, -7784.464304975615, -7784.412276355917, -7784.415325300514, -269120.5604461904, -0.05298090347828256, -26275.165569898792, 0.042824615246677335, -0.07082276991897189, -1328821.3236425747, -50790.48856683863, 0.05437784730750953, 0.0017955850516492445, -0.09698749834682852, -26274.980603346015, 0.1941045717731238, 0.06673570985816939, -0.04741049202644921, -26275.0111584373, 0.17667781645016206, -1356.8859869738637, -0.017486940429755966, -0.3590857689077928, -287313.8378453744, -8446.124435857213, -0.005159439094960494, 0.23837303975791221, 0.11906882046686802, -1357.231234597618, 0.01449822256172935, 0.046004341127973025, -0.02179503566257074, -1357.164379483592, -0.11860650783723248, 0.10759261720045749, -0.015071947117641883, -0.08281800810495869, -0.06545930808365179, -0.059236772830870414, -0.1260715117650768, -0.12041329978013725, 0.17239474524027804, 0.14555564499283163, -0.09035698479876217, -0.25340163312842323, -0.1835669898661788, 0.026125821245935838], [0.029825576654149574, 0.0047078389307574344, 0.004796198999965274, -0.1640104584147848, 0.21277419225378888, -0.08385931590169965, -0.031194920429905383, 0.06743888128641924, -0.07028682515213286, 0.18623614038350067, 0.10037012619032483, 0.010263304620456402, -0.023039169703029258, -0.14438346895018486, 0.22278101409608625, -0.07351529152708666, 0.20534233292917436, -0.13190418755469066, 0.03706239825417484, -0.160665144349328, 0.0028062151384654187, -0.10192109094490279, 0.044975442105201706, -0.19862915159122518, 0.04555385327853608, -0.16466711928811587, -0.18863932292742197, 0.0022042635356083274, 0.14146573873536475, 0.09087024795331557, 0.1416440804579184, 0.11016473707348365, -0.06976055056968486, 0.12170283371638646, 0.06981805821168127, 0.03190372291219366, 0.06697727472709245, 0.04381431989318916, -0.019043307792803797, 0.06674931633489255, 0.05142718639220504, 0.02166570210134287, 0.006613138563236371, 0.10926901695295646, 0.17228498531848577, -0.1369568622634473, -0.125702468469435, -0.15227414404229553, -0.2776160706936959, 0.37307134907300604, 0.12555900861380603, -0.11088993715635488, -0.15125072634287387, -0.12619279476637651, 0.09004576161581455, 0.08675379412081088, 0.08698640059204618, -0.0847195527111025, -0.11091789104961929, 0.13019506940548883, -0.018491886413908507, -0.03363348439316707, -0.028808348302112215, -0.06760283848958983, 0.059091950618513425, -0.057449963139056585, -0.02795628726716801, -0.035906037892834974, -0.04931837279976746, 0.03992843745378197, 0.004245996914440775, -0.11813006758181638, -0.10657088360790348, -0.013642097007311598, -0.1489788964168568, 0.22986212935003966, -0.22020922035703436, -0.006761395507379219, 0.14324286934687194, -0.23678647362430713, 0.09323120048216303, 0.04696488679345568, 0.09097513916918439, -0.008143080055840399, 0.04568953581761139, 0.04176355192678995, 0.05763493689104446, -0.08068808377193475, 0.07451405993046657, 0.019459954784397764, 0.14826347564474204, 0.014842070542690083, -0.13063713291918974, 0.0548958540157495, 0.1088309069834821, 0.16929017258241477, -0.19204515215398563, 0.13539988362141392, -0.1299603816347469, 0.2944682074759712, 0.09761442737216315, -0.07450940879481052, 0.014103906260206, 0.08496339821067721, -0.3466030044966946, -0.03251717696667971, -0.015106638611771764, -0.0912328832486231, 0.11423385914454087, 0.04155536041384426, -0.07809125732943607, 0.04614008490220328], [-0.02264745950059683, 0.035266170807563654, 0.1908695188881843, 0.034102200340480754, 0.05052386983008999, -0.000942733269933846, 0.02989788967084664, -0.24124930770080977, 0.10556559811288962, -0.08396716794170082, -0.13870143024853615, 0.29318197363014664, -0.04668873352593038, 0.30746329740936357, 0.010224992161479946, -0.007506714415819961, 0.020955171751138837, -0.024806519654741024, -0.20564531234926772, -0.14002299404409416, -0.057346529996418746, 0.0631684186280577, -0.05533069907584591, -0.08114029360660145, 0.22713589445523755, -0.15844854874116557, -0.008509167918273679, -0.04491253781702372, -0.1444328827207502, -0.013127991971768095, 0.13196379936600644, -0.16074456000129847, 0.09120397784595773, -0.030846734553201926, -0.0885359937897371, -0.06512849306441687, -0.05807995479604149, 0.179123521597925, 0.034794758227982656, -0.016090012141611067, -0.0947495291535269, 0.14150195089370077, -0.12276473293476094, 0.05992744939073912, 0.19734992642640994, -0.15072903361272016, -0.16552265203780625, 0.10452183596306593, 0.04293003916159242, -0.0326853733370377, 0.007170327991358433, -0.1965256666923109, -0.12373127886901968, -0.03139045859749961, 0.005772543042753115, 0.040629970070849744, -0.05641876543368768, 0.23828215174361797, 0.12237373136233008, -0.26731747397489286, 0.09241295405026803, 0.05727378631976567, 0.03310411487260395, 0.10920544419569818, -0.030183369691405896, -0.1277227200668157, 0.31604265523560476, 0.05306032388549518, -0.010607411136801232, 0.27540259554785196, -0.132667640395768, -0.05466260029572169, 0.06670818973521943, -0.05793203447155002, 0.06734838557077588, 0.31207897391933764, -0.15675371841244673, -0.10560264482693082, -0.27851871371178816, -0.023447952014064466, -0.2626264886644, 0.02655450321129428, 0.07544581287476096, -0.09659793385636337, -0.0621079617740108, 0.048918201965621674, 0.07254678094470046, -0.1983311276198808, -0.13777382835723878, -0.15227080979831986, -0.029810228870777417, -0.20602531412948744, -0.1148336012731131, -0.027842786810818816, 0.18708416711094208, -0.030953609843612943, 0.035155942615783725, 0.04122761714559344, 0.17352187598554017, 0.16740649185881504, 0.1634808508912322, 0.06552747990402635, 0.13544683277804484, -0.08963826153423986, 0.04326212108673324, 0.04579414318579444, 0.10331668423219781, 0.07974337165041517, -0.39626151468712967, 0.26151830987363617, 0.08223096415838413, 0.15801445760214755], [-0.0695047465807147, -0.02718536227682749, 88640.45250249453, 0.023073614715802694, -0.20124872932363438, -0.008889265763339512, 0.19177530385957156, -0.0443969848029117, -0.030543124308171767, 88640.53125510858, 88640.27000202383, 88640.15937319933, 88640.60545548651, 0.039936487968108454, -0.1567717059773382, -0.06427687566314944, 110532.30793874257, 0.19978010921107894, 0.1477051856702377, -0.022821666659625393, 0.0703298142401814, 0.24910695494166119, -0.16275888115580628, 110531.90914553552, 110532.3870505894, 110532.15324520561, 110531.91170002951, 0.10726639860294085, 211628.0780620879, 132129.01282955578, 29415.70205725066, 8176305.075133296, 23244078.512081046, 0.026402580345896046, 553416.2847837394, 553416.2133998831, 553416.2582140509, 29415.826784317953, 29415.73973442368, 29415.538560097142, 29415.588444787954, 553416.5254328658, 11412640.525781447, 9522168.134031674, 44060581.89880389, 162028343.1373688, 430131646.71031183, 11138291.115708416, 9000838.13837174, 9000838.27704455, 9000837.859152274, 1169469.8211928695, 648139.7934297743, 648139.9539274906, 3059942.0496455077, 9000838.136204196, 970818.9341497532, 7436561.381558469, 163890.50725069444, 57677398.67550635, 281564933.9394084, 24493093.90029091, 1934453.8488496384, 4702362.758927852, 4702362.846275071, 5665997.83757716, 163890.43027374143, 163890.45986074273, 163890.4542515803, 5665997.812158421, -0.11049467829771703, 553186.3420028627, -0.029757908626875048, -0.11589240981276921, 27976682.681457773, 1069327.6893177286, 0.07535319087200731, -0.014700782741833134, 0.0507755900401843, 553186.1662795082, -0.05525684118541454, -0.1380199301660371, -0.10847041777438361, 553186.3289173977, -0.023523830481506906, 28573.169879387664, -0.12324546669009102, 0.06202830554995877, 6049034.6468733875, 177825.01640223654, -0.09572982676097501, 0.0717954546883998, 0.10898561907671397, 28573.006796097805, 0.01414647777154249, -0.07626191234114336, -0.012933451441209299, 28573.37225451671, -0.016426196071776797, 0.1668555592366368, 0.025459303178491748, -0.22740990568246225, -0.15219331712552478, 0.051397939826479444, -0.19593627343714096, -0.24027922821590408, 0.1487387196035588, 0.01203356458217695, 0.0723222863929634, 0.17653566821042543, -0.18296804182852902, 0.01654159814787129], [-0.33397528040082763, -0.2036431098294107, 61278.17729931039, -0.13339872210446763, 0.20259873709477064, 0.016196514693957487, 0.013247075509209729, 0.04144683361988984, 0.043758834039380634, 61278.16471346967, 61278.197832913174, 61278.03658471119, 61278.24160179594, -0.16325270204520098, -0.09554104297952667, 0.06517668634547345, 76412.0251926968, 0.022219218794618755, -0.101945238998964, -0.17576848856326469, -0.06648969969044397, -0.10666586134457319, -0.2424621419536634, 76412.52188750106, 76412.31264650162, 76412.3046188737, 76412.26043487678, -0.08357998955150261, 146301.31741237448, 91342.64433871247, 20335.585936144296, 5652382.244155571, 16068923.76751817, -0.12233079436489008, 382583.6811716781, 382583.52847528784, 382583.5784549944, 20335.525205687216, 20335.23586348365, 20335.657590857252, 20335.39631855407, 382583.81906355947, 7889702.042157919, 6582794.682443557, 30459634.50168871, 112012231.30718715, 297355416.811923, 7700041.029663082, 6222392.71614972, 6222392.641782604, 6222392.556110445, 808469.016714795, 448067.20189392444, 448067.3639138489, 2115376.2425934216, 6222392.644053937, 671139.399001045, 5140988.198166376, 113299.62961123975, 39873111.21191202, 194649379.55118066, 16932384.00487947, 1337312.565763538, 3250802.353290215, 3250802.722979752, 3916975.473328917, 113299.75832429729, 113299.56948466263, 113299.55315348848, 3916975.4402582687, -0.1029948958306064, 382424.5325533287, -0.0024308847680716496, -0.025974925887587198, 19340632.431324877, 739240.1926776572, -0.25587366096360714, -0.26906753482727414, 0.11099415154854368, 382424.6928209168, 0.0389618003678194, 0.03358839640213323, 0.08736187539965634, 382424.8283270603, -0.035056931891596914, 19753.040670504826, -0.11256050076754012, -0.014738839737816752, 4181773.8610409796, 122932.52405780852, -0.012603612664246514, -0.11973647150736398, -0.021426234488933178, 19752.99336138087, 0.17631285410581113, 0.40699203481005286, 0.05156501102507401, 19753.0710820806, -0.1592894481232189, -0.174688310342828, -0.14165991264431338, -0.04368087166390912, -0.13870211492713796, 0.04283574293014882, -0.17205415059766008, -0.14344484063478002, 0.3418881548426335, -0.0988952486352944, -0.1552090402972726, 0.15511191909689875, 0.21583417091195126, -0.013006101461353834], [-0.04478057953485263, -0.036001493438314644, -91818.21239748692, 0.3766959881630503, 0.6153229041508794, 0.19838295374651332, -0.09599780165727442, -0.019557118474021095, 0.004629146938501489, -91818.13968789851, -91818.15646845668, -91818.19195615438, -91818.62331501227, -0.06797165796695546, 0.07746834731732058, -0.10908488898350677, -114494.76222133577, 0.24518513391382493, 0.6431167990687656, 0.10418551665649864, 0.11954056214737267, 0.10056358256051921, 0.05687564018535321, -114494.96758950733, -114494.73992874217, -114494.55357146543, -114494.8463252418, -0.09894933576832592, -219215.18535862654, -136865.95512544346, -30470.14059232031, -8469433.553430595, -24077402.663243677, 0.056978019831267074, -573256.8638049328, -573257.0682973317, -573256.8079174275, -30470.30379003926, -30470.429324640092, -30470.30622004814, -30470.328481239056, -573256.6940873016, -11821795.524396645, -9863547.958022576, -45640199.89108004, -167837230.0352946, -445552318.9179382, -11537610.46903612, -9323527.638505466, -9323527.529684966, -9323527.661917074, -1211396.615788493, -671376.2720814422, -671376.3015492852, -3169644.141086384, -9323527.675040642, -1005624.3878513934, -7703169.844585039, -169766.25252937753, -59745193.99215894, -291659332.7049237, -25371197.42305387, -2003806.2547315913, -4870947.537297976, -4870947.565025855, -5869129.764235462, -169765.82833646014, -169766.15449785284, -169765.911881842, -5869129.934163435, 0.22792226773679136, -573018.4149185816, 0.027034999512208367, 0.8694318239700959, -28979674.531753983, -1107664.7353204528, 0.1880439228285812, 0.16644219791602122, 0.16778010306691996, -573018.6484115882, 0.07252982349346951, 0.021743064657963402, -0.04064967382149752, -573018.4721848624, 0.05986059646688316, -29597.54136958946, 1.7093325485690474, 3.7538394476358112, -6265898.661468382, -184200.32127822287, -0.23335282480125336, 0.08399979587277373, -0.14535285019174027, -29597.412194017837, 0.2368802085022381, 0.09837036104616295, -0.11015325254273393, -29597.25463760554, 0.11751777584498255, 0.23738003891387147, 0.2901344449306846, 1.310992428373766, 1.1061482872729491, 0.016277052981971102, 0.030676256174647525, 0.1336470028829331, -0.010045024538938869, -0.013423656206485522, -0.009006867055582951, 0.20397739005595905, 0.14813539915364315, -0.16858463694497972], [0.055631726778400295, -0.06233403419621534, -457601.5772661535, 0.5711191763777987, 1.6332876100510256, 0.13734796888136033, 0.21171467657000395, 0.05380473237220735, -0.16081722184437208, -457601.3038628655, -457601.44562359294, -457601.23059772904, -457601.4071562693, -0.021135267324714574, -0.08300450776558727, -0.008802732726436696, -570616.0295661837, 0.5685185654470624, 1.4584019622721944, 0.18408450086373312, 0.07636343917896155, -0.1431312022632373, -0.08923571201877757, -570616.0810240904, -570616.0991037907, -570616.0270525776, -570616.2368607906, -0.06923431690562591, -1092518.7876388102, -682108.1256023417, -151856.62935042992, -42209715.224590465, -119996252.74530078, -0.0005963739146171617, -2856980.5678735487, -2856980.673299797, -2856980.718056618, -151856.32599220567, -151856.49988665708, -151856.4736260111, -151856.58883044467, -2856980.709364717, -58917116.97890429, -49157660.00053611, -227460285.94191137, -836462247.7080346, -2220530537.443336, -57500804.929837205, -46466322.475145586, -46466322.30278356, -46466322.63165031, -6037322.354711382, -3345985.179248572, -3345985.092166433, -15796779.724997902, -46466322.83031908, -5011799.404990379, -38390831.79553326, -846075.1578648019, -297756340.25587195, -1453563202.0704198, -126444227.01444781, -9986510.304630809, -24275685.039573416, -24275685.091298737, -29250396.378907587, -846075.0216593659, -846074.9999170299, -846075.1634383306, -29250396.33177429, -0.07414051423819482, -2855793.261743264, 0.12507631454433937, 1.1825591680885443, -144428054.1078028, -5520346.016209221, 0.0917386728454383, 0.17336862015138563, 0.05333951071825592, -2855793.199831863, 0.05742630222903135, 0.017209846217458184, 0.15540413446535084, -2855793.214882502, 0.11425513254205803, -147506.64165919658, 3.400639894392949, 7.1764828899574225, -31227802.297950502, -918010.9319765323, 0.1630664516718225, 0.2905829825631103, -0.042120217659609285, -147506.77911630704, 0.1640060145269546, 0.12947003850927166, -0.09305206001796447, -147506.81112039674, -0.12316255348168965, -0.08085547777230026, 0.6895135588844779, 2.428222575650312, 2.8570454333113284, 0.26962422684953474, -0.16595655347491892, 0.21364432486357973, 0.057955578458262734, 0.08498567753890604, -0.14057680710308687, -0.044098469887474775, 0.07832242003289032, 0.08576170923873445], [0.04313012474375368, 0.00937720825940314, -0.08976490811047429, -0.18215272538219335, 0.02957233579520176, 0.007972093200673635, 0.09882425706213065, -0.20830054687015503, -0.04110396028553055, 0.01847224617043186, 0.19431994324626956, 0.01654787003622418, 0.046041039616004836, 0.10354310057420013, -0.007442293678208863, -0.29208184572730284, -0.2560119432764066, 0.04376186292241856, -0.14621251252669934, -0.1948162344822145, 0.17517410368958508, -0.10538814588044543, -0.10868885799281632, -0.010074526678944023, -0.17303803357118794, -0.05187967362552891, 0.04115322106665973, 0.12516918746675762, -0.2339966798393205, 0.1197114036246571, -0.003286782282630254, 0.2218508057915339, 0.2915745415052108, -0.2728212838598257, 0.011742601654918446, 0.38892292724638994, -0.1067395570330391, -0.02297413588099045, -0.004111717107113153, 0.059376742542318915, -0.12652422984462355, -0.10288812268502259, 0.3599801326488903, -0.11868156474982007, -0.08923297071984924, 0.035384869463501556, -0.08458679531015098, -0.014200461450720252, 0.037104373837826894, -0.18861866800625168, -0.16700319667348199, 0.18187688668920413, -0.12001040590832487, -0.06195653778595609, -0.07284800868569205, -0.19881104218745438, 0.056781892458027304, 0.021501315085167137, 0.11211901895877989, -0.20595383388743085, 0.02036966358548533, 0.1458790649660638, -0.1359423570473604, 0.13415257320119175, 0.0028409294074728106, 0.007143079276398475, 0.007647748917227677, 0.13068713982182734, 0.006271963513471265, -0.21578008732061324, 0.0009836218403169894, 0.05632995412261627, -0.18964782816275483, -0.1335278862565899, -0.2232771982609696, 0.13660036016909952, 0.12549217800184137, 0.1448293835379094, 0.08122491332893739, 0.1343069019865988, -0.07552263115474193, -0.17081694272441492, -0.04247571403433541, 0.13517690385837497, -0.08411643358566662, 0.028829080440331188, 0.07073148443267789, -0.21365792245137463, -0.1433813191757526, -0.38986293790152143, 0.025707558415576894, 0.011561569466273172, 0.0961378769288948, -0.1481547258310209, 0.09098417828109344, -0.03988143258645152, -0.3793716662240306, 0.04640132443476495, -0.02384615184059518, 0.11818606418976288, 0.1999215137886436, 0.2217339819949782, 0.14950331340963366, 0.14124353985204913, 0.0999889406512126, 0.0015459944696033547, -0.05422696267778062, -0.2621853720874771, -0.39787254678280015, -0.2269736995508187, -0.2378571640094887, 0.037935327217130714], [-0.025755394388152632, 0.07383355317156579, -0.0032827500780333715, -0.7005478413290085, -2.1977190808964, -0.3099715241016533, 0.05928197002694833, -0.19146622055496781, -0.10443883410539659, -0.174597597894435, -0.18966094261861902, -0.06314249482282429, 0.13731836062100117, -0.04015049323647794, -0.084379632209993, -0.34142613113219983, -0.0063101409600226175, -0.4315049825219929, -1.891062633667626, -0.21944165300783627, 0.0004221088101096184, 0.11414856804334376, -0.10364974286239942, 0.03080027479132564, -0.04077996441868341, -0.08278001838413729, 0.03705038862762049, -0.061324084739494286, -0.11020154676930458, 0.310246757163113, -0.12215539066493052, -0.7941928386402731, -1.3573276827034662, -0.10741636356649947, -0.008043096181633914, 0.027165661778435716, -0.1368295547981795, -0.01969904490310685, -0.025266508563837668, -0.05531119366827067, -0.03357672207282205, -0.04927476343356613, -0.051859883848957115, -0.33890116683015953, -0.6022717979738355, -0.8782691034464111, -1.500578318409091, 0.2080513960978114, -0.07051688035279682, -0.1741708543548866, -0.07164782176923082, 0.017163654385954123, -0.043201701739489985, 0.07756392888645068, -0.027808246844532845, -0.16327019122092964, -0.07486502344779815, 0.10024321643623946, 0.07285895534789384, 0.0004847135190892554, -1.4325740855917457, -0.2603200978373448, -0.10023541977490229, 0.17092752172880574, 0.0471488686848277, 0.08537126046540226, 0.19174349537011653, 0.040445349530636096, -0.008850271045772398, 0.09676342516286682, 0.038571088124379746, 0.17138731791842488, 0.06607652409246881, -1.6739447268614684, -3.5434630298137915, -0.16176285938030258, -0.2676377790329006, -0.1550049700514767, -0.13714733691121483, -0.2839559861055382, -0.13914112859088193, -0.04674067737324439, -0.0641319392193111, -0.019012220515576047, -0.13539512794396127, -0.11025438410051625, -3.9164337159213716, -8.632977590235946, -0.8122766379486711, -0.1314943400665154, -0.0812605276306512, -0.2116252524393269, 0.17649432448687194, -0.09765309680988736, -0.13390043990021933, 0.02484881766466847, 0.08289686624409004, -0.13449840655424694, -0.1393139695518124, -0.05487924377043698, -0.5789853390651288, -3.142338850095949, -3.241810471345791, -0.4425555500341342, 0.008358838432206781, -0.041312772043899965, -0.27667069912743975, -0.20583205961717094, 0.13782886256501986, -0.07546586862399023, -0.0537683796339624, 0.19429901520550946], [-0.4448079324869429, -0.3274899314451741, -0.15417538677261555, -1.450090186340153, -6.849570639290887, -0.7493509074398138, 0.13804938745301137, -0.24831366420354042, -0.2476628951836607, -0.020607246820455387, 0.19507022162855825, -0.06741721257560485, -0.07627102361337545, -0.021031135632151022, -0.1401687591483469, -0.336848989736845, 0.020495363715534308, -1.6417571682048913, -6.287767988614169, -0.7261553309425561, 0.06686083973799091, 0.010026876197115979, -0.45022388086144827, 0.22776359629290602, -0.1317885007362589, -0.034675555413847495, -0.03985259402971447, -0.10038936595486765, 0.14693815360827803, 0.0011761635772838893, -0.21321513579442747, -2.1259678764221808, -5.245418357173239, 0.025402817174062182, -0.07044075844556646, -0.1534822116296958, 0.05380496619519462, 0.1934315742843817, 0.05280971329176938, -0.15714176159572224, -0.046571485530989935, 0.07963160465481457, -0.05990087700062344, -0.08355551886428852, -1.5737732360081584, -2.795617872755015, -5.315708500124792, -0.33378155444899027, -0.0873349280815387, -0.2527760337467828, -0.02049977334900117, 0.013599519556201421, -0.0385060254756623, -0.16318418172892832, 0.059812706091104145, -0.030042772882861484, 0.061157932468898134, -0.2822389695305977, -0.06547524825051027, -0.4318261445271047, -4.783589313997451, -0.4295129210750059, 0.10860303933626983, -0.20651678071212015, -0.1558335551601872, 0.10779949071504487, 0.1577017127929367, -0.003122485486825786, -0.11039683414705723, -0.0847442765919278, 0.03099440016617551, -0.696259911043958, -0.05938057268363968, -5.375010818040613, -11.810778563185192, -0.6201174839943983, 0.05196777868817963, -0.39770983228736734, -0.15124716094895635, 0.17161154436981332, -0.048661972910853495, 0.13535436174289908, -0.29942331306929365, 0.004489650674356807, -0.5574061822662151, 0.02864951126346342, -13.507045919723755, -29.510772813653258, -2.683830135298495, -0.47779397502167764, -0.5658069206569204, -0.698527139262636, 0.03993813337593423, -0.045670105195085214, -0.10234770676171134, -0.16964488853086884, 0.13898697965035142, 0.08410385689207535, -0.2768007758365757, -0.408468870078667, -2.262012870082919, -9.866261381008984, -11.30542464089407, -1.3219049914609202, -0.05600632829954446, -0.2725232772912377, -0.20558952123226898, 0.10701229348854287, -0.019483252441292932, -0.03100358090598963, -0.06658003016132157, -0.14903078903575523], [0.16157294128037175, 0.1652562323663757, -76942.0880522587, 0.21109962327115814, 0.1400586309962044, -0.0691769523115027, -0.18005409089062388, 0.0884576392569396, 0.0888211501115714, -76942.2266401868, -76942.46062694711, -76942.32055832836, -76942.53499280852, -0.07908680655205107, -0.07484127676257328, -0.34134666165952315, -95945.06275501208, 0.10379019316753875, -0.22249817920253206, -0.0146142271789509, -0.10007870724428616, 0.11245523042495334, 0.031673773778835936, -95944.93232152087, -95944.89390336027, -95945.01368052367, -95944.81117032788, -0.0037318304144166757, -183698.97705196077, -114691.45578677171, -25533.539302170284, -7097251.78319872, -20176483.417799663, -0.1594821283618805, -480380.2418633037, -480380.0027152002, -480380.3635294943, -25533.66053788782, -25533.522181114775, -25533.62797076941, -25533.45117384744, -480379.9964352113, -9906478.154339787, -8265497.693093122, -38245766.632659845, -140644946.4939529, -373365802.7277965, -9668335.354728065, -7812968.927282916, -7812968.7916168785, -7812968.821266564, -1015131.2122037244, -562602.6230186885, -562602.4058642343, -2656111.492741084, -7812969.139620925, -842696.9861399236, -6455134.587284873, -142261.41155143685, -50065528.741100155, -244405912.2479142, -21260662.869533263, -1679158.1471950335, -4081777.0852860115, -4081777.020066188, -4918238.013459253, -142261.23859876068, -142261.42560884624, -142261.1754637953, -4918237.973936687, -0.20221378361221523, -480180.42833842244, -0.026123950711316082, -0.022229337343631615, -24284510.763584718, -928205.5648585666, 0.1181311396140053, -0.07524275017386549, -0.07126886212999242, -480180.55816357234, 0.1660809810151276, 0.06590608206650618, -0.04641586664099762, -480180.42521690816, 0.01495190598816508, -24802.159254381622, 0.00020329175589809534, 0.07054902722048212, -5250724.223346146, -154356.92035180752, 0.04864931754681632, 0.034422441231585645, -0.12027499223388645, -24802.23877325806, 0.05557581024124784, -0.12972780084892183, -0.03841591406278775, -24802.12667505796, -0.1102889069387595, 0.04076179113952541, -0.04164795542479455, -0.002260998354660211, -0.18984005087496866, 0.10861847224315313, -0.16524585431980796, -0.149623587316541, 0.07204922254753199, -0.22714640546246984, -0.304307292067937, 0.037430360679770895, -0.05119316707810412, 0.0816546746106271], [0.2212325090861824, -0.0917397452785251, 0.03916030129349072, 0.07724943269580246, -0.04967154994988316, 0.27466124895488186, -0.0647623839796666, -0.11705223256470638, 0.18270520702981946, -0.09431183440444246, -0.11238056370878217, -0.1819194876457156, 0.05630102901561028, 0.18754557859709384, -0.09761602615133332, 0.2800379279920245, -0.23195756518620544, -0.03193981582977964, 0.16204581963108267, 0.19475143261435887, 0.0563587603526846, -0.027436587128939708, -0.011481663147799585, 0.049604351132833825, 0.056860411021318134, 0.19132048823921702, 0.041059396984914516, 0.10898882818450514, -0.2317929137048634, 0.24348287947535588, 0.10664131018017628, -0.3258551436757945, 0.1896689496260032, -0.14638289487084233, 0.15481225704976515, -0.1521812417488879, 0.02142124218819917, -0.057892793330318985, -0.027146051572322954, 0.0856191361644737, -0.06303802675512342, -0.05140890260072701, 0.025500437170356785, 0.1142381744984666, -0.1349590088113869, -0.09840935882335296, -0.23990046685695474, 0.07055342436711975, -0.09619805416122551, 0.018184834700248235, 0.05884462841197184, 0.034930276470856794, 0.13873032071650068, -0.07140813410795319, -0.017001460142347942, -0.1265308928204749, -0.157186383238404, 0.06739604609634703, 0.035595022862263126, 0.128448927230041, 0.058340744524701525, -0.049954797572383934, 0.1173321701004264, -0.08322992174569663, 0.0028432889986474874, 0.04110717180670743, -0.0472042009239409, -0.08832951850465875, 0.04758522204563135, -0.13186439899334346, -0.019429151946254542, -0.14954571679625225, 0.03794998477992938, -0.1522730065834582, 0.010070958909284184, -0.00573756224740022, -0.14566952506817013, 0.1421400538494926, 0.010619428823135177, -0.1875446981244647, 0.028698504079799087, 0.18567726287343134, -0.1306387983368064, 0.24379039636616118, 0.2680627589418658, 0.11471617483633219, 0.041222624886926414, -0.0742755084685163, -0.006122716892016087, 0.05332495568921278, -0.008065859425666913, 0.022489585158610333, 0.09705189696533313, -0.13868715490990852, -0.07982271342331133, -0.03569145711542508, 0.1727007922111893, -0.1662692293357542, -0.10035844954329641, -0.14545293501005674, 0.08840314380742441, -0.18588531693105537, 0.10786748985186023, 0.08523694148717863, 0.1163761403189281, -0.0010852670169558167, 0.052610392953568556, 0.10954094052047735, -0.034424534917728095, 0.1544439598081486, -0.03088819701535999, -0.43763049378762836], [0.21434671492378446, 0.16125424615734538, -0.09055433580501934, -0.1776025358707052, -0.08936268151997517, 0.04456125451808172, -0.0027780182046925634, -0.1273390521322572, 0.05947860861220409, -0.006917040291570556, 0.36638734117732724, 0.20872153619845288, 0.06187222740375081, -0.010046460776246853, -0.3022582236448768, 0.1431521861128347, 0.0655350413115639, -0.07135010916758057, -0.02780757657190303, -0.12282283263394352, 0.010950755981868886, 0.1377393360395546, 0.21163245376793005, 0.07577331363316032, 0.0058620426054750985, -0.004933165446363909, 0.17340682481394684, 0.11830544439978002, -0.023642563492330928, 0.07785945185758668, 0.06482708796039169, 0.22108997931641192, 0.040490600662614, -0.00419042344233394, 0.09029878039611416, -0.10084531253227189, 0.0025957199241491294, -0.11302999066180691, -0.18101075256074725, -0.021230718103851576, 0.043364331355602165, -0.014726431583228318, -0.05179153780580279, -0.1883825133887002, -0.05494418146081967, 0.22605014100126303, -0.23537534858317108, 0.1911141771003612, -0.18760297932061515, -0.06598463539176375, -0.030917850153117765, -0.04077838711350039, -0.1624283718044725, -0.19306523114541121, -0.10986388724610312, 0.23827834583346882, -0.10639077214932294, -0.054650477171185124, 0.07898575211065106, -0.12482398061450821, 0.1100543625218304, -0.21646580206309993, 0.23209370524713, 0.00148746944580703, -0.05485158741406112, -0.04066836853251885, 0.026595775594473875, 0.02759991136662452, 0.07519555730710341, -0.19239939554578106, -0.075589098319006, 0.11661326266081219, 0.12754935887282137, -0.1090801472857165, 0.14987604509701846, -0.07827362417875541, 0.19741937604630547, -0.03719897847876063, 0.21429317923118407, -0.0940399828989665, 0.03418053120589042, -0.11978873571707616, 0.09183882082970943, -0.010175936601532834, 0.19298196037494028, -0.04508439878478771, -0.026477769481230234, -0.36011512035581605, -0.03380314843093942, 0.09462155132555608, 0.0296053850835897, -0.0945301783246553, -0.18971678087650895, -0.01910091589010071, -0.10021080885776852, -0.1502276987954529, -0.035501431287191916, 0.010092863764972992, -0.2105203999495478, -0.08080345427192187, -0.04892571921599417, 0.11587048609673109, 0.15539502325823823, 0.12181970446851943, -0.049361104576970224, -0.1871817636848337, 0.30224050119419493, 0.1405457195150809, 0.13712457387699847, 0.10542773030170076, 0.03951919854018734, -0.07772305063421352], [-0.12787352957680037, 0.03879660442094236, -61573.17261214311, -0.14669289785510128, 0.04108926142294629, 0.2934302314649325, 0.08917787703127714, 