[{"type": "conv", "kernels": [[[-551.2415513568124, -18.192853800460398, -604.6027630612658]], [[-86.74899051547331, 3.588621316182622, -152.68859682561887]], [[-27.113293255697457, -0.05854835120067192, -113.7909182915904]], [[-1.2833305931255508, -23.222433386617023, -13.493178881611211]], [[-1384.445446279135, -110.50061395784812, -1223.968235522955]], [[-519.543639924703, -1102.2979751986818, -359.3221998038546]], [[-66.96336850348219, -0.8705445662700363, -1.4853671570885267]], [[-35.18165747488605, -294.28006472530745, -129.3241877387133]]], "biases": [-1622.0883843017302, -433.4069846135328, -646.1203247591541, -146.37949686077428, -1980.4527348355543, -2014.8650181506373, -67.0867177304932, -682.5302531981913]}, {"type": "relu"}, {"type": "pool", "pool_size": 2}, {"type": "dense", "activation": "relu", "W": [[-36.23861314787187, -7.473072683125882, -35.08955912492076, -15.115387533168036, -6.5441905565121745, -6.33143181462113, -6.379460701166174, -6.066900172974949, -35.18784927189409, -36.498411141249186, -7.165469148734986, -6.4661418308896375, -35.05267352395081, -7.643236064379004, -13.259818804866692, -5.206592013669305, -10.564714095048437, -1.1711328606610178, -2.829209978160993, -2.387791355674504, -2.262121193095113, -2.246614861118103, -10.561853840394196, -13.158589483222576, -5.058687120897631, -2.4559611399603303, -10.697546441383091, -4.878966792192542, -20.39540534641547, 0.05839083537405713, -30.526599337610428, -2.9711511976763485, -5.2053935200148365, -8.724809039661874, -8.670538127162917, -8.835627358250978, -30.556367097580978, -20.657438985754865, -8.734217475033548, -8.866093326425437, -30.707292008726977, -9.038736521240516, -2.8698904323976597, 0.05722931435147585, -11.76553216204309, 0.08844764803283407, -0.06883579322197914, -3.609377221680531, -3.811452147777602, -3.8256071932175235, -11.713251157917123, -0.22481413688052654, -3.554488625301441, -3.630520284674398, -11.904631529251702, -3.7284784950101755, -37.17237711833714, -33.214756404563396, -0.5169224361921327, -23.10479983360749, -9.39454182609613, 0.24960721321717833, 0.03771407221546423, -0.06265881034676937, -0.23601926505486404, -37.05436043376469, -33.17806981290688, 0.08818505188313541, -0.47101117949668286, -33.6215459340232, -13.018665416069346, -35.36843543995333, -15.254642061910499, -27.062028729218724, -14.96712296416123, -3.1955293798572293, -3.187182088385303, -3.2216383117262435, -26.036265098457246, -26.41829121713126, -12.23853277463033, -3.265874854169504, -26.375557107244365, -12.736324017138948, 0.017369607663847833, -0.8332084363134228, -0.056797826954378995, -0.07500309919546487, -0.4532330668004142, 0.13036066144229247, 0.009890572022275498, 0.02789669413798579, -0.010020385271795025, -0.06178419216817771, -0.6780464937285764, -0.15885241948325746, 0.05595939685654879, -0.8888250735648817, -27.63905755560446, -8.409903115785141, -26.879508841385533, -8.360730052683934, -5.174587234153306, -3.7386401794095634, -3.783222969772571, -3.5595526448694472, -21.64609135631741, -21.565676562870138, -3.573463511952254, -4.0629030608554135, -21.688939384112185, -3.6454943302946954], [-84.80531732491295, -17.171324529757293, -82.35133605581015, -35.62701508467481, -15.31019763213384, -14.892376792225566, -14.707944483690397, -14.570760100510999, -82.286720249713, -84.99046180983413, -17.147244340327294, -14.785281064002104, -82.40338787321812, -17.352992011698316, -30.785599636458187, -11.561216615980374, -24.357047215856625, -2.591082659865017, -7.057250008480122, -5.779063039286808, -5.618204032694803, -5.920392049477141, -24.742252034060332, -30.650930780542655, -11.58208741454538, -5.356933313660387, -24.50359735043639, -11.431618639959108, -48.20411407258941, 0.11255415637914108, -71.78328537559503, -7.304999783787763, -11.656153248625671, -20.672541040856775, -20.784417258035983, -20.84233259130906, -71.70620845967555, -48.002591975644016, -20.930743355726847, -20.74943435683087, -71.51295434294988, -20.724555158948977, -6.64650963851815, 0.07263640883988967, -27.379029947010764, 0.12421494508686655, -0.22003354177594336, -8.441985935744169, -8.27977585574278, -8.693789003013798, -27.561870589904526, -0.11075383482418602, -8.411454144593739, -8.535462114274683, -27.64712910607647, -8.478592429083193, -86.86655911698514, -78.12944242540462, -1.033093457027122, -53.980132248391264, -22.52588217779714, 0.1456302499528213, 0.15297258756017798, -0.11956535296441705, -1.1778238522423905, -86.60891155493526, -77.81764146934542, 0.11590728862902008, -1.0488963326261236, -78.14984220440856, -31.124886362663297, -82.51014927107765, -35.376138272897194, -63.118387574400224, -34.82142188898473, -8.14450407794312, -7.684656999656867, -7.717909177096597, -61.436943364677404, -61.17455249852196, -28.988665649790843, -7.676278489814497, -61.208335233018126, -29.151994447067857, -0.2277043148783842, -1.6126360410746678, 0.01611894390415097, 0.05849973490602216, -0.09295851976762357, 0.04661530492394092, -0.0546549493515052, 0.12605896811562942, 0.26406658354246365, -0.04978796467961762, -1.9037993227491354, -0.12648938145897512, -0.07455106788818534, -1.8268714797996501, -65.22781859333438, -19.885042731885633, -63.033275343563254, -19.064000224279315, -11.658711177083434, -8.56160269552466, -8.466930741826005, -8.518122534020804, -50.51474805682465, -50.571557680131505, -8.776774640482728, -8.60839310269875, -50.40802479956143, -8.588794313124348], [-45.86589286055027, -9.594929301606493, -44.15891805644237, -19.47176828688086, -8.373995951184412, -7.445895079154411, -7.991951122447935, -7.615323158526484, -44.232763988415826, -46.21422154584799, -8.680076597936392, -7.980402891046157, -44.637800108928, -9.628960912819716, -16.652083569818473, -6.495672691394734, -13.392559795143773, -1.7267663579884505, -3.634627627814078, -2.876499788750158, -2.8919859105477066, -2.8421404284810565, -13.342933494446518, -16.68758414949235, -6.114508590218567, -2.9094828393647254, -13.299056394655643, -6.231006967789991, -26.078866626527613, 0.07111585284959654, -38.65027576190259, -3.9952859499772573, -6.339244293436507, -10.983939188072837, -11.122069922441046, -11.002440340779257, -38.944056841920705, -25.93432147077977, -11.218605921872289, -11.251293461400042, -38.88797932153628, -11.4248596992831, -3.3792404091139665, 0.07593840241153996, -14.939803658816631, -0.1550615053754134, 0.0860433085493205, -4.401500857056527, -4.51324412446693, -4.817915034724528, -14.859644101693144, 0.011654234909589316, -4.212654136423548, -4.883760420292265, -14.806930697309639, -4.588904413711011, -46.65784132631119, -41.59797022553128, -0.5126208487957827, -28.820602502688928, -11.843357763859013, -0.18501813051898658, 0.7346153219538533, 0.282368100449802, 0.30329844631712954, -46.499161714806185, -42.290122467210615, 0.8241363347387971, -0.5049853269879435, -42.44358871452713, -16.40718955109876, -44.77220541374679, -19.203103026420106, -34.02432317405856, -18.560163298162323, -4.253957617050307, -3.5400783143277783, -3.8776152694419785, -33.00628706144457, -32.55952822495462, -15.564075658507846, -4.024801275385354, -33.248035277625355, -16.025227724560505, -0.023925518309183227, -1.0460880403483457, -0.04783829142508052, -0.01677142755078817, 0.09181454292491799, 0.0034544607129991956, 0.057122703561452694, 0.0981173451198077, 0.09760903740698315, -0.004243001890724352, -0.9988443641273228, 0.1324583919448097, -0.10996473938147026, -1.108434646631898, -34.99997922469045, -10.639278331440797, -34.24844664700386, -10.578224127708582, -6.297997410861067, -4.722830705057168, -4.717426112765922, -4.481417318678665, -27.170107741355725, -27.545872217336075, -4.322681894074573, -4.550668044996128, -27.56041968579182, -4.698172382995073], [-11.510993693718229, -2.319811336240625, -11.30526862187366, -4.802360799556437, -2.2237208107100996, -1.681844307572309, -1.9396782624299191, -1.8805964227190555, -11.080068571987178, -11.011317819482413, -2.431225284981419, -1.9213085070178177, -10.806853880478023, -2.5382601712799766, -4.344342504484811, -1.5229749154423973, -3.118107133645432, -0.4069578419312364, -0.7883063120419884, -0.919591081123307, -0.8871876552339923, -0.6564326218470303, -3.2253505100171727, -4.395637722817646, -1.666300033902628, -0.7755588011097976, -3.248555343598003, -1.6529507172769362, -6.41948155616374, -0.08721777261686374, -9.393276809770796, -1.1158170138738617, -1.644537315669058, -2.916042977503012, -2.6796567611807594, -2.875394576540501, -9.550245249250052, -6.469910822376934, -3.0793370463411094, -2.772195574593669, -9.437808031820774, -2.6281321581409074, -1.0431620232038605, 0.052162373850501306, -3.4576714853879764, -0.03498958303569027, -0.02458687879858146, -1.0976121959960474, -1.1935694620100046, -1.0742965033995926, -3.640493963902445, 0.20765706895845765, -1.3489392983386004, -1.1486024211508, -3.5426549174345774, -0.9450054322632104, -11.550377092473418, -10.577731873417399, -0.08407868590197168, -7.358435791433936, -3.060957997172762, 0.1557183781551409, -0.033504508879380654, 0.05694060889845361, -0.24476500266315543, -11.567083138054457, -10.34170503180465, 0.11391802775844646, -0.028341201533422206, -10.461948254884485, -4.20480816886908, -11.261183124490467, -4.73939092902491, -8.578997127137786, -4.658076809735833, -0.8682172095856955, -0.9994852470939437, -1.0651963970252631, -8.275979815046286, -8.147104418370708, -3.7826204110985047, -1.0411848587576393, -8.12523531533577, -3.9282183974924907, -0.0010109387447493744, -0.30444501040584526, -0.01725985237903518, 0.23295623552659642, 0.23447382706380956, -0.27438807193186215, 0.1385285921526267, -0.021945646919464386, -0.027245431091550296, 0.19666074917867982, -0.2578871403188085, -0.288941843759708, 0.049351536726469136, -0.17809780939495404, -8.613671854961087, -2.797499152312927, -8.279198337382374, -2.7593380618102255, -1.5728825966177562, -1.0535342911132668, -1.1826964232277672, -1.0152229399739754, -6.774487197812817, -6.663113534656109, -1.3743138710176026, -1.1098238421708535, -6.932725028784306, -1.2120324226922878], [15.703319910561284, 3.082889920183483, 15.382781446753267, 6.738997371094306, 2.842424399050508, 2.7077419911136924, 2.8129935653430334, 2.689129801227874, 15.015174002197698, 15.675249406951878, 3.3044310347488994, 2.7368970471903955, 15.048404264779354, 3.2695692865757975, 5.7128224342745595, 2.357411144704769, 4.743715101293465, 0.5233496759877391, 1.2889818823597792, 1.2174282089654702, 1.1297374985712911, 0.9551592651104737, 4.649917521478869, 5.621528247961849, 1.989361722850523, 0.780760606657006, 4.518167211730185, 2.2262110613756088, 8.952549249733964, -0.21303634213067052, 13.366997735850283, 1.0334024550349126, 2.1911006928249503, 3.52185288238567, 3.9043827269064995, 4.02104227069894, 13.272219699581454, 8.755374803764738, 3.7103800529708733, 3.8099915492863627, 13.245796739817182, 3.72805142392987, 1.562707885728802, 0.057646332415319454, 4.985425278263001, -0.34003929540139205, 0.17259133602018625, 1.3845252713196812, 1.4334197468103744, 1.762797553748485, 5.213371723505782, 0.03458094678146338, 1.5770993953011292, 1.5775818647856799, 5.146595373737999, 1.5769383439933258, 16.078950992839705, 14.267534260998369, 0.1697632558740506, 9.908125954009535, 3.9857004531409697, -0.1183240722360046, -0.021741433598672866, -0.06267810391150483, 0.10443756550629854, 15.993839975462755, 14.268131643357178, -0.028719737163609465, 0.03482687910984075, 14.716525886381946, 5.748609459313487, 15.34037794604754, 6.4743391780557475, 11.557924774568702, 6.589432913466628, 1.473450827453974, 1.3300859147198427, 1.3473439974313661, 11.445276080005005, 11.022088850874646, 5.532464668999654, 1.181171613145406, 11.261688474054838, 5.425986418810903, -0.06519004183469009, 0.478230645598137, -0.06778307636162194, 0.12962370554905356, -0.18479306273983706, 0.08750048488323445, 0.2918412267798794, 0.03305209160789431, -0.12894263280270807, 0.2960532618745176, 0.37960965042450573, 0.01041684284633407, -0.21638163026903348, 0.4019951349031006, 12.234580254306112, 3.694217983778996, 11.64113902239184, 3.627633654234855, 2.2274245706401894, 1.7642726874830992, 1.710054410624318, 1.3307962710053416, 9.300404536680114, 9.200091677134004, 1.783633242480413, 1.7870793925197073, 9.341427461725527, 1.6969516098588429], [-104.63941766083455, -21.292916900572656, -101.59112601895552, -43.839763887059306, -19.049537813671016, -17.967234623036536, -18.357611979469464, -17.806244458055513, -101.62286711106255, -105.00136303640421, -20.921079171283143, -18.4533500766678, -102.14143842374939, -21.31298028532174, -37.86920003190201, -14.364438652814794, -30.202637484447575, -3.3800988094499558, -8.57681909474457, -6.731056926561312, -6.866282478978022, -6.531239806731654, -30.03888996505599, -37.713427531877144, -14.185839197687985, -6.747422784171167, -30.59870453029521, -14.319471892898399, -59.47594693508742, -0.14664923269209043, -88.7419897001951, -9.055496519636607, -14.75011159640061, -25.685640760491047, -25.94539459110852, -25.544500827964605, -88.8105884087803, -59.59443031830383, -25.578577171558784, -25.670283673603507, -88.73170715285356, -25.776305190246852, -8.403907362282428, -0.1551780487927382, -34.2797374431518, -0.14241830729834615, 0.054022371240310944, -10.377985902837812, -10.60368264027515, -10.558303434270432, -34.22795797253492, 0.24237934834425343, -10.555591332841848, -10.48622108248085, -34.23732954441861, -10.659635589769225, -107.23325423168967, -96.38266374583117, -1.392795212769747, -66.44804279136201, -27.39728577548727, 0.2045343643148541, 0.5711905814538734, 0.29198052934694496, -0.726195501689582, -107.01715341965593, -96.46618968742982, 0.5869889742077675, -1.4740381796287558, -96.63081241589494, -37.905724058710234, -102.33806447799505, -43.829812949201305, -78.22812032482284, -42.81503279503841, -9.805226620955334, -9.142775232705779, -9.054268756945474, -75.72584762564817, -75.28799243912827, -35.795182284147586, -9.503891336788502, -75.85922824246951, -36.182662991992274, 0.1250883569926259, -2.292849812510494, -0.002301929017659409, -0.03142595024271536, 0.13736114250781783, 0.12975568218107936, -0.21861587280018294, -0.3435809208403241, -0.09681554452901021, -0.24262662957909442, -2.232272955471858, -0.04032882938580023, -0.021593941415851713, -2.2476347577836155, -80.36439531281943, -24.0560937281965, -77.93014716134408, -23.85093126471385, -14.50058425805389, -10.760257931728104, -10.455632096078222, -10.655816600281195, -62.626276746874225, -62.88020664089164, -10.556442521965902, -10.932680185649343, -62.64884114223371, -10.684825803112297], [-0.16653839881275542, -0.003132894412368564, -0.22379239530623574, 0.20426535554506475, -0.014250814552066875, 0.08446151575761512, 0.129430606052816, -0.17719491962818773, 0.03126797170767379, -0.12304076630203445, 0.20544708573988008, 0.04103608421827532, -0.020224552172776692, 0.01134582430690673, 0.011372979523662846, 0.07267455377579023, 0.03605340869055154, -0.13039367879215633, 0.0758549993513734, -0.04515808023091027, 0.04123040953257824, -0.026459601579982082, 0.050933491958603014, 0.012155279814198863, 0.12650162982903929, -0.1530095619794593, 0.1348697152225636, 0.17461153879427893, -0.12945239085548044, -0.08548952495893578, -0.1820157623953225, -0.023009828427692502, -0.1756521108860547, 0.10925561762202671, 0.10796919929901506, 0.05178810490610761, 0.08602707999020084, -0.1709380393982924, 0.04798169151034565, -0.047370094667978375, -0.05174896659610957, 0.029307480854494437, -0.11820055581926586, 0.13821168478633972, -0.0010276499656210669, -0.015978625027216455, -0.14837804961291093, -0.11078515655675847, 0.027866954821933198, 0.1448556731856613, 0.12688138904115545, -0.08804460135257354, -0.14030405777534097, -0.08201045179099864, 0.07869887261721982, -0.054121345182268264, 0.028884448129871305, 0.05590292883627379, 0.17860919280647286, 0.055666692265250645, 0.04315204861825251, -0.08205940248968274, -0.28278077571609295, -0.11430830413461025, 0.2489845982515634, -0.29027400123264435, 0.08220051110772268, 0.11553650715253891, 0.14856853044360416, 0.06924803818326862, 0.12007722063706006, -0.07723571740115907, 0.06666315083163056, -0.10716194718130091, 0.10065388980285327, -0.07524317126092533, -0.028622290318964436, -0.05001711657574584, 0.07909221713807725, -0.04016841400994129, 0.02471022811395183, 0.057334752331302447, 0.18241774512121278, 0.013350972012447029, -0.1619986818997586, 0.04755655160517836, -0.05959139632028765, 0.12026597880867745, -0.027249842564005828, -0.07745103353131155, -0.08612832124697811, 0.017733536891496808, 0.05707818480550334, -0.0027531734582788184, 0.12440667346769725, 0.007182337438705154, 0.038630750810301484, -0.025967805999955355, -0.021793411361554473, 0.02391517324876565, -0.17402129792669838, 0.10349600714772224, -0.068352351162542, 0.08054788153178001, -0.08899604269504069, 0.0837606542584663, -0.05546763157413935, -0.18333374913355768, 0.16874117443927555, -0.12521244022768696, -0.1546266975814659, -0.0138430003385665], [-0.363392586835786, -0.016565880104332003, -0.20332832805911794, -0.00796480131482432, -0.08902453219917535, -0.052168984825025216, -0.19688526455793914, -0.2839112335385408, -0.3173195150195701, -0.25320331919211253, -0.3152654032671159, 0.03174597155099175, 0.15467200777143772, 0.10490399595384835, -0.1671875555244183, -0.17024464695628197, -0.13803484573007882, -0.15496007058948663, -0.0913467217099012, -0.08008188652214757, -0.3595482933430872, 0.03159971208905987, -0.11202910804254046, -0.02791175888117014, 0.035173702065354986, -0.09622504833755022, -0.0751890892308969, -0.07072446069075262, -0.08613185805820457, 0.26464872977785536, -0.1614689111721812, 0.03379345864721891, 0.028399859360209962, -0.14477936011215786, -0.09491958093085298, -0.14623427261174735, -0.05199632717584448, 0.25887920175609813, -0.19707827491261226, 0.21075958370140663, 0.08767948734061592, -0.19940698586368938, -0.1605110041908389, -0.009189352836038544, -0.117336013765304, -0.17756282073791613, -0.07529716736529599, -0.03642734035940212, 0.11619943661060678, 0.05989294231055762, -0.248254830914308, 0.05635951653441755, -0.13243327711545905, 0.04757471642236104, 0.07225131917989355, 0.27248768125359074, -0.11797255950020213, -0.5955104971241851, -0.29802228436065514, -0.3661628319347158, -0.07917397537512665, -0.5825098901343819, -0.35914292927828567, -0.04284423775352004, -0.28435245560377087, -0.25115279920666145, 0.22670442762576487, -0.1708550913605777, 0.10195716533911098, 0.12847488990876652, -0.345977568868574, -0.4319614897381376, -0.05004397897497231, -0.2085435846947748, -0.0725134117285547, -0.0293939824875535, 0.043246695706107674, -0.05305278122188847, -0.11653107886310123, -0.23079216415320425, -0.22847058000772888, -0.2980886174482826, -0.17878671051929163, 0.001636995617563039, -0.22175262367092202, -0.05396612904389747, -0.002196146120878556, -0.08291605262929747, -0.061632216548049394, 0.0005680234195566247, 0.010847109669835257, 0.04491136407563893, 0.23738314075994102, -0.11048482564204244, -0.16182705923398452, 0.08169538928810503, 0.10304878963526316, 0.010176241309825591, 0.018412766830505772, -0.08088721909005199, -0.007660546690580031, -0.10386653836848428, -0.06817466444041431, -0.01604780495823105, -0.1051584964275733, 0.01833079500720565, -0.11727737210867815, -0.13703033615426044, -0.1015501653673928, -0.21503773867677686, 0.1915068077663137, -0.09911383738998052], [-19.29215001773828, -3.9803849733583565, -18.64975882063477, -8.103462554987397, -3.656402524749891, -3.489465763496652, -3.4164893306168747, -3.2814283904016732, -18.345189805765756, -19.325062666416084, -3.6734136146032776, -3.8034041004275023, -18.614650727284587, -3.8814813345051733, -6.713228770274466, -2.5808700548884578, -5.55607831378959, -0.5865576058537342, -1.688197689075671, -1.1771766693705599, -1.1689811004677906, -1.2541550948201927, -5.598478277709049, -6.971443197437147, -2.643805618164132, -1.275158141049396, -5.880272333424505, -2.5304583651466714, -11.036685360207123, 0.12289355800992612, -16.1568865265613, -1.563068430090673, -3.009526617606022, -4.386108209032137, -4.882388877183157, -4.78358805600589, -16.199627433396422, -11.02032461194509, -4.744857515804336, -4.947305818457009, -16.211591496592494, -4.7452196422540736, -1.6012912624183473, -0.02994540573491839, -6.196062764221783, -0.1439797562604486, -0.04271490158706462, -2.0647999960557564, -1.8065557983094769, -2.019590983791867, -6.1672502118696215, -0.22433967049200187, -1.9623291050664724, -1.7010159583827575, -6.25030031400698, -2.0592319416036466, -19.569148072819047, -17.513675709628885, -0.0756556714385723, -12.239874736706637, -5.176169444723478, 0.0882316700660665, 0.250153445221051, -0.10654436825903767, 0.14439509084262148, -19.40908752257266, -17.827348781826903, 0.09131294975059598, -0.09369669627650493, -17.978584106706816, -6.733231816574846, -18.652912744208557, -7.966764678180725, -14.250924953077352, -8.079270627785709, -1.86065388514542, -1.3562934963584243, -1.712836409031979, -13.857544544972148, -13.989843724448487, -6.50782552494618, -1.5470434441509622, -13.97636409776905, -6.497432826055023, -0.0688394132476304, -0.4245642162524992, 0.028044388505792692, -0.0017392682949171686, 0.18101242751198288, -0.12261340240573027, -0.0010315516536257997, 0.04791733058002826, -0.060921568823574614, 0.058574765477057464, -0.4743235498602421, 0.18914784801598367, 0.14696017456214583, -0.18592081610426195, -14.774972343594499, -4.3451478848913165, -14.531753540107847, -4.199840835054615, -2.607434109345037, -2.098483397357838, -1.9973812373834892, -1.9432701442204694, -11.440822899249738, -11.558734239669528, -1.892369647795921, -1.9527238001697698, -11.611236216629242, -1.8441569484878761], [-0.14974511361362725, -0.14296936312095002, -0.29931175513974656, 0.054293243890253085, -0.24523208128455687, -0.24303709930634915, 0.06615709944124244, -0.14845402050512863, -0.31892337154845035, 0.10459638361011868, -0.5130190643993963, -0.08627687735411678, -0.10602037795835023, -0.004680411159239903, 0.10279225126577084, 0.22499784559900143, -0.3029822331477805, -0.18154970468234558, -0.1177797855980332, -0.21816503184768438, -0.06033350231605973, -0.08838397535767921, -0.05556052500010698, -0.038348598466758116, -0.11522161970449414, -0.15888949879169306, 0.2513128702884964, 0.0604905313632387, -0.06221076056269802, 0.07633668899269878, -0.08131320578469109, 0.09465247154747189, -0.029855903404551905, -0.24485433340971052, -0.03972168872311146, -0.2573910872549101, -0.1269895109956334, -0.06989106883631259, -0.336114892123536, 0.05147815304850866, 0.15565842373019556, 0.03032116563079465, -0.2167464997333597, -0.023655287294477433, -0.14147501744042498, -0.08328250769137674, -0.21472861760765008, -0.0015959539441910905, -0.14591526298322036, -0.2575274607153374, 0.3078400646774447, 0.0605977977801173, -0.12003496883136175, -0.20190717774037775, 0.0652324729358813, 0.06578593714306928, -0.21814499370540463, -0.6361428001770024, -0.05347553970620973, -0.24814361258681444, -0.2028435939999903, -0.31741693717830005, -0.6417781144566636, -0.13289914072904505, -0.9029052983379824, -0.34917087932100455, -0.15100280188030166, -0.08972052936245778, -0.037604315628488656, -0.1477875521887071, -0.1418125158973787, -0.09036992190254386, -0.08702922645367925, -0.05251910879166023, 0.12112840585800513, -0.23010707330616226, -0.5528765850530646, -0.156308890046244, 0.03201966068962764, -0.22348580988435932, -0.20691829539042295, -0.17505103647657938, 0.05249869572023915, -0.10393500952395136, 0.15896791524665657, 0.09516005545541634, 0.22676322140660915, 0.264634699319667, 0.050131910742498585, 0.01448755063046178, -0.07572728456978435, -0.06447707797545771, -0.07954945947522105, -0.3068348947258885, 0.24663156530882602, -0.03771916265197758, -0.06133164872201876, -0.09150521760652655, -0.14204176078274924, 0.052202872390445826, 0.1644982549143724, -0.14851844227206393, 0.11006994392247385, 0.21230281537738932, -0.26174664266666037, -0.20270346116759247, -0.09453997089752926, 0.11025243118822428, -0.08426659990750762, -0.009387478249640568, -0.17078454489299932, 0.1320535200007438], [-124.30393540797743, -25.15513749897873, -120.56966200330397, -52.35956042290257, -22.65517485019953, -21.75884869894428, -21.717588576122413, -21.602990308412185, -120.47335333456321, -124.22762252249476, -25.02967435698406, -21.748534069743734, -120.45243470559764, -25.506587181927273, -44.8258611933841, -17.084447256306923, -36.34683050219367, -4.053494482551132, -10.27838714689198, -8.186871643136769, -8.217185333391093, -8.136749844666367, -35.782031256731145, -44.76384401807544, -16.946606100376965, -8.030909180699627, -35.97384932273711, -16.901049418536825, -70.19631354825033, 0.16045907177385504, -104.84122755940048, -10.573158116080714, -17.412770139193295, -30.485435169275593, -30.43166263815325, -30.56851225767835, -104.97006000207769, -70.29962878229361, -30.411415118955322, -30.736864385357638, -105.04892294461794, -30.421374744541033, -9.928180087887512, 0.10413573211322075, -40.41264873313864, -0.16809160726691008, 0.03306779914263518, -12.251538206912734, -12.40695499252066, -12.573327346297795, -40.091662095433676, 0.21885961916430632, -12.399719508404123, -12.269435572556027, -40.557186239680505, -12.28996994948486, -126.9858942538638, -114.42072758759433, -1.712054456957683, -78.98653909267605, -32.37658674000484, 0.00500701133235542, 0.19962756459920306, 0.19184892467810735, -1.6227395455215743, -127.20566380181103, -114.2457776259103, 0.2645630691532115, -1.8312136371173084, -114.13183108651893, -45.31876751176672, -121.15853247622823, -51.965292942277095, -92.46777536688592, -50.841301657500296, -11.906661716930577, -11.490422358206867, -11.114139035147579, -89.85213986231382, -89.42754923546562, -42.67847090387514, -11.008416595076518, -89.64389375857859, -42.68277024412816, 0.12005371991970465, -2.546232129815134, -0.008662615718159829, 0.31610608120771144, -0.06430048331234771, 0.013139393332807395, 0.06007487891198122, 0.1888905786232826, -0.029856190480419504, -0.1220519311555933, -2.6525550942486302, -0.0969278469804882, -0.031053610806617744, -2.7582639527206627, -95.24796962253924, -28.792438852562693, -92.35443118250905, -28.36124575008123, -16.950963508263776, -12.789436194700485, -12.755913148306568, -12.7312001871356, -74.12332071108891, -74.06849244195674, -12.704925754021094, -12.521489802963032, -74.01052348400098, -12.504705286474165], [-1.4794555810829648, -0.36484394091772937, -1.6613265181471437, -0.6839082235013846, -0.37331123615190925, -0.20931926367317316, -0.1779638111888689, -0.19306951630566876, -1.6264198071477107, -1.6982832625520863, -0.07582367411033714, -0.27153298851352126, -1.5553414086102861, -0.24522971563972876, -0.6504083446634462, -0.16914529216300145, -0.6064454069813426, 0.04296413665321623, -0.09116216275438833, 0.02335690129022136, -0.19163198632303163, -0.18343538128883943, -0.43458546954059857, -0.6783451208664647, -0.14799706696222703, 0.1339902090558226, -0.6111873004173932, -0.23082655335131055, -0.9293822595568023, -0.15820299233701213, -1.5897064738073845, -0.009636202572541941, -0.34194187581734586, -0.37752091003425725, -0.2476722548560644, -0.26304848008097054, -1.3871191314186608, -0.9568125061116438, -0.31311315756401614, -0.3736269225336297, -1.4165462616355728, -0.23322724445693252, 0.19568901824280543, -0.1731965710810125, -0.43547967889732475, 0.11549153723162416, 0.017364331885634694, -0.18366259662822065, -0.3262199583366898, -0.14185351773132104, -0.5021987788629247, 0.13207671946682742, -0.12168780904380616, -0.1154328718117543, -0.4069026798803975, 0.1850056134904102, -1.4322631185106642, -1.677040956960798, -0.1600628154949667, -1.1026454003319446, -0.4435723762117748, -0.06936869217750317, -0.1948223374069031, -0.16412359447365973, -0.001954095457834742, -1.7919059303764593, -1.1985200351719212, -0.18735880558518755, 0.02888475813685221, -1.4501949356248098, -0.4575301808082337, -1.7021939283044296, -0.6020113568564732, -1.0948577764575456, -0.5919409395460281, -0.13296040357771285, -0.03573752836526002, -0.155258047282681, -1.066520082207368, -1.1298708780252185, -0.6004155339316869, -0.27704350549868106, -1.1755439775937533, -0.5207692960205481, -0.06248242168193646, 0.03918681823605946, 0.03088346615945731, 0.035129835644817406, 0.11345073361401505, -0.12196149627083323, -0.1502079190386256, -0.1332915550166248, -0.13376549268341675, -0.021167520387137508, -0.18827991908891267, -0.12557582677924528, -0.23546673348625977, -0.07657051149589215, -1.301789045406344, -0.39584557974987106, -1.4022360896438029, -0.36910894124656024, -0.4746366421995217, -0.18756057736782636, -0.19032232076377653, -0.07727937148575574, -1.1599794868466278, -0.8381205505897769, 0.017570463382028917, -0.21093989688628942, -0.9666100335723409, -0.06434683599407742], [-0.057995349741398444, -0.08203796673653797, -0.19219776836065122, 0.15137583818341432, 0.11855782949356392, -0.09982906614481854, 0.027515580842648813, -0.0598272524482343, 0.2411767878015041, -0.14097757750694628, -0.05673860606203925, -0.047314284077839226, 0.193177356522986, 0.2500838923522876, -0.14173888776954888, -0.002536598344040404, 0.19080133593103069, -0.056168275411893065, -0.18001327377482002, -0.15881905434922705, -0.02664708649736278, 0.0737662826463702, 0.021195928666278344, 0.03409733100127683, -0.14804394872023724, -0.07136367226841164, -0.22936026623723577, 0.11132688735464089, -0.0616742965145722, 0.09356821193114903, 0.09334335764703697, 0.08968234731802355, -0.05252261672975618, 0.10429085644685154, -0.048071156141776775, 0.23174232862566146, -0.04857223215712066, -0.01189506656674382, 0.08019437098250265, -0.18624133314233637, 0.08008525815570157, 0.03545910819966391, -0.2111639323179723, 0.0780995624517808, -0.1287564287740632, 0.04560197404213534, 0.17731053882416664, 0.0009355913068650553, 0.1346199364087645, 0.1770901962970795, 0.07124773599945804, -0.15537353169572587, 0.020780445705650685, 0.029903103928035853, 0.05374129835629382, 0.04215035669279378, -0.1658984078311983, -0.034547802553537184, -0.05606192750061467, -0.16715272702337666, 0.04999212834975123, 0.06834529638115922, -0.06135558482129097, 0.033241767580168134, -0.2131244042638517, 0.1915190286854074, 0.0056780925306681475, -0.10425290012876819, 0.25314856667847446, 0.0024538428623823777, -0.23544035879718045, 0.1275742830291682, -0.20093294191563965, 0.07114381370818507, -0.011112791385140553, -0.06155179053149902, -0.1274079208529325, -0.10462826425329423, 0.007434661631049999, -0.1758450360605435, -0.10219986985570333, 0.2228705714483179, 0.24963430129970154, -0.0041409960459955, -0.13071005139212463, -0.13409140593362195, -0.004062205805998871, 0.0735054707602866, -0.17424794488352893, -0.04251343095632415, 0.22063717042510492, -0.11299732346093573, 0.017877040066518413, 0.030215405580350383, 0.15064616347187776, -0.358569187090207, 0.07502585100942921, 0.04630271310803614, 0.046978467062007, -0.18135106894496172, -0.1463247994742145, -0.18205732835414867, -0.08575308228840292, 0.06371182417947036, -0.10624326396954345, 0.05988806351012351, 0.06238210459532302, -0.11691751951938363, 0.09737777467456893, -0.10399985354975859, 0.1348169883671037, 0.14959655602748848], [-89.13836677066627, -18.27771971308366, -86.65593060187881, -37.47205490063956, -16.010060646363915, -15.456392831693108, -15.88632649805083, -15.520905598925124, -86.4687033448051, -89.04758285948876, -17.95832699964249, -15.228286022351996, -86.39695252494008, -18.208593935197495, -32.284639538618435, -12.077118156998893, -25.747087153559658, -2.805513251565293, -7.301573898787101, -5.692972312231062, -5.734788741684533, -5.6676377785247425, -25.68805352960685, -32.012530820477004, -12.10859691624068, -5.836780100620503, -25.932699399940145, -12.287231985252179, -50.521428326507426, -0.04166181069069369, -75.28415134775034, -7.649682955138556, -12.7201900428474, -21.78550149345478, -22.03649352885586, -21.61186620141486, -75.27118362573579, -50.680593210880545, -21.698714874002967, -21.63559813585938, -75.3308687427551, -21.893549129434934, -7.2500611642346735, -0.08671824227640137, -28.913001170639607, -0.07968932960474642, -0.06585988020417824, -8.72093999045813, -8.914511168859224, -8.80282554288381, -28.99392328930145, -0.0012584760923522057, -9.149837627542855, -8.879322384326358, -28.94574062615067, -9.0512465895349, -91.18662403904801, -81.72242406561539, -1.2186746536285493, -56.64505866097134, -23.612178719472574, 0.08149698804259042, 0.5605196312238823, -0.040923743315810696, -0.889365238288438, -91.0288652231778, -82.28828180446473, 0.26855684605317837, -1.2159606252008648, -82.18326211223342, -32.42526937643144, -86.82914806389175, -37.28778531936337, -66.3014067009321, -36.33326399543259, -8.292933106271263, -7.892483820819732, -7.809328697093193, -64.16251852138468, -64.27649446610005, -30.676045735946524, -8.21048417565625, -64.38679402152364, -30.662049861978463, -0.0816371073313984, -1.7971730222659135, -0.0930903861168543, -0.03204101453708686, -0.02326797564518267, -0.11459137499509235, -0.19961126225749293, 0.02790798964182991, -0.16269226688908342, 0.19101549604564513, -1.931120613786326, -0.07005654449516789, 0.19563156326691, -1.9003888728426075, -68.33340877283182, -20.70134628327516, -66.20203319626019, -20.240071463745995, -12.132717149717127, -8.848135689990656, -9.132880050237727, -9.113894789033344, -52.92120082149721, -53.17055735229518, -8.961102494197247, -9.242997407019129, -53.12375995213917, -9.068298893007453], [-17.129402030465815, -3.272062284380753, -16.64033469229704, -7.150961011364562, -3.338948799238737, -3.1699669389773053, -3.073940555474563, -3.2378568883709935, -16.502504685180295, -17.19620838137082, -3.5201675685770377, -3.009559001528801, -16.49397057018242, -3.529043222043646, -5.858141014888952, -2.000657134885779, -4.8637635074273415, -0.6617207230186734, -1.357191688490873, -1.179972657651403, -1.1542337791242663, -0.8127673053203028, -4.890000714999224, -6.136001628677412, -2.341328900123407, -1.2120538005255557, -4.912676860113443, -2.3598390236821656, -9.623495101232493, -0.05449849807241718, -14.508354171672593, -1.63553884971938, -2.2942308297927916, -4.413305151744597, -4.17188033774091, -4.197899593004679, -14.488991007882026, -9.840450281626891, -4.109186901272432, -4.211576759326675, -14.483947566969455, -4.161453493499239, -1.669168211290701, -0.20218895314354868, -5.447005415972684, 0.020648562086232176, 0.019306898623739608, -1.6918469792276978, -1.827037587194702, -1.7282001141267165, -5.714167044897325, -0.23905650890441313, -1.5192748380479333, -1.796468095872589, -5.370925966105767, -1.7742161813435309, -17.146850400467063, -15.78282600971392, -0.21616280569443297, -10.900269937017542, -4.531049730237845, -0.12676870921047884, 0.027502092094922506, -0.15244321105218253, -0.1737181619188009, -17.695844707827373, -15.647489778243829, -0.12143922637704813, -0.2844531424529255, -15.726554862145246, -6.468205169183293, -16.805843223760228, -6.87972046727366, -12.758675187537248, -6.9753843431035065, -1.8267158416575342, -1.740182594861235, -1.3508808541533532, -12.474178644531998, -12.374908084724664, -5.936680903323169, -1.6012455265926449, -12.483538558187837, -5.970449988238168, 0.09004491293398262, -0.31777705579730564, 0.20901964484734262, -0.10612757723605977, -0.2027301292875337, 0.041590430941556206, -0.09887320988047099, 0.17165973105453172, 0.08456594950562772, 0.03668911727389949, -0.2867079038667759, 0.04840811135922778, 0.1400429082823173, -0.5714671359448036, -13.037072981177971, -4.03120815949436, -12.482837251593098, -3.8599124139472827, -2.5597535421012494, -1.764208841343747, -1.7439252064564523, -1.6556307689030596, -10.066475451659686, -10.265954186020393, -1.6888329084591807, -2.0263325375049854, -10.17558467544128, -1.5891595401632463], [-0.00426325035856176, 0.21815772404255449, 0.15960608599904483, 0.04081066561011087, -0.11317254577635086, 0.1326320709607477, -0.21029264065562103, -0.01349635716464841, -0.0972779284232921, -0.0528558720525925, 0.16622720127792237, -0.05008670033506024, 0.05134912518194056, 0.27300002352179115, 0.0839475963597998, -0.023867953789864935, -0.19077927707460338, -0.0017498566148573796, -0.030007017094014172, 0.12344962377196818, -0.07406886825320848, -0.08191339025779534, -0.0958015955549999, 0.011915834834114913, -0.25577643077799356, 0.13707494099241038, -0.35202454434778047, 0.039569871420459146, -0.1519503867269408, -0.06897074404183454, -0.017777073582376377, -0.1446580172961223, 0.036797904172877816, -0.0427718727918007, 0.07031253167838403, 0.009953116950408424, 0.07757125829610897, -0.1480963877738512, 0.03828028586432424, -0.15762859964208628, -0.1542405745245824, 0.043743079107212424, 0.06031205855338741, -0.06690694616919324, -0.08438047454419166, 0.10628894990987575, 0.07463679199088252, -0.07782742043752806, -0.11801933686432796, 0.04278305428975581, 0.20188998021418672, -0.12077673791660316, -0.131941589148196, 0.22607946165126033, -0.09435674964860048, 0.10979622722119195, -0.33493852066113255, -0.1308498807409211, -0.1857389858122152, 0.029932721932313208, 0.16641039492832027, 0.17924811187315873, -0.14102171549524703, 0.31206558762140074, -0.020186822925349672, -0.17345910176441967, -0.06441868339544704, -0.08639065866953641, 0.007740358778550893, 0.19086611227365252, 0.12012214745502107, -0.021754795758989014, -0.08084478558740787, 0.04570836731545618, -0.07963014434211184, -0.160923062192782, 0.04944709302724939, 0.05123412211032455, 0.11588820276220942, -0.2277310272232373, -0.07320942445093954, 0.1380217821987782, -0.035062022923782556, 0.09670724104786689, 0.03497584481184421, 0.016430779212365482, -0.01560142870454603, -0.058901899212346676, 0.1655531370445469, 0.0007695557873569485, -0.03659001510533122, -0.10741731396875424, -0.23175851088994523, 0.049402942007253946, 0.03083327571512511, 0.06592610434950337, -0.001631586996905959, -0.08189390129208378, -0.23544074771509985, 0.10095715214464314, 0.07936667786921438, 0.08361857245649174, 0.0413256311105623, -0.029428677702327287, -0.25886527541400306, -0.14569525568298938, -0.0021557556835196424, 0.13046555009947242, -0.14297933691454484, 0.2180533488906348, -0.013285659602433707, 0.036903122941265645], [0.23215036677455006, -0.054239779895534856, 0.2066935249688252, 0.06983435284471207, -0.08748528844763138, -0.08200479250902938, -0.03593098772555863, -0.030542438161640918, 0.09952095801793806, -0.06349649239367179, -0.0029934464151754915, 0.15831112356457783, 0.13321556884742114, -0.32075807658196054, -0.19764244050093344, 0.14864646883625682, -0.18730392372057938, -0.029931110827013652, -0.07694412529546069, 0.12231107276625891, 0.1120378048896721, 0.2195820942553003, -0.08675641814191255, -0.12527139122773825, 0.009800234870766995, -0.008781386935084129, -0.15253540715730118, 0.1571816135973843, 0.19601740725406674, -0.18787390662346007, 0.08231698439710755, -0.0551729227657956, -0.02850612531941085, 0.1057836191632835, 0.1035003980865315, -0.15009417434937003, -0.06485052385579211, 0.14439429636009882, 0.07002894044074155, 0.06847562052546056, -0.06842143121269191, -0.2062304074240922, -0.31457077057099825, 0.025784695565647914, -0.06231412261356364, -0.07106751007776087, -0.14670915237282975, -0.10122383552341074, 0.09655221212356545, 0.05281994016794241, 0.21402220587856613, -0.10431816177886959, 0.14080251405895144, 0.03220774204058416, -0.15299156293337313, -0.05316288959177929, -0.07403266556740638, -0.39320959793806975, 0.12003172929703362, 0.12889053618316137, 0.09437902343204209, -0.037866344018411414, -0.017725797910454182, -0.026817701246858908, -0.08170115440264994, -0.11472539868577712, -0.012943343829192308, 0.012992160012435864, 0.1912341761238726, 0.12897582722963666, 0.24092950358316642, 0.03295086286166145, -0.15911238294750799, -0.09734211372130246, -0.037745491561575965, 0.13321666500320434, 0.20107473349858995, 0.02421588621045441, -0.10274351381085056, -0.01095578514562636, 0.02463126237558768, 0.026787791102483572, -0.13183401530803404, 0.013169147993150485, 0.10559945114387932, 0.3370846182975084, 0.10959476233698598, 0.062386801790165335, -0.06781189002038931, 0.15346075012785199, -0.04414365676787992, -0.06769229264626761, 0.029919441731630934, 0.21725179185635254, -0.1016193941394245, 0.0673002970195578, 0.06327385469332433, 0.022512624348899942, -0.11239177362067705, -0.06297530969100006, -0.09410305692949761, -0.015537520228061796, -0.2102778696846839, -0.11622839809584866, -0.14754752784264852, 0.14697861018423122, -0.20077209223220313, 0.16293902739531269, -0.019855088492755833, -0.062152191618979835, 0.05096225207229561, 0.23830021120590256], [0.11288021425550365, -0.013308059215024691, -0.05391090713911955, -0.12202537311218341, 0.030023370721864368, -0.20396144168650943, -0.11685766930818543, -0.06620764669298587, -0.054279833475796256, -0.0027437789038547273, 0.01318743385210619, -0.14338310994506528, -0.02573899666181968, 0.07997231067137262, -0.14041138199333655, -0.022271129338806823, -0.06331060024569615, 0.03782392080084279, 0.009714483876013596, -0.1439837389774407, 0.20078867808477577, -0.0650904608871672, 0.013373608409546395, -0.1496767063045054, -0.16345974735024046, -0.02597799042124634, -0.07923609376358363, -0.09913874567331744, 0.04613984018870588, -0.0026014218776947403, 0.060942968371424065, -0.04430933271654425, 0.10736719377339247, 0.12991287412159547, 0.09509928306971262, 0.04723369998273829, -0.08489123976004448, -0.1395005853836527, -0.06199781104239705, -0.13260414902072137, 0.013696883212075177, 0.24703477130258586, -0.10579527453655706, -0.08282671369392687, -0.18981235254243586, -0.04982005834751122, -0.07641687189208662, 0.07143392281805395, -0.08472710871918529, 0.19692812047614122, 0.033309745169259115, -0.1753139082510023, -0.12413425748131175, 0.12607561759848096, -0.1303744869403145, 0.13267752444775127, -0.005884512276310225, -0.14370637705286518, 0.2595094839461367, 0.019491201419356133, 0.025543302158813896, 0.14423252399825826, 0.07872639713612582, 0.07014601314029108, -0.015233780809950689, -0.030100552518621173, -0.048254475363416836, -0.14820356505295829, 0.03260917356980285, -0.13163901761538108, 0.05227657470306127, -0.07754862406029235, -0.03514123983920135, 0.23183534795929067, -0.062422309227052775, 0.11908576231398982, 0.07537501200052871, -0.16501330749819182, 0.12224615390881488, -0.09422361005888813, 0.1307625245456881, 0.1080474406128567, -0.01819952145716531, 0.17932727306377355, -0.01833811174772083, -0.16987572565156647, -0.15907834777256735, 0.2109072059057028, 0.0025518479980329474, -0.1012992365399334, 0.08490859106770936, -0.10728520419576022, 0.0051756407727184305, -0.04118112045938298, -0.133074592790597, -0.0671506373019045, 0.018826919872471183, 0.27762321578865395, -0.020900174371184927, -0.13203956384751248, -0.17388333832100186, 0.05198468128851799, 0.0017140659399229722, -0.0391094610977732, -0.2616093390176115, -0.0671373035315966, -0.010806237455240501, 0.14366901416038083, 0.012069679382971502, -0.16437252918940548, 0.03920732259981815, -0.005648690343126839], [-0.09180601830859426, -0.1213424602987444, 0.013429597474903006, -0.18581840146549208, -0.061051733698867516, -0.07775302666318612, -0.14660339885823256, 0.10120208389156447, -0.17741947865824015, -0.12753104982499577, -0.05603606208950627, -0.10616503804377841, 0.08451037042284212, 0.13234719165775077, -9.81985491587088e-05, 0.047098358486395236, -0.01134105902485992, -0.01413193867490218, -0.03246830715182536, -0.029050722000291435, 0.2472658804468409, 0.11626451196505451, -0.22617420655761572, 0.052427591127243094, 0.11033074091642883, 0.015188220976042659, 0.10875723628765943, -0.13926758382592952, -0.16131323357104374, 0.1061208242019515, 0.07316107867347878, -0.00425576034225106, 0.1997953439872643, -0.02463416039773609, -0.16131175059918543, 0.006791720217621617, -0.15942550793765353, -0.09539505785142807, 0.09613160995605367, -0.07316233624784182, 0.02290745937102671, -0.07280091484955452, 0.18095572690955694, -0.012017049822031087, 0.03642063149160096, -0.11069083437303454, -0.043270196770348865, 0.00010167007612534708, 0.23039786783661967, 0.1429664711263498, -0.018884096764847078, -0.13884567009448165, 0.19105347011013082, -0.07258923632581465, -0.30956514803234453, -0.06394198175692752, -0.030472081500779527, 0.006414962412426006, 0.07688976700087173, -0.20295048020627052, -0.024865882425217152, 0.18841119269178364, -0.12911910835278284, 0.2536909852788951, -0.03842621427148835, 0.05459853309896038, -0.2643802216076963, -0.02630922825761709, -0.14688930071024178, 0.14797357285565965, 0.02765278925513478, 0.20592698780986737, 0.11886448160044687, -0.07805575741306996, -0.15098904618617612, -0.019007969335246573, 0.128480432635362, -0.09235147931124245, -0.004448536538084164, 0.05349040774165025, 0.0683517640503061, 0.2809857298328578, -0.09518120938371312, -0.006742355708197301, -0.03521561037024067, -0.02308052388773832, -0.0709700704796522, 0.10050298334921702, 0.015131575920332171, -0.13308872876686348, 0.23019907659061187, -0.12408833608449334, -0.0946156825545134, 0.09387322621359903, 0.2797791463875169, 0.09117990450414293, -0.28253516830773934, 0.2850771204404086, -0.022158862521851903, 0.07880736752492354, 0.015387974204949249, 0.054841133793830425, 0.07429384508583803, -0.07441108787134086, 0.05368924650770722, -0.016958615145295987, 0.22455275779745404, -0.14065763260188846, 0.06617593315338474, 0.1763942566954296, 0.11547672413686344, 0.10942535793796941], [-5.68046578117837, -1.4431457967493504, -5.535366085390373, -2.2993490021674687, -1.2120031133384193, -1.081852802208761, -0.9456767056009409, -0.9338385357288319, -5.392040268601627, -5.4658178390341146, -1.321296959276703, -0.8121043291177955, -5.142951212436209, -1.0971336005970254, -2.2491309257971177, -0.8803916829175931, -1.781434223957411, -0.35028009462640536, -0.40628556588438364, -0.6684282527986685, -0.40794051113184, -0.3576574819913652, -1.746405762295196, -1.8160547327472452, -0.7234459276300267, -0.3357078102705856, -1.6574298092315158, -0.7122007227440388, -3.0992226957662554, -0.02181066868527164, -4.671305573646886, -0.38671973732710385, -0.867646098880422, -1.4986005822347757, -1.5704459243900901, -1.4174762428990018, -4.8509347760843715, -3.2435063837037528, -1.4321883074337585, -1.4097180642669622, -4.573263684683512, -1.32143396126337, -0.3670674931687869, -0.043855606557120695, -1.7374404729150692, 0.035347449281414256, 0.05224655149939244, -0.538102808646623, -0.6670861587701995, -0.578475382676853, -1.6604034000523231, -0.12150400159212021, -0.3780905057091657, -0.21515524876399633, -1.957108331931318, -0.5464529262627121, -5.738857067450673, -5.2573849123093135, -0.051890318510676645, -3.6337176926991854, -1.454742200259072, -0.03268796761001686, -0.15917438974129358, 0.2730460728669105, -0.05645030855965005, -5.775011470000593, -5.097496824622426, 0.1742050064223083, -0.21978282723677078, -5.038860216682039, -2.3061196085580944, -5.5483541337460185, -2.406930462758104, -4.229165480339608, -2.4668257974458885, -0.384089133877751, -0.5130524161732876, -0.2821816175184729, -4.0137777371079295, -3.9584611996203276, -1.7886163247317373, -0.5431415995169967, -3.8588847154746877, -1.8658638994134527, -0.06309395160577595, -0.3017964929185158, 0.13703921633157995, 0.07318525210305782, 0.1406105559136601, 0.025818227010050238, -0.1693624554625355, 0.12695091141537115, -0.03595462611095878, -0.05617940810599247, 0.01216637027635975, -0.09330072626940507, -0.2064599669825117, -0.05004077112884728, -4.5084572412363455, -1.2692740011381725, -4.160589384687306, -1.2468440499538394, -0.729255079198291, -0.5361492830303054, -0.4360710673896395, -0.5570789383072596, -3.457655988932449, -3.290336323810349, -0.5271255460059294, -0.4306311594775194, -3.2767018168838256, -0.549756416132644], [-14.55263634562578, -3.0392262684391174, -14.519302953266783, -6.246295425099467, -2.889123187066246, -2.7484974904532398, -2.561173709210226, -2.525361205814575, -14.346405035812527, -14.467536158071558, -3.1408440616454003, -2.7139062104599554, -14.303493129471732, -2.952789515387965, -5.580387955607363, -2.4172282414242887, -4.028316184614161, -0.5347158316875803, -1.2218047029172439, -0.9250654157392217, -1.0076491367251317, -0.9508522966785344, -4.304374799370676, -5.379247912641974, -2.071496292855982, -0.7155029170092497, -4.205909320051182, -1.9372362448552316, -8.380546455456258, -0.20766714365140346, -12.436383965008082, -1.1172013864535146, -2.2623788428453793, -3.5330176782376386, -3.7510890859274784, -3.731583186968384, -12.427067327332685, -8.046736794734418, -3.5296318386883687, -3.7451511241419757, -12.532098406051905, -3.844498546824684, -1.1722160088746356, -0.05179304158558101, -4.788186193102101, -0.14285807669512152, -0.08644001577052428, -1.3269933606898472, -1.5323515214134285, -1.1997894718016522, -4.666131122043361, 0.21362578269465873, -1.4212456850726582, -1.444500644744988, -4.911533068743535, -1.578919222568007, -15.254811028817427, -13.518863913947897, -0.19925603862087454, -9.498365873880356, -4.049205219907877, 0.032268722942803724, -0.19174349350776257, -0.0246196730461203, -0.2086401457851893, -15.111449545083202, -13.730316899196824, 0.1464282020344636, -0.05662789614704969, -13.443331729559997, -5.55721473122691, -14.551393434041696, -5.925844727065192, -10.927094668069305, -6.0059120748537635, -1.5119787003455991, -1.5848841167555685, -1.2351038948779092, -10.485628590852022, -10.457990560994258, -5.269655138420584, -1.2955575214435795, -10.70177703219721, -4.887143915489938, -0.03229907499848227, -0.19478337472277263, 0.24790072417469317, -0.17479746938012153, -0.04893801251139905, 0.1385689807536219, 0.12580344578364988, -0.09061234029858993, -0.18249869450831493, 0.01770876513016795, -0.34503730608604744, -0.03804709612787841, -0.03252263146326071, -0.3600033375372392, -11.160171692072206, -3.201962627426127, -10.747112721262333, -3.3157339744939542, -2.055548484877271, -1.4595836122292298, -1.5898381885211754, -1.7216011068569197, -8.714317266483365, -8.792925038297689, -1.464876306375361, -1.5490179822278902, -8.803714375565834, -1.6658283174996236], [-0.09229382725976448, -0.03101676109360154, -0.023536404763084023, -0.05971437132795017, 0.0005499615881606208, 0.1633199170098158, -0.10325210116360296, -0.014211711572322802, -0.18042103818425861, 0.062093896598674286, -0.22671819769043533, -0.058632720850777656, -0.013817318370898354, -0.16676289029089816, 0.05611815569315113, -0.11893720986701901, 0.04758366804804821, 0.3025385087615835, -0.023600397835546124, -0.13260899141625737, 0.12491058950404561, -0.19755872209455416, -0.06913404771967725, -0.157400829417145, -0.13717001402393292, -0.2039931405720564, -0.035667311203270165, -0.097239224862555, -0.12125927082209773, 0.14763430709967287, 0.0024171142531413878, -0.22460902688734985, 0.03271012382237871, -0.07930588274888264, 0.07611748453800829, -0.08945644302391201, -0.22873782777962243, 0.06980258204012828, -0.335187118167589, -0.08885681988620457, -0.049848984076898396, -0.2867765966345407, -0.02623570774238784, 0.005656527128173906, -0.1743069168230006, 0.2467849377814674, 0.05049974754600698, 0.18464532949717632, 0.13460382414082092, -0.16541542272099366, 0.058956373416476804, -0.08107846986293667, 0.007830453168479627, 0.016589324182829275, -0.10785078190118522, -0.1625735433856458, -0.03785318621386311, -0.15969821664507006, 0.18168698025007965, -0.05596610148532122, -0.2684946859468529, 0.16574402354591017, -0.17307059987526108, 0.042364372696300945, -0.19757133258936418, -0.04803951146596966, 0.016481570609230962, -0.12085552282280679, -0.03019930068926931, -0.12379743764854988, -0.08186949964277428, 0.05954467845461838, 0.08328426941451199, -0.014099702096515052, 0.07730062893591627, 0.03655584829879062, 0.0934723708840869, -0.05684243038118916, 0.06903782135209095, -0.21751067596123208, -0.11229157539647583, -0.12980413945759608, 0.2500234394417253, -0.07058474928779375, -0.027521780574306567, 0.06541333228865814, 0.03508607805900655, 0.11830032520714862, -0.05542099428307864, 0.14068889268192974, 0.09761769273064763, -0.1250889465251434, -0.02946165246920633, 0.025206955252320952, 0.046552106328894685, 0.011277848843886953, 0.0843267901761017, 0.06538094935273102, 0.20585001070914588, -0.050266407806913736, 0.3763964547013849, 0.2641148444919056, -1.5083740635671863e-05, -0.08680734471029738, -0.03950709426002294, -0.1790122115849404, -0.04129914234606837, 0.01895764500853484, -0.28574560837726026, 0.04758673039547702, 0.07234224193049037, -0.24680505358400634], [0.0643083166577575, -0.19235900692925242, -0.14563383011197, -0.21901456784898676, 0.0264954536600949, -0.3365750356377677, 0.13942442012257414, -0.12828846436613445, 0.10571815778405078, 0.07850365615086001, 0.09814502350499471, -0.21351839952640717, 0.06771749951495082, -0.11852699134215978, 0.14777508505652998, 0.01706433496716675, 0.19620210602678065, -0.16358706786281596, -0.04274697035117374, 0.01302626915145999, 0.05696039096575797, -0.16788678103557372, -0.2235160752844646, -0.1336481943457498, 0.046935610853567226, -0.058143785341500234, 0.10760194027989707, -0.01175393266686225, 0.024306438780964213, -0.2017162990295258, -0.1328817262041287, 0.01565096759253743, -0.04225414373907015, 0.008502728523816463, -0.13898275686807182, 0.10588951456862897, 0.09033504175781777, -0.15214358951516818, -0.21776902848908333, -0.012141352833054038, -0.04871027544961514, 0.111438596891747, 0.08530139886256673, -0.14684310454477623, -0.04492359158090372, 0.11739321826864724, 0.1551366237028738, 0.004259377210278269, 0.010278611556678273, -0.05000220169300969, 0.01281525322853259, -0.15286421168410977, 0.04734113612147825, -0.1833065077120806, -0.04192355764993554, -0.002114836957287708, -0.18308968014298121, -0.16332453707390307, -0.08759602904507266, -0.01439533276618482, -0.13386917815271804, -0.11223555000860111, -0.4771034579927749, 0.1109243667562162, -0.23631191458557907, -0.24461744578488004, -0.09952420393896541, -0.2892235771114367, -0.07073493271469203, 0.30076375386421395, -0.04493111502874514, -0.17507437662880682, -0.12969745891728696, 0.06638842093028804, -0.05986537893944206, 0.012435488328681282, 0.06330832799881338, -0.18355050865577116, 0.008637510322795954, -0.1556581434845936, -0.17495518611077676, 0.16040690562147114, -0.12973385709387308, -0.10905403033617173, 0.00012105756489806979, -0.014048694603483835, 0.00829883700169272, -0.021574289412466773, -0.016865895369529423, 0.023885597961420757, -0.14003700694774346, -0.20677301759435956, 0.010967035483196986, 0.373994485797783, -0.061647744556674836, -0.058431869156760824, -0.02553909256387271, -0.1288264055026029, -0.12914554421446464, 0.2114756969760558, 0.025914932216101756, -0.13783593336567634, -0.2159879628798161, -0.21977618121174847, -0.10422460119836516, 0.15663094964570975, -0.11869503985251058, -0.06119147338964369, -0.20688832919488082, 0.12032075365296352, -0.2764408089027758, -0.2678458242753573], [-28.56959515491698, -5.843771513936733, -27.501492700123123, -11.837508809568613, -5.240698760579155, -4.743665863194069, -4.8735187912298334, -5.060041653047632, -27.57066665875593, -28.286356284893717, -5.732474786271344, -4.894815406212971, -27.386284584782942, -5.704386533375705, -10.440815674618436, -4.000099443761408, -7.856772778569571, -0.8336751369956416, -2.09826866779658, -1.949460963387845, -1.889897001043997, -1.8452969858045682, -8.095834317749222, -10.169247566571466, -3.92020634006357, -1.5794969775700405, -8.341534650631493, -4.267471209256542, -15.871068110383488, 0.059021381441224145, -23.98778860108962, -2.4243839164420766, -3.9297219039461346, -6.918672806883237, -6.957491331331592, -6.927884522123082, -23.752768244635106, -15.962892961522623, -6.845480486306262, -6.834507799976534, -24.008188051864977, -7.021177934115746, -2.4948010811398733, 0.09003379200969436, -9.232937405795399, -0.012041868607131356, 0.09177931812259872, -2.717182810490436, -2.787393006670356, -2.901302006873214, -9.036194528503954, -0.07924066904397549, -3.154277783888317, -2.6209663161669363, -9.153947500364467, -2.8948064995222857, -28.89506265998178, -26.245677517852076, -0.5012878603080406, -18.08995320928019, -7.148359575709012, -0.013500942471845249, 0.026986745765313583, 0.18036361399556627, -0.48839014350109283, -29.123633271346243, -26.15409013369092, 0.1639730966033838, -0.41269909661021376, -26.089961962979746, -10.412809971345533, -27.62924497025111, -11.682422220058095, -21.072430896098833, -11.64373799695021, -2.859884927011363, -2.603883278332901, -2.773464817662285, -20.46510927154301, -20.669783705420745, -9.63052319512941, -2.6095597225305807, -20.583130957158552, -9.63178560101212, -0.025744741100652946, -0.6080500384115155, -0.15230381567891324, 0.06816680963850186, -0.1540468980812671, -0.2463337165556792, 0.22669873680031383, 0.0044856370273412905, 0.07562290557984508, 0.24645837879065544, -0.5543029721891805, -0.1213154486041428, 0.0033698240689989107, -0.5920338947682544, -21.650975545387364, -6.512274518307606, -21.099917974868944, -6.512434963985752, -3.7182233080081293, -2.8791761033372083, -2.8785374016972534, -2.9491247765530795, -16.88430871156461, -17.020722849447324, -2.9396477952638955, -3.1315910595794203, -16.73882631683506, -2.99201499571467], [-0.1443925195640759, 0.25343613649215213, -0.07284861136627496, -0.10191056767326008, -0.01675131012263214, -0.5475272717682216, 0.060327235926844316, -0.3627761025646203, -0.36189361389913793, -0.020250342210010867, -0.10529607725620088, 0.09040684110766323, -0.09734107614987911, -0.09373628111133228, -0.30455367757051455, 0.09870842394817154, 0.05329577914294556, -0.12862124891098364, 0.006627366370404619, -0.02526552779399978, 0.02735177333652873, -0.2283029608631069, -0.19578391632581543, 0.165606225503994, 0.08963077301025102, 0.04212890286918029, 0.03756782820794037, -0.049805747150280556, -0.15935376649036342, -0.24894031092555818, 0.012527581107435237, -0.17801398171896352, 0.1625034776832502, -0.4590255275737877, 0.03977327478606872, -0.15002261481760287, -0.08244015302382134, -0.1966528563827053, -0.30333936940911754, -0.04275713126207815, 0.3201168644086313, -0.1443483207104274, 0.05746144030990867, -0.13616095791551872, -0.0013119779390703135, 0.10113715589521448, -0.007134236555918829, -0.12935994500311307, 0.04228893731314089, -0.03950411912780924, -0.1948460945732191, -0.0437469970618621, -0.13593265140841154, 0.045498433942680945, -0.009139310561844801, -0.04848567264430564, -0.3276305344234596, -0.5777221021581461, -0.0901363587203166, -0.3889487873580554, -0.21772883166628243, -0.17207405033097234, -0.748081542544217, -0.022655154733313948, -0.7302841395265386, -0.4235771582419928, -0.36870489687218266, -0.4676761705139091, -0.050216487265093285, -0.056271062870135835, -0.47553229268701946, -0.2079156927394281, 0.006751250923472288, -0.026267503079560883, -0.05881328696813945, -0.052045492837969415, -0.43714672791314774, -0.2569151599848501, 0.020780024030634364, -0.4903904274371487, -0.43218421102887433, -0.27282864496461945, 0.09637543373216989, 0.03372777714799905, 0.02292999226223851, 0.04367771730386185, 0.07988801393820973, 0.048551868616831015, -0.17482500825646963, -0.10190440996642697, 0.12249326119277301, 0.12590430252903317, 0.07427572896874725, 0.059150480799665124, -0.047137217910160144, -0.2565227522092967, 0.010304690658753165, -0.07632233958955903, -0.20192591634124188, -0.3368883331552168, 0.14346800901749687, -0.11381112625871095, -0.22705142634613648, -0.02336076261454451, -0.019717379391680195, -0.1410292983307315, -0.32188263673868545, 0.06200375229153578, -0.15197338048205614, 0.09818351611220423, 0.2472239368246892, -0.24161007436263715], [-0.0007190837785896739, 0.0290849859936488, 0.03409055138888518, -0.09491949990571583, -0.11243139613406698, 0.034756475611323855, 0.041330881550436904, 0.3327620511800959, -0.04425811158368689, 0.07309185171554498, 0.07750861199982027, 0.20625317312031632, -0.05837485207412472, 0.0945590400158008, -0.04390609199764245, 0.1277019634712937, -0.041621873917399396, -0.03438181086070835, -0.14476502888209236, 0.12459527518237627, 0.04997645646407073, 0.05627033820318351, 0.2395055047552949, 0.22635150335718668, -0.1350637843018186, 0.26010702584931955, 0.03966226846106822, 0.0859953270048552, 0.09924814788397573, -0.1579298251228472, -0.05061767763807387, 0.37881264059265135, -0.04370029574671648, 0.0960536706064375, -0.06632365243147322, -0.08102413690681103, -0.03296806917563312, 0.12407459057438733, -0.009824475810482555, 0.12553057332963669, -0.17502714859414611, 0.13648188931210808, -0.1513432165008291, 0.051674825536262875, 0.084861370153486, 0.017992170781792743, -0.006916146172798038, -0.02215369701179562, -0.1444757180413189, -0.006395615100250175, -0.03053344986630927, 0.043439652476404814, 0.09446526125597306, 0.07306805852242837, 0.02958489643407919, 0.08008059966612768, -0.08136745251396846, -0.017840967642219898, 0.11750100528940371, -0.031590782748065885, -0.01237192455387857, -0.1989566960185561, -0.11656804979283718, 0.15808254911287883, -0.1647976594688324, 0.09195536891134379, -0.1801697048553625, -0.13123155222390745, -0.0258108030243208, 0.04643992681367105, -0.12757743665834176, -0.3205575718437081, 0.007712697531521485, 0.007719015639377304, -0.08717862288003872, -0.2256574982213441, 0.08406958749568084, 0.2692321004025557, 0.03949949160486949, -0.008890074695682053, -0.10850165189969421, 0.034021939558100456, -0.005743178110442672, 0.07008860345533272, -0.06317808346863917, -0.12109712200162395, 0.11257165948263495, -0.09594546042042408, -0.1323176153340792, -0.1456520199025801, 0.1128784135566833, 0.13566632314761604, -0.04014984354753621, 0.00850595920626807, 0.041289262130926374, -0.07243431766557544, -0.11100419470998774, 0.05312058504910581, -0.1588242167918431, -0.03026050302675855, 0.2638048474839097, -0.16526833775784444, -0.17381323397160758, 0.0991295217599802, 0.027896429523929393, -0.06605283034150133, -0.013528918966800134, 0.03648487536775178, 0.04879167614327732, 0.025746841427271225, -0.11601005067584992, -0.18297771780872366], [-65.17076394773082, -13.394033519385214, -62.89176014517123, -27.508533040928643, -11.96795997753404, -11.356795437210906, -11.276529764943735, -11.279635167332433, -62.84400578672456, -65.13221694213239, -13.3007483703072, -11.418916261690864, -63.23430897066868, -13.62475869854291, -23.375353205473544, -8.749661588297728, -18.65728846899454, -1.9455616340896074, -5.365805494830865, -4.253115712765372, -4.054120896796344, -4.221841568128057, -18.7987610117197, -23.42667936710225, -8.8136206783696, -4.251383340868018, -19.015882809959017, -8.98470022428172, -36.92870263456024, -0.16060174732193974, -55.01137114057552, -5.402338027436456, -9.073322268743226, -16.013489567415263, -16.110933197602936, -15.945999485214747, -55.14480608701308, -36.90595119033196, -15.854687278065013, -16.035794759056863, -54.85458370395422, -16.020410647076407, -5.245012610965672, 0.04672611908699074, -20.9341623426951, -0.10162099548060605, 0.20348019607513188, -6.203451792384723, -6.588381546792508, -6.563355139436772, -21.10807656479537, -0.16158494952707178, -6.465861198162596, -6.571646764798887, -21.428326384382256, -6.557479931652577, -66.61395604457398, -59.67070780756322, -0.9097639371883126, -41.52306249760837, -16.861807316635932, 0.12216863352560597, 0.11665189415164282, 0.18511936795693484, -0.5126350537559049, -66.6982278705729, -59.924582088163724, 0.23181884199496658, -0.7285682609002256, -59.99734157267, -23.681554593170315, -63.54570583970831, -27.15793958547952, -48.23507506594439, -26.478847953140868, -6.150766022256694, -5.717447112537362, -5.855673588802268, -47.00026929326082, -47.183846318101494, -22.233524613505303, -5.9342076168188065, -46.90971445725915, -22.40995885504393, -0.10113640824951638, -1.532627298502185, -0.0018406176290173802, 0.17776772119985138, -0.10568005115382553, -0.007532177172911358, -0.03892008832367883, 0.07825498524874863, 0.03937226445482851, 0.15720273175432306, -1.4043044908921394, -0.12667190930076538, 0.2064424755158686, -1.5488531315159106, -49.86258473436806, -15.118008831969629, -48.43047775402348, -14.740884331907235, -8.813745454786483, -6.596201857494308, -6.694022839912259, -6.608766925359182, -38.801942432240736, -39.01026224506573, -6.71847430123026, -6.696858721025247, -39.02569561514395, -6.602013193264876], [0.17004262111911003, 0.011663909492120495, -0.06563112697882319, 0.05046263137734036, 0.06592319502749895, -0.03732830257230976, 0.016673158707001708, 0.042323096484131274, -0.07245736243674986, 0.056734554285678584, 0.1851236352858464, -0.06065242569763445, 0.052580745854061875, 0.002704652951173697, 0.3080843827767609, 0.2284374296057186, 0.002860652046733305, 0.14083267051570822, 0.07673760462395736, -0.11105913837362515, -0.03533962902541282, -0.12234278030028249, 0.014880271059397186, -0.13531783730105004, -0.25493926719508925, -0.1675438456033236, -0.16178148974777576, -0.03546905361042997, -0.027991086573221444, 0.25529777664521625, -0.08586073759303788, 0.04719354111069267, -0.12661964499266481, -0.21299918093278372, 0.006609653253057984, 0.18905451941502285, -0.3117475702873198, -0.16089728482427187, 0.1908927368035056, -0.15341701735562355, -0.16929530698088371, -0.07038610147335954, -0.11800591970646634, 0.0875809794178603, 0.009292532743589791, -0.0467921876554109, -0.0015185166785044624, -0.09336761861930018, 0.024658458889108996, -0.22073365583890656, -0.027464861601187166, 0.20396175297966435, -0.10967540793266972, 0.03179479572745173, -0.07189012744135641, 0.052802670172697165, -0.13615195354077678, 0.07815204931086434, -0.18879264555055408, 0.023109010639699855, 0.06272181175317791, 0.2622749275216904, 0.19456226766966056, -0.05526281462264988, -0.01957320357012854, -0.19111982247879525, -0.07178016529183522, -0.017061321670200857, -0.12424756095501226, -0.3756593057076763, 0.036999601782746645, -0.2567669237644969, -0.09812211441336938, -0.20292995029282737, -0.08987245145987559, 0.019828692123858883, -0.13210262632442385, 6.423156460675405e-05, 0.02590592935397799, 0.035894122060200685, -0.02671672513336154, -0.15041727592374493, 0.002813046162186235, 0.15172703414802666, -0.07317277716348614, 0.0478330747881744, 0.08843564194705572, 0.07825965759493125, -0.14385134576024533, 0.18138891181854577, -0.13657180738941344, -0.06562615600205496, 0.14074034368474728, -0.23153682675452184, -0.07107532522976359, 0.24820978495251864, -0.026552577443956202, 0.13205575860404842, 0.06898244046937069, -0.19072717369418601, 0.022732420096792955, -0.08853679172053876, 0.15100956525719625, 0.030859965415428608, -0.012230968210435891, 0.010506885178164558, -0.050155089310675735, 0.2352821832378259, -0.14203217876075544, -0.07300886291327943, -0.11194069541563814, -0.13785274996488173], [-0.2170925229153069, -0.031197247902750604, -0.3326625437517018, 0.0006463183864825056, -0.2196085044705532, -0.18724084473504748, 0.18766013162175388, -0.2854585913372257, -0.2113138212787862, -0.18114373760913888, -0.14409850994449155, -0.1401574610621562, -0.11030830528526334, -0.16469790158417838, 0.1401895263501874, -0.1404517598654277, -0.028824777537642628, 0.02889475285105397, 0.007003495364514675, 0.06865624827270972, 0.11779135238483035, -0.06406945204399017, 0.023702515498320254, -0.025827458574354225, -0.18442850100215175, 0.21608461058596778, -0.029871516754977154, -0.15787649689019373, -0.10107200551018843, -0.05502100615526519, -0.13817413765366043, -0.07610897630830978, 0.04502118934857635, -0.11410027820684257, -0.051813103467192194, 0.07064546050139632, -0.048180298458187616, -0.029856564245150104, 0.014013304200359247, 0.24285727560946735, -0.10317310427716568, 0.05555743625365647, -0.08629739106319577, 0.02749808661430143, -0.16840356315689378, 0.26566994185909654, 0.02511401221000562, 0.07571488609649656, -0.02631891934203423, -0.21178692033926932, 0.13965159097011162, -0.11567927476093333, -0.21971253859565726, 0.08181191999720817, -0.0027742403031202306, 0.029119993579998144, -0.2388767699020749, -0.211181715305356, -0.02443738825665426, -0.313505498543345, -0.09828678861497239, -0.10055401726255922, -0.30636794392876177, -0.061953622756001143, -0.3406249376726364, -0.463969945795903, -0.07873189010582672, -0.3082830793959019, -0.015177640826591707, 0.052673969342467514, -0.3249502464980687, 0.10686172752972958, -0.1410866584942731, -0.13734508325683853, 0.010533990160437101, -0.14592147610443074, -0.47238614447221877, -0.2351140004987646, 0.018340582970430105, -0.24884731533567622, 0.029249109083911262, -0.3074005236476633, -0.06143541860184539, 0.06702096786954713, -0.1492156659670555, -0.185805178725433, -0.11788987166190727, -0.06698536892538923, -0.01676941486594698, 0.0984299084527249, -0.03888704900934298, -0.09833586077196306, 0.06238970149941705, 0.218328185326639, 0.2678766808021734, 0.19675425010363987, 0.020407934078603942, -0.1160840620540769, -0.17936749271799618, -0.0016617867462250541, -0.1667028862709259, 0.017605755066974024, -0.17492666900349782, -0.005621908419639396, -0.1269040907773717, -0.011369303188639934, -0.15121389926995601, 0.3266334592050957, -0.21919487284188635, 0.12199912890003076, -0.08373117921581227, -0.18606827554627697], [0.016700943343641236, -0.05098560154025809, 0.060826516799101775, -0.15713630498015033, 0.050804309442612404, -0.1606421942707135, 0.04520678786537663, -0.04920801634863058, 0.13015055738388698, -0.06312751044207114, -0.1410377800354704, -0.0798946095611012, 0.027201151172863675, -0.22183185632193642, 0.10959918897568495, -0.17175695284695655, -0.14735845907598027, -0.10209504824070478, -0.012535886565109776, 0.0694205884174059, -0.2437501015206717, -0.10197717269325525, 0.034037079104907816, -0.036028343340778715, -0.1338677947037524, -0.16779357220257843, -6.333669755085503e-05, 0.07333639716490782, -0.014955762757849395, -0.11896917055327662, 0.10858884343675157, -0.11209605536686958, -0.04651535501772081, 0.15052234101319145, 0.036183365702265734, 0.10991041972284243, 0.00392542595832569, -0.06502725794874888, -0.07595799448322883, -0.04920150715733993, -0.1038065372959179, 0.28317390963897865, -0.010804135978550043, 0.07892653134807605, -0.030230491461434878, 0.04865979440568188, -0.18487506934970716, 0.22508838515594737, -0.0158307913415853, -0.43844643253783644, 0.019499529250448722, 0.0977205016409172, 0.004399844776680887, 0.11981238218623083, 0.08836421552890414, -0.24744446347624946, 0.04404382810793439, -0.24949535340308643, 0.006613920961121974, 0.1444152337921265, -0.13327241018378608, 0.031135629278935713, 0.10300845055698012, 0.11126021872887656, -0.025876897366167446, 0.1823638567921058, 0.08882427525313302, 0.02707179099173374, -0.025433041831670746, -0.07143281240935248, -0.16094388573423213, -0.15382180257247194, -0.09072298411315347, -0.14447189022962698, 0.22129927253885243, 0.03419786949077848, 0.09429812411146203, -0.08098287769838476, -0.2254239258976856, -0.19988498920214673, -0.011109915993884655, -0.0487695599860989, 0.06356516006967883, 0.1435163200380007, -0.009476591716012912, 0.04309173908046546, 0.2619253311348215, 0.12027579171992228, 0.055088866752794174, 0.12685888142215182, 0.21193729844725492, 0.07562801758243207, 0.011340510303998262, 0.08993136504674813, -0.042806352999469804, -0.06865022149448188, -0.07547051420190548, 0.08790976013458268, 0.08184565104296802, -0.11650260418939792, 0.08518790075453446, 0.046559233512843974, -0.06518855079363409, 0.13384741998234315, -0.12219842113942607, -0.09548358243203729, 0.05909850952203294, -0.10102863846080622, -0.11120833244135288, -0.2617018931951228, 0.13769212248263685, 0.21294853398245606], [-0.20878610744209816, 0.08126227437672037, -0.03624921091788349, -0.25588128551417466, -0.10041517747479303, 0.1997998314411886, 0.16904884180787805, 0.09717838868973798, 0.04295885618527294, -0.09810133712346135, 0.0015804099006140777, -0.22497397698026866, -0.08059873046649106, 0.0928264046659046, -0.09859879744560152, -0.0562586389193729, 0.21221039956946114, -0.18551547212358108, -0.07462942930358177, -0.162984279846326, -0.03615408684505018, 0.14156578157271305, 0.030560681141936004, -0.10396560676804625, -0.07621018911017455, -0.05348414874688223, 0.09642030103908113, -0.03976154736797607, -0.010785222980737526, -0.05369026826673029, 0.13441321012888338, -0.02378057949670838, 0.08320572431881212, 0.08365275436415395, 0.13736930642455236, -0.2434098947177794, -0.2191510204247518, 0.06045220553742737, 0.12251812644625924, -0.00494673774324977, -0.07534328930934658, 0.2298460658500722, -0.12059601118253285, -0.09763672187839474, 0.02577009794447508, 0.14396324304531788, 0.2059624563380582, -0.04419023221818361, 0.12006480502354404, -0.18530534740310578, -0.0031101419705620945, 0.1609227177203958, -0.042722847595581766, -0.19537966355663555, 0.15961082926539824, -0.1812757824417075, -0.014338943280614452, -0.09087206567575674, -0.04760714983640496, 0.11398967741744988, -0.06319076861843523, 0.025863380531685087, -0.12889876547457088, -0.07203157957342028, -0.10408685050553704, -0.04628428397838266, 0.027726549355331587, 0.2352033614544591, 0.20095045219459146, 0.16935087397446733, 0.0038939542602136486, 0.12991428000319644, 0.12171552615205267, -0.07599602208286865, 0.07269735594535105, 0.13580754445735832, 0.08947723642888676, 0.025518166220130166, -0.010811037790995797, -0.24673415940326, 0.14093978589383152, 0.026539704590010798, 0.1647762711925084, 0.1261777978962263, 0.14139183554019905, -0.06271066108730468, 0.10194034811861198, -0.008330077849714002, 0.17760082318854956, -0.16215766138902682, 0.15892608943389086, 0.02108692610282927, -0.19475674588478128, 0.003336653620939696, 0.11396025942759182, -0.02308853718948085, -0.1587957783093783, -0.09912840523841344, -0.19212088843247913, 0.06355595824699711, 0.019135986825646385, -0.09420695285215666, 0.1592564308575094, 0.2162744641942261, 0.1270931230910764, -0.03798359553289479, 0.1585624725232505, -0.08198956923457353, 0.07720356869483849, -0.006274514651862016, -0.1490096557407073, 0.02441461050627073], [0.0593962200802253, -0.07662432883690962, -0.2759691997629783, -0.13010704986022031, -0.06729427750437578, -0.3315697679106986, -0.02404540559136037, -0.23168733358619475, -0.1672596126171678, -0.03865124800700968, -0.06868824018258854, 0.14315721293526693, -0.20028136355093373, 0.16071367657708668, 0.11699316718691818, 0.08776585672011591, -0.12781282717137935, -0.21375033306832653, 0.14348106271120412, 0.06467467519325493, -0.15453079829456817, -0.1673638122965548, 0.10267567897936614, 0.04441536956092074, -0.2448336246600982, 0.046084768992552, 0.015856736902829818, -0.004425212150811934, 0.023391489296014492, -0.04271369006006184, 0.025676987872988194, 0.02780698608438678, 0.05707537683531177, -0.1336037720637462, 0.09574992398469302, -0.04362483187564212, -0.02140317579334311, -0.25152210032115974, -0.288383301160748, -0.34793104493004856, -0.11194553828071689, -0.007386430681954922, 0.1103644765424217, -0.09778022083620005, -0.10677327043579338, -0.09592573535520617, -0.12282021881709608, -0.2595430502337892, -0.11389544358018351, -0.27221493935073937, 0.08987791697949342, 0.06998167142101673, -0.3845992108358307, 0.06462880632129944, -0.08674909031737332, -0.011843233777505428, -0.1108769572971345, -0.18405159065725582, -0.03455605612451389, -0.3110919774998579, -0.34470395999895054, -0.0673787038273783, -0.49777235418808496, 0.08575368378120177, -0.44243521748298986, -0.26787145653445743, -0.3681658594254419, -0.2875412863110972, -0.08546292337692571, 0.03436515094014463, -0.3053773515374306, -0.08590490349603792, 0.02422096013993562, 0.19014007798546373, -0.23745001363324925, -0.02980851027567961, -0.21280307862242517, -0.14593466978852784, -0.00045128841724590557, -0.2898317486609413, -0.18786458437011744, -0.028367043459763375, 0.16741854737992, -0.01555296346768741, 0.036468907582095575, -0.1852261149024369, 0.02165227656112635, 0.12979762763094388, 0.1537261982939939, -0.05259958787867327, -0.25714010362569795, 0.011317304711900233, 0.1458290174615762, 0.07916286493355766, 0.21592488198689674, 0.04669071672159527, 0.04083713313876505, 0.1021137801464183, -0.21348263408732313, 0.07322708116766455, -0.3588274092489449, 0.06781091425299375, -0.11689367539348863, -0.12025727981831474, 0.07531022533738312, -0.018995905762454288, -0.17571915475852237, -0.04759419572375834, -0.05918864593815029, 0.042211853774371616, -0.030463291550028103, 0.002395059441662757], [-124.1709143636486, -25.291074793440025, -120.46444281678113, -52.29190355317823, -22.587893997119508, -21.342579881013744, -21.665765642094083, -21.28753092214388, -120.49309337373586, -124.27737296944885, -24.973284937627465, -21.772851875746024, -120.88118045613874, -25.51132043191363, -44.90057811843927, -16.924833300465153, -35.92835285320089, -4.08601056416762, -10.264355010239951, -8.056527687060425, -7.913888895629048, -7.73859123601879, -35.68819743113909, -44.95933886158828, -17.205871119397642, -8.18042850662627, -36.053759188784255, -17.15369449220125, -70.43731508372684, 0.16340999410797516, -104.87329859528502, -10.587841386646208, -17.160518261826283, -30.372716356855015, -30.566551730095746, -30.301229463617652, -104.96473906956359, -70.38438252939828, -30.404595406230584, -30.671252599307746, -104.86438621030472, -30.363966545415657, -10.116154774344498, -0.12614596231800257, -40.50216589222277, 0.038016837369818375, -0.20412535056853795, -12.452845040918286, -12.28274905649901, -12.628903429921925, -40.078179969902905, 0.02572710843773775, -12.256963408915325, -12.503495431968012, -40.535406348523985, -12.406899906855905, -127.15593621387413, -114.18233938773666, -1.6849521378268386, -78.9378515745353, -32.324732154614196, 0.16600048657302505, 0.6438388108154824, 0.13609844267756027, -0.9991078621907687, -126.96020453086605, -114.24110245281646, 0.42395199495896635, -1.8723495781160118, -114.42598594584146, -45.02571978398867, -121.08579543455859, -51.83801248156112, -92.3828066293747, -50.77057194098655, -11.691534596741677, -11.005685778449392, -11.144593010964744, -89.74579755023619, -89.36680876072211, -42.54058917374458, -11.25323579023817, -89.89417359018663, -42.978630598740594, -0.07660534285492343, -2.8134756221950092, 0.011004760641278243, 0.069520547153969, 0.01883429749045122, -0.15676776437154924, -0.005427223108594045, 0.10757964058885397, -0.0587699122119632, -0.01845984526754744, -2.8938021093871105, 0.04112295663717037, 0.09229611699188832, -2.728712199046674, -95.28762913745271, -29.040529215961218, -92.10135160384215, -28.36103789338214, -16.7168062209484, -12.62919678479465, -12.69793070802673, -12.804597006427661, -74.00239869503098, -74.06310972225748, -12.386987688139474, -12.941245939015662, -74.10404506556092, -12.664167746380016], [0.08488523851850488, 0.10334263466966667, -0.21384455765590998, -0.1886727335688701, -0.047163001766805226, -0.04769959556807174, -0.03333636620728283, -0.17829254568587813, -0.2245359135481739, 0.13676557143907755, -0.27246433247590907, 0.0006985115513874037, 0.07953987420052142, 0.16949277814707667, -0.051064424677994345, 0.04088126513630448, -0.04771561103444348, 0.20079430859505046, 0.288475252215351, 0.33298893358667886, -0.06713991457141052, -0.11813103937852251, -0.06954203864967426, 0.17146127239099013, 0.03334742551021741, 0.17466904558131893, -0.08273316214279677, -0.17028581064267925, 0.19259185520241628, 0.10425892049042768, 0.031120771609835382, 0.12459233130107246, 0.1853024616702997, -0.25928636374549474, -0.12127550735294872, -0.11560299256625355, -0.059490873913983125, -0.08854226115310329, -0.0390218720194134, -0.16410478273878357, 0.1125154289812487, -0.0430622433581774, -0.06381263870453911, 0.05378879763235087, 0.17022682639016407, -0.012915881402231388, 0.058504220184886005, -0.025895505459934853, -0.044104015818577674, 0.1857341417784153, 0.03438484119542636, 0.005580479415548183, -0.05060299629348396, 0.10883433527978355, -0.048487409413500514, 0.02165683126400746, -0.20007295849695375, -0.3803681327916547, -0.13795681070645419, -0.28748284138966085, -0.006046173706722446, -0.2606803997431568, -0.38985687789001106, 0.15196747323518872, -0.36570365780292047, -0.23131330591440505, -0.2541612699811894, -0.15851013905024625, 0.18187138270514938, -0.12425363636512916, -0.3471454249612146, -0.06505189070525882, -0.2321710585900609, -0.09907480683082105, -0.07010778869037898, -0.1881756705110128, 0.018169822553990883, -0.2354211619315733, 0.03069514762942649, -0.19400151412890815, -0.2906794532392091, -0.24501132130793432, -0.12374837893901293, -0.09332183229925962, 0.007484306077308808, -0.019719525204528986, 0.04237511413126416, 0.09918620298917637, -0.32130732524671574, 0.17186053278835506, 0.029939901511649193, -0.025937450672597614, 0.03130393789438363, -0.23767031401367023, 0.31733841677906305, -0.14639697576367353, -0.0913655197989831, 0.032679237357970195, -0.16125085329580185, 0.024458440870092666, 0.10100609434905587, -0.030130092067315428, -0.025833511825982446, 0.08481296026076125, 0.09384625352427554, 0.04456609160056571, -0.19542985107756544, 0.1698780722424333, -0.17213948167115478, 0.08066464181786688, 0.004278743272215775, 0.08640720930003559], [-0.2341115334855357, 0.08347586145070253, -0.21103509600304304, -0.3153379961808781, 0.1444254205467834, -0.2944357799320132, 0.0020822584802542947, -0.3206820843063951, -0.2641995890975114, 0.037493047657086075, -0.40929046854091916, 0.20487549669171765, 0.2439765436751303, -0.07353923494385249, 0.05397881662721351, 0.07319734572936479, -0.10994899843539839, 0.07602767088470508, 0.2428959683779805, 0.10577119174959046, 0.09197096290257564, -0.2274765413669846, -0.3650480379448212, -0.04170966574460436, -0.10162951386005732, 0.14066102504226113, 0.0027493330522713627, -0.0837175123625955, 0.16159626116293876, -0.19120918432207448, -0.2377488489820708, -0.17814899890581912, 0.08105144928518156, 0.005610668548445857, 0.015426689173497637, -0.15471444067229376, -0.022158374264412018, 0.0041740470332379525, 0.15358584516951834, -0.22662217403083706, 0.17372867429442293, 0.07342610066313471, -0.01569040449490961, -0.008288106327432957, 0.10647980441232008, -0.020481752909119973, -0.024842431589533392, -0.015056375596559896, -0.38210974213725996, 0.10846758795929862, 0.07595405963570934, -0.18821334007333518, -0.23645564853679202, 0.2588760255848005, -0.022426713255996766, 0.03305031063173137, -0.26004559888412443, -0.35510888882165265, -0.13090655885288938, -0.4365059541011923, -0.3948693006933941, -0.08788147379436566, -0.28035078826232906, 0.2157476856347748, -0.2568901342962026, -0.5729316371910682, -0.025520624739618344, -0.4272247799848112, -0.004133716962828947, -0.08618985787941542, -0.2881373822276619, -0.2495273791239922, -0.3109227129105089, -0.20638098122461707, -0.375524785142893, -0.044831621008519965, 0.05347614389699559, 0.11284160655562644, -0.00445286931298524, -0.4013820280068175, -0.2439855728071573, -0.25686000348001736, -0.18712437943692886, -0.15226038272719056, -0.076882269309359, -0.05385310619424591, 0.029168490058239332, 0.06294981778040538, -0.156807373246352, 0.06744584530261642, 0.026659792407435854, 0.014119493588528067, -0.1097128158978612, -0.043957542471956566, 0.08999600759394387, 0.12536465059959034, 0.177304574661808, -0.08586896027205691, -0.17734488141593086, 0.13852605383799316, -0.07950332518593575, 0.06914523655584585, 0.026103205132294572, -0.008943362416286828, -0.016369603983467124, -0.1547029860706685, -0.26265246124179714, -0.21031357368066086, -0.20634157497380853, -0.035079782070953046, -0.010738328322039038, -0.01664453807988306], [-29.725275276970727, -6.299825980433599, -28.685736255994932, -12.324294604213172, -5.216679157798653, -4.725237732783986, -5.16580488749815, -4.819434428009879, -28.47917003071531, -29.903633788915766, -5.619026713963838, -5.417430104779712, -29.286102447971608, -6.078683812186472, -10.776103650724465, -3.9927207174442527, -8.705075139952722, -0.9816618298435033, -2.4860454893637693, -1.9706209129823735, -1.919172408685372, -1.7630124755759073, -8.52493914596578, -10.92608188471797, -4.155866621186841, -1.8433747402598568, -8.825581901361234, -4.257510981784387, -17.090001157515648, 0.19409966289930314, -24.93278286309156, -2.492613905617873, -3.984185629747889, -7.112705736144113, -7.307506060345256, -7.114591464087723, -25.333172526912414, -16.987502719839668, -7.04405301566004, -7.406916799298822, -25.191542715035666, -7.3200568753439565, -2.1147776320745124, 0.035460421974545436, -9.671691508149685, 0.1917617016890091, 0.30733696452307685, -2.952135979206743, -2.692222500153187, -2.900725211182434, -9.665216097532666, -0.09143271464148661, -2.7871725914818475, -2.9981222348475196, -9.715416844435135, -2.9700912411484133, -30.313762892771027, -26.75398426646529, -0.5076077903445302, -18.67998582537103, -7.576256094651253, 0.25221150108630785, 0.6703020172822892, -0.003447828117730145, 0.5618208032626408, -29.792634618360136, -27.731376499538346, 0.7846988571192024, -0.31379259146021665, -27.65289899706904, -10.5918088171042, -29.09909294070253, -12.478547854407099, -21.93868924048313, -11.801862722489885, -2.883178398848365, -2.3282469706900053, -2.445184444247368, -21.471791224049742, -21.116212013244304, -9.884781416873627, -2.7451978093618914, -21.76604918601389, -10.345849643124692, -0.222703786357031, -0.34482657289465035, 0.01896232339876773, 0.05411267335438045, 0.01837491562882235, -0.10834127916559573, -0.24017865294695917, 0.05724392891292202, -0.11681290942426711, 0.05694241231692129, -0.7910909753901157, 0.00018540734945316634, -0.29015700949234113, -0.8200230952403815, -22.535039986668785, -6.8701488442682885, -22.10680133100264, -6.611058551634635, -4.052234385982867, -3.020246641542353, -2.7760538064379476, -2.9405214003988105, -17.699006987543413, -17.671532405584074, -2.715872248157044, -2.921974557025523, -17.95904097188373, -2.901660769039648], [-55.056839876612536, -11.35932731784467, -53.80233499422339, -22.973890623097667, -10.223963456802233, -9.632238508906225, -9.804451429488815, -9.843993005411779, -53.616377859446494, -55.326748343231756, -11.146422556816823, -10.003249739343268, -53.74653499212664, -11.248324867209472, -20.117640914219457, -7.187982987406199, -16.109502086970036, -1.5915923475256073, -4.458038794410303, -3.416990143160127, -3.7135028277325763, -3.5183676654508957, -16.01959326155107, -19.742846351665715, -7.402280469677282, -3.620419453719281, -16.040583106684753, -7.271662345829371, -31.455487621889088, -0.06484608703153488, -46.66984129037139, -4.522968929682154, -8.066791291842337, -13.531995422658193, -13.784041149246196, -13.52222359120987, -47.00903620399122, -31.403998070055614, -13.550967356722433, -13.458282369706334, -46.828437833065216, -13.610055256181807, -4.534557183423909, -0.06408537525800594, -17.97102571843861, -0.02107409794346044, -0.177811500968319, -5.3681063027951135, -5.411308740181714, -5.738151495346219, -17.934950965439498, -0.026322964667919113, -5.428227773979803, -5.77661527619762, -18.00304550874121, -5.32328223462916, -56.64786117690269, -50.55623177221965, -0.6665989343696478, -35.183799701459954, -14.285519601742529, -0.10240858431980021, 0.513013580772587, 0.1941315039723674, -0.2585809299744992, -56.54713002645096, -50.938776551226645, 0.432559642475857, -0.7413094965910679, -50.96730168218652, -19.84163314187748, -53.95611425784769, -23.111309708879446, -41.22672325201749, -22.722571735831885, -5.282864618649631, -4.8608966209383455, -5.005457088986801, -39.9340391992495, -39.83600296380814, -18.967143911847344, -4.69870881135617, -39.997549709258216, -19.10141679250353, 0.19086346682495467, -1.236318523615781, 0.015037457229991303, -0.11785165605898376, -0.07123537067587131, -0.16965851077796198, 0.039712441822601155, -0.17657640967658728, 0.08277220161681939, -0.07569394303662144, -1.1138321237071982, 9.040019742848591e-05, -0.10198925030708281, -1.150866251794609, -42.28235289690449, -12.879408266671454, -41.1692046653213, -12.578609806326865, -7.347701291196367, -5.659395965123119, -5.72194318864285, -5.647615669938841, -32.793443763089776, -32.87525940244326, -5.6666049682189925, -5.6869357316868, -33.08366526594121, -5.876444854789267], [-211.0334067022245, -43.1876227751593, -204.7184474552954, -88.81829341996355, -38.50001401927873, -36.61153767362627, -36.71688168858556, -36.798175168336144, -204.88732475408676, -211.25566157025042, -43.06692289731287, -36.74019149769787, -205.1330692379158, -43.08229706861391, -76.32170980035, -28.79107141298019, -61.08999798554298, -7.16091194145394, -17.347653639962665, -13.788015673154634, -13.384465688385093, -13.61866583106944, -61.024021781482176, -76.42021168834464, -28.80265683366483, -13.6142777667006, -60.8911404885489, -28.83432586577727, -119.72317068336837, 0.13228489572100438, -178.14565034770968, -17.973795079405427, -29.519036757009676, -51.84404313187672, -52.032960487665044, -51.748195706698176, -178.45105772098563, -119.94727741649652, -51.43540368011687, -51.91496488829536, -178.40185143506255, -51.58022733831793, -16.760207091154854, -0.2310285484724947, -68.54118856078622, -0.16274918244296355, -0.0749454628608279, -21.09009043599022, -21.37187275111294, -21.05996438149395, -68.63140862963864, -0.03312995101061407, -21.105100561945502, -20.943690816974886, -68.74696064312907, -21.09998637932409, -216.03135325271177, -193.8917131196112, -2.735976081748951, -134.4219902222624, -55.52110723790097, 0.055412244427395424, 0.30521134064572963, 0.0493003922055929, -2.6495873816690207, -216.03222342684805, -194.1101007506317, 0.4572239643494457, -2.9255905172189864, -194.5111357132582, -77.15728000332965, -205.78987631557925, -88.22160809723638, -157.57912238947108, -86.52413837158257, -19.914590556926523, -19.017221923829283, -19.123630809704952, -152.37866925514533, -152.02138691717957, -72.63845800407692, -19.055878666770738, -152.81469105420004, -72.91391904706401, 0.03673722388941327, -4.4025670181791865, 0.07162465051639018, -0.01133101043614989, 0.0025314019744016045, -0.30464458448952947, 0.12285379576088158, -0.09838274053874706, -0.024780775799395853, -0.031156330306119834, -4.601290077259467, 0.2831352338456663, -0.03449990415172831, -4.399732438985766, -161.78006218288414, -48.78695819802584, -156.64694422476015, -48.097025430335904, -29.115517686890374, -21.62142565226493, -21.35115691592243, -21.78668272129903, -125.76852411713267, -126.15498997596586, -21.48829181344494, -21.402995549629633, -126.0046399371842, -21.600760179265507], [3.7245072636692687, 0.6871041224911962, 3.6179809720908604, 1.5961658120228606, 0.5817675600327212, 0.6816853916194905, 0.6084407053013395, 0.8337549956323753, 3.6120507045958323, 3.610839535864611, 0.786930272620941, 0.6330517841767778, 3.852648854922669, 0.7057865382420268, 1.3821975826256323, 0.5189875277796969, 1.2088862146224562, 0.07469879615286835, 0.18432979512055414, 0.28659606797753695, 0.19184423938967238, 0.19857616120814936, 1.1606250340898814, 1.3880287473029225, 0.28906898279081017, 0.3019450710500513, 1.0585061381105245, 0.7617474484089123, 2.118066648799545, -0.1216071480607779, 3.1370227600103076, 0.5356073920275928, 0.49730680482685263, 0.9646084739724954, 1.00050830141572, 1.0260677335355575, 2.982679178342052, 2.3528695169559173, 1.0246917530945965, 0.9337144377332796, 3.310322843766781, 0.9708735156863622, 0.47277606370861724, -0.09859275205393979, 1.126591359644037, -0.23519918798705017, 0.12283521378932603, 0.20553351472468018, 0.38418225640539705, 0.36303939497192794, 1.305039790307985, -0.15040663661741227, 0.3679935868101971, 0.045825625692278216, 1.4233001406342654, 0.10198929855874406, 3.936369756152371, 3.523011194770779, 0.2242068226406738, 2.3424062124451073, 0.9133022633110808, -0.2439000599642062, 0.06735091428278911, -0.07528336201957186, -0.09862717563617363, 3.764536341279425, 3.3083828753831526, -0.30818909067599615, -0.15820662031214092, 3.2990554294766627, 1.4602701878799091, 3.5201376774417668, 1.4969608901171945, 2.6246772778550804, 1.263894449581443, 0.1707507033827851, 0.377582367664745, 0.34024349240010066, 2.7744849518497836, 2.6662622159584926, 1.232433688445294, 0.18691473601709604, 2.7466340161630325, 1.4365827012346424, 0.3083626800470335, -0.17249404873035157, -0.014020779612573647, 0.1462033562747803, 0.07456730441245175, -0.24286437431795677, 0.12031534338740921, -0.06924718187468212, -0.18994166639194537, 0.010012471545357048, 0.023086604795330867, -0.16362816879211728, 0.10802448803995203, 0.14983538909428584, 2.7619654153330195, 0.98418807481403, 2.7160020256179216, 0.9435236358895254, 0.5228581461814327, 0.4062782456731326, 0.351562535667055, 0.4102709413055238, 2.1394118263121107, 1.855122716609114, 0.606529319658693, 0.1190902236613649, 2.2641482849196617, 0.31044033823562606], [-0.09737390660164638, -0.054718857234060156, -0.07905972179938006, 0.10574780017377305, 0.07551358555754027, -0.06314847049009575, -0.000475509414017328, -0.2524623061965848, 0.18193542070622395, 0.13737209313734944, -0.0181276925628229, 0.007702500524138613, 0.0036260889108754852, 0.20777305344259855, 0.026008509494968687, -0.0880601472376538, 0.11874472357068892, 0.13665865039143962, -0.35157048891624443, -0.07314346944020328, 0.1784707895118988, 0.1103036009281719, 0.21219206225614332, 0.03488193420176127, 0.04266025651048451, 0.030069580459741896, -0.06443517825647785, -0.08651787576333925, -0.010773761697471787, 0.16277813248587333, -0.010902403594759531, -0.11485023487529679, -0.2709125790304321, -0.025039433098798206, 0.00182858881123707, 0.20575527733467538, -0.12253534030882376, -0.12556200340232515, 0.13621293539018087, -0.036033584401505565, -0.10471050257118328, -0.30233650237953147, 0.009938339015906402, 0.011250415086903998, -0.22599014383368876, -0.11725328821472088, -0.06798036343770543, 0.02385625287222106, 0.18513110891668283, -0.25472016134621467, -0.07436891154987132, 0.20157257557874983, -0.0009728012086558067, -0.029919383427807058, 0.13257372003094703, -0.0413601743804929, 0.10699198456118014, -0.20256339619538305, -0.02184171267555502, 0.26728141224427615, -0.1709556427921775, -0.05447396278921687, -0.14609968837298176, 0.058170154378543316, 0.23008260604713054, -0.2427067950892935, 0.12892372688702303, -0.2629551336455408, -0.2240975023103204, 0.15861682277334635, -0.04591630489064959, -0.16645047924512163, -0.08218815015637491, 0.308710122361707, 0.024885271100211326, 0.17577691130411757, 0.0696786029970833, -0.25439544290439287, 0.04939276180690098, -0.16674877196753846, -0.12777570860624926, 0.025604154700008444, -0.0111443610885598, 0.16572218746904432, 0.014421504931668046, 0.12540310194731863, 0.2205041370441332, 0.01801160964001507, -0.17686178563320548, -0.15962882744445972, 0.1325769733027048, -0.05792415933808878, -0.03367125549058894, -0.01786275152987366, -0.11193396528393022, 0.030729873619682043, 0.0834595515894311, 0.06610309436980855, 0.14901279437798803, -0.05693688205673951, 0.11202398094085085, -0.04086655850979403, 0.15450303985420022, -0.18814276117216946, 0.05592724012049662, -0.19684289426738089, -0.1505471073460622, -0.17496977908363534, -0.0059452128951224675, -0.00648538588209267, -0.04881987843208783, -0.20982616488257225], [-0.10267677555176222, -0.20566975226151654, 0.07584081309081947, -0.1444585002928084, 0.015998230252385493, -0.06438048135930521, -0.0064440190463120614, -0.2067982493292991, -0.021818335958296763, 0.09062331400834905, -0.1702862312214614, 0.10909118800824323, -0.014114598393735106, -0.05181539749409825, -0.071651554350815, 0.24475820211652552, -0.04099691093991378, 0.09687942515404013, -0.040025129673138024, -0.04143897419121621, -0.06840306167188737, -0.12367264453125613, -0.0730468876392239, 0.06588560425349943, 0.2759315067243148, 0.0577902250417155, -0.12116221230592165, -0.06280719954652828, 0.2193126135443659, -0.08978194502283228, -0.08085451811941863, 0.13558955808943499, -0.03706022997041167, 0.22090264741903406, 0.03011339915618636, 0.07853785515049003, -0.08065426918488802, 0.06787762359867668, -0.04986266242100653, 0.013207196971885122, 0.018698959400800626, 0.081955847422866, -0.18975589010494037, -0.19153774940617796, -0.14810345702131053, 0.05706156344578669, -0.1644643181494499, -0.31408077596054945, -0.0874270398037268, 0.05806076547982135, 0.16860315800335046, 0.01980982148908808, 0.2537597348778336, -0.2927146005512257, -0.1277445205283671, -0.10654239408843733, 0.06551582131987042, 0.04106990499927833, 0.009969453420863408, -0.1226911035410898, 0.1735894075610934, -0.07547959058479888, -0.20455539369154332, -0.18170445731476242, -0.15290601859458156, -0.0707543971899043, -0.07905041505226094, 0.039491278956971576, -0.042376770851733365, -0.09139794048528095, 0.051282111180575546, 0.13655464373323067, 0.022467629993524325, 0.06825368713962703, -0.03133225718667732, -0.048889428205307145, 0.107763359137686, -0.14888388586513593, -0.21586901835172886, -0.07803868467313305, 0.08180238246900949, 0.0849827487126535, -0.10002032292020692, 0.039862157968680825, 0.11329279847398836, -0.00805552149575129, 0.1005136738790275, -0.011797117532079139, 0.14004207067379876, -0.020345365227806445, 0.1918243054040984, -0.14141162883071395, 0.0422218747019401, -0.20744758348095765, 0.17389785259952353, -0.08230071236524258, -0.145969391929833, -0.047832527008528455, -0.054909039933720406, 0.1099347133776267, 0.0628373986586531, -0.1214733916800986, 0.04792637475094176, 0.11925537984233076, -0.026266687243958555, 0.0647341756453758, -0.04649820805108208, 0.17181386948632374, 0.00237812997675323, 0.04933311832596939, 0.33660608834135447, 0.00808736190764593], [-107.17298497564553, -21.8777164762577, -103.66919282727618, -45.10395487314346, -19.459142591557075, -18.64026530171333, -18.847064640991103, -18.339544723497617, -103.88048038272964, -107.17218642058582, -21.42068913760559, -19.11672485588625, -104.12724820291682, -21.620308419951716, -38.73942742974795, -14.599978886979006, -30.8021899141759, -3.728905773153941, -9.03004089282332, -7.036240692169183, -6.859831887654647, -6.773272089443423, -31.314693954242873, -38.67040058513444, -14.638400319798258, -6.826434674180411, -30.815756251514507, -14.660199042720675, -60.735200465603576, 0.07388327760022656, -90.78426772702363, -9.182271472183277, -14.945929784723482, -26.272386062974615, -26.22911736456971, -26.16037333132259, -90.57541456770423, -60.59006811954354, -26.107846548970087, -26.240567007195708, -90.59530428120635, -26.380444091020003, -8.58472277318692, -0.014417406658499464, -35.00387831084434, 0.18034828729551478, -0.07946107163613035, -10.583166119740314, -10.62605327782525, -10.443694245172319, -34.85907970011381, 0.32197785153447883, -10.923596782550996, -10.735894843847355, -34.98495026253523, -10.697552681507299, -109.57362260742897, -98.12592291324742, -1.3178256496703789, -68.0086303572925, -27.87227105813636, 0.29316854362016614, 0.46239811383441154, -0.11274511358731402, -0.8720556236298305, -109.36265540153944, -98.41894362041127, 0.4923758344438977, -1.4481541010897574, -98.59220245611675, -38.90160831974045, -104.21255739881123, -44.92836354459083, -79.67268670260111, -43.795932235300384, -10.236910427257893, -9.341316770789655, -9.560580934056748, -77.06870259846455, -77.07513640975773, -36.84304775918972, -9.572412632952506, -77.46296891635495, -36.7760710235406, 0.010102874758563847, -2.2096884709013462, -0.07378619878133383, -0.09874429965449667, -0.0054667630709376155, 0.022979940411033014, 0.20892726591184524, 0.015127850294555349, -0.05398278666240323, -0.03882189366626042, -2.3675078923800625, 0.08978645949230375, 0.016971525738482218, -2.188067848004754, -81.99233243675923, -24.895584042581326, -79.60644359080534, -24.36484385755459, -14.789066643428004, -10.93612433031859, 