[{"type": "conv", "kernels": [[[-9490248186952.293, -609702851123.1542, -134464169047.47087]], [[-2.2893228956909284, -4.973213779823098, -3.0547956726682077]], [[-11.81126840606517, -0.8704212453664257, -7.316797355812315]], [[-722232146337.8276, -18566131277436.01, -2133438696002.3757]], [[-12.233510865827222, -2.717511917181821, -0.28429002426478045]], [[-1.6268568959282312, -1.6581957767279518, -3236525497.367298]], [[-0.4160633879608324, -9.144489206859705, -2.2952283335654724]], [[-1.7606398555741734, -0.9015478766219307, -0.5474768777097735]]], "biases": [-154710997098.65112, -0.39219416875706303, -13434160708.417341, -380908204665.7584, -0.2786839333430005, -10540391750.039526, -0.03221417676389189, 0.0]}, {"type": "relu"}, {"type": "pool", "pool_size": 2}, {"type": "dense", "activation": "relu", "W": [[0.08661556807228879, -0.035489587810795295, 0.05407921870737759, -0.01165186104007808, -0.2853786663652158, 0.11765843799075626, -0.050978526475915185, -0.16868305379489149, -0.10788070694201718, -0.004939404939665161, -0.007961646938225151, -0.05578688324738484, -0.07146265826334974, 0.08027610582587062, -0.10266266403307425, 0.07082758368898912, 0.23825592493590483, 0.05844134650859434, 0.2987111283736376, 0.1269516313560335, 0.18537677509826656, 0.030578033409700865, 0.036664559650015395, -0.17290303957708011, -0.14666954195376572, -0.2919713180393058, -0.12724650726491035, 0.07379241620463504, 0.0640513630088992, -0.09099133862969731, 0.1559541819093824, -0.30841488976258175, -0.15746279860095733, 0.052368674265027046, -0.1836316073383357, -0.24730299342631085, -0.06589232913930124, -0.0972013576947085, -0.14136459833753232, -0.17208425149079867, 0.02582215055079554, 0.1918120221933607, -0.165946451992965, 0.09595078978973012, 0.003023784495838703, -0.02255986282789601, 0.0720176260729456, -0.052056134114693745, -0.0066990893460356, -0.005554610004643343, -0.031700761253567585, 0.02871555600741089, 0.12452262742934211, 0.01702699980797261, 0.10471928722848203, 0.014539938341676384, -0.10994490671512942, -0.06168956672930319, -0.169192604353378, 0.12092779515659371, -0.03275669542442978, -0.12625943893454006, -0.06695483676270397, -0.16808484497263915, 0.10672098285683511, -0.16924127130665648, 0.009807728214075618, 0.007779590785672898, -0.014913542853687475, 0.1809871321944722, 0.15055568904543082, -0.08692433381525012, 0.07627172172063595, 0.05374232715684173, 0.016163390194436876, 0.16023617112919275, 0.10692206059838838, 0.15743240488645857, 0.03668759159241413, -0.025311546746303384, 0.002083509960887536, 0.015953826079803803, -0.12213935034573152, -0.20578653139021705, -0.014776248105445656, 0.05971041507878738, 0.1776824749072146, 0.07650369549968193, 0.06543613309534942, -0.10890648095874221, -0.12703949109374088, -0.005817204169234133, -0.13022879370424936, 0.03586251690257146, -0.04316980717225254, 0.36997945423629375, 0.1276697228307903, -0.10055316513530158, 0.11252615863467241, -0.043706663048141296, -0.15304447301455745, 0.06150977366258093, 0.3151806434828253, 0.1864046002590881, 0.06026248135194301, 0.02897934552849574, -0.16786089001393303, 0.004759810271470541, -0.0917810118486337, 0.24907474906298568, 0.1078223448640418, -0.10346457839764674], [-29411950293.77152, -26556957347.528515, -153903667.11363053, -497257534124.7599, -2002657196805.5164, -126060394819.40642, -26556957348.037476, 0.06388168201546984, -1798109000.9129558, -26556957347.747593, -1798109000.6519573, -26556957347.463135, 0.1726704072169741, 0.07173334894310356, 0.2029569949212287, 0.07907457433353365, 1.1640289336206124, 1.4800337658534102, 3.572766853983668, 0.10170407034150625, -0.21615038194336622, 0.05939338183847494, 0.005862698614615761, 0.0855830860520303, -0.04633053477282062, -0.26590462510577745, 0.05839701811715099, -0.044905470135221226, 0.3619049259273115, -1924604544.0259876, 1.9884961501013323, 7.777400278495126, 7.456338223522773, 1.1783366769925605, 0.19662007790908867, -1924604543.880274, -0.06395350146859849, -1924604544.2543967, -0.14973922697820746, -1924604544.1409767, -1924604544.0647333, -1924604543.9114738, -27892914996.325523, -540778869.0822126, -115912916667.53242, -410139578482.8506, -1612224384111.854, -5702875959.077342, -22715267839.204388, -540778869.1921226, -22715267839.30909, -540778869.0954704, -22715267839.20301, -540778869.136868, -540778868.7947357, -540778869.0951272, -0.11860728684988034, -0.11713616886684128, -0.02643576579797727, -0.11549370363448568, 7.49365806471401, 0.9497352762659174, 0.36894080288357556, 0.23308118327301194, 0.1466345782756192, -0.13956308929413133, -0.0709894994530569, -0.018824018911248967, 0.20545025878000234, 0.12332362563974732, 0.07079174984080983, -627933819.2305281, -55146957.78568148, -0.1057843648822347, 2.325811647410147, 0.19910770893594723, -0.10113079439043998, -627933819.5413771, -55146957.80369799, -627933819.3525825, -55146958.128985785, -627933819.3613589, -627933819.4978052, -627933819.5461553, 0.19654545963892459, -0.05881687759574557, 0.08235333917188283, 3.3275244109823854, 9.014052246829321, 0.01266717713804881, 0.09754434072030027, 0.12197605443667264, 0.06860920296327257, 0.13352837140031815, -0.30779576044989715, 0.012717047954597736, 0.24511914180225491, 0.13292562307330816, -0.16727071774700075, 0.08538892936101018, 0.009742565028397236, 0.10571012971258574, -0.060258373672683406, -0.012548621774051104, -0.1669368777992498, -0.1552577685299328, 0.1362208618406519, -0.18192051972588946, -0.043285051031247655, 0.03141414138644289, 0.23963261895408106, 0.09122742043455793], [0.19538558939121042, -0.19193824723040184, 0.09773025174216002, 0.20935035424619877, -15.430897925508045, -2.205466166246069, -0.12833366751579822, -0.3497028132123496, -0.24854918084803168, -0.048190353891300816, -0.2130490455821561, 0.09403897239382965, 0.10182413311414464, -0.06474750525562029, -0.18424166687680216, 0.029842629700719783, -4.684323367199379, -6.223181471802177, -14.451284427474704, -0.1166265950060821, -0.10416417342105437, -0.25805059872050906, 0.023902796076899296, -0.045321787819631344, 0.2610424635808041, 0.019089371152108996, -0.15502132232599636, 0.2621929116476084, -0.3930797230206985, -0.5440415797992617, -7.568880397620903, -31.275663355426158, -29.27631937440632, -4.3227732508003145, -1.0142417467018303, -0.8588240531866744, -0.4820270625940547, -0.031047959531487115, 0.021937179542116065, -0.0909145306896856, -0.5853971817451871, -0.35839589238615005, -0.39298845147466355, 0.17132650210331177, -5.1983303308242235, -8.890428261395307, -27.966084843255985, 0.07703631653230589, -0.5023874893777223, -0.5583087819363465, -0.26817304458160485, 0.17311615462043467, 0.01955510165630523, -0.11328294700882062, -0.46250170260118667, 0.14853172836594558, -0.17752246020767848, -0.3996500145792718, 0.004257626425236093, 0.09279931572162993, -31.026159876991937, -4.699328252448751, -0.43500500244592316, -0.24982988592246103, -0.43684869193292436, -0.05106228258680181, -0.1870446716727801, -0.009589634771835713, -0.0021063022454469275, -0.4237706849517522, 0.014457727188852416, -0.04880329151580459, 0.3571715943221452, -0.06081223993327644, -9.484207571826408, -1.5873360008897675, -0.18059478804860146, -0.1859387877615481, -0.3011508311672697, 0.12999888376089655, 0.14885325970437657, -0.04939072409175663, 0.11976989319895306, -0.22791027730898564, -0.41671702774196523, -0.07614596287635796, 0.007658136971873613, -12.941494360480581, -35.79316409185641, 0.26493961300696517, -0.588118646726252, -0.7131404045131183, -0.509284779033447, 0.16008989194985224, -0.06986349453507157, 0.01731676618086234, -0.5821344058218967, 0.07856572733014336, -0.0045290583178565595, 0.5167552109218659, -0.04613137304981543, -0.09715439340657561, -0.17685290127162462, -0.002495309354928271, 0.15731656238874273, -0.11116764399141296, 0.21122413006757526, 0.11472024646017742, 0.126033313651048, -0.0190117793023924, -0.149651816237905, -0.12595087151666395], [0.23099885061729847, -0.1811784626584783, -0.028163097251112514, -0.04431481005973353, -0.03923671177508918, 0.19839497399601458, 0.03361651042484685, -0.016661745384959317, -0.0952375275052928, -0.008898960232767721, -0.15398603931639296, -0.10083649400232904, 0.19296259987297532, -0.17329537941678733, -0.04606499014183655, -0.10583602306784622, 0.05891709233168146, -0.20220559499557428, 0.11152969851781912, 0.15688565603620058, -0.2707319343914104, -0.21141298153691132, -0.16107255580768423, -0.060208874114969, 0.109549575670805, -0.1820039288023042, 0.022923414737273634, -0.3092148054547206, 0.07345423310853288, 0.14128611617783415, -0.06119382888461495, -0.03463869420530154, 0.1016346943532277, -0.1962536283670669, 0.09296321049246598, 0.21017989934389847, -0.19191999801785034, 0.1290162359752735, 0.060729687323921144, 0.1097297976250579, -0.05112154643561842, -0.02490785999274873, 0.17714068010485387, -0.2871877731296424, 0.04857282074217342, 0.020171523971105807, -0.07342227355469108, 0.08816871727623052, 0.24444338125776466, -0.16688999828553483, -0.15023763692512748, 0.05880182592667402, -0.05923647269920005, -0.07189639463583422, 0.234101322355456, -0.26705846440839415, -0.046924963486964996, -0.18917728701145206, -0.09899957611441629, 0.27381278253537883, -0.20951750433236754, -0.0248957957275121, 0.12896729188834635, -0.1517698983228796, -0.1512826237485478, -0.08351427097722464, 0.014761523292141155, -0.017893402334848145, -0.07203398743307565, 0.17139769489931095, -0.08547428577396954, 0.013005614320779946, 0.23021670469238953, -0.04386424285003323, -0.011781703499920247, -0.027774419091336554, -0.052075275309627224, -0.21578999204475377, -0.047132741060532286, -0.267847591938712, -0.05372317076834361, 0.006944829075185847, -0.11685388695704496, -0.04525700601405099, -0.05755637636237281, -0.16799561234498553, -0.04777267011653173, 0.05079782686142034, 0.11596985109775457, -0.05255788802459979, -0.14365916727945865, 0.009366869275144442, 0.09641483378283519, 0.07681626814651074, -0.24857868036393901, 0.006406514739068304, 0.09252450125693146, 0.05921733783071118, -0.1227878172778713, -0.01760645179877858, -0.08786373105333324, 0.33497984830409216, 0.23019997098236625, 0.008164116732529881, -0.0277863290620177, 0.021846150626303292, -0.2081670555592562, -0.047903223163535194, 0.082259902495437, 0.22986247521253825, 0.03468580677142619, -0.03647359484069445], [-227678267.67759472, -205577732.207618, -1191370.094898003, -3849276666.011809, -15502593904.398926, -975835061.2677613, -205577732.38755897, 0.07548385698270678, -13919183.800441746, -205577732.2668951, -13919183.701095812, -205577732.3134203, 0.17637789339968513, 0.11354369751153248, -0.002415890524529505, -0.261253560503696, 0.054550427614326644, 0.06872476455533694, -0.10671855770395541, 0.1894383410017285, -0.05586362000505279, -0.23679954888359092, 0.02066530208767042, 0.18513989509291037, -0.11852868943411803, -0.019773348688798844, -0.1955957921091599, 0.11886019092312446, -0.10097000883663076, -14898387.303200735, 0.09364493834280128, -0.2907154979753439, 0.1107429692498382, -0.06314423743625655, -0.04236490329927368, -14898387.348179098, -0.09101970026176229, -14898387.340762658, -0.09404951216749788, -14898387.26516809, -14898387.448313626, -14898387.227790732, -215919396.92623606, -4186175.680929288, -897283308.4199185, -3174895503.6230917, -12480248716.182503, -44146032.81047139, -175839166.6801836, -4186175.5844407408, -175839166.6446437, -4186175.7359449808, -175839166.5917723, -4186175.7776696375, -4186175.731639005, -4186175.763203469, 0.17334144433486495, -0.11512826482323076, 0.053944888584027906, -0.05824724739240253, -0.17821371208579265, -0.012464602389555235, 0.17942513180475445, -0.062374166094058624, -0.035003654959244276, 0.0837191782027759, 0.12686189969212355, -0.07403873715013347, 0.25791943397568345, 0.3039632019418228, -0.10200446511282764, -4860843.37623501, -426893.283047739, 0.06193224229332498, 0.13697094885478023, 0.1001041808380782, -0.05195077064078635, -4860843.349945099, -426893.32592282275, -4860843.576678686, -426893.3526748166, -4860843.440245744, -4860843.496536925, -4860843.651906773, 0.0958884995265542, 0.25880367726219927, -0.1114215623435953, 0.0814266220189616, -0.026156019512553506, 0.010112200523800826, -0.04930079979212696, 0.06299396139846167, 0.04756098619407222, -0.07774205883442732, -0.031113024521756547, 0.15045228844022265, 0.002373785694852542, -0.012322122236689647, 0.0333929678263911, -0.0867847370171912, 0.027000133909657508, 0.0035637778538035, 0.054853979305475774, -0.16892500770004043, 0.028058531626776424, 0.23167778045659462, 0.05190559033608506, 0.31963225917800764, -0.23814458897065632, -0.1965760634119975, -0.10955016838778654, 0.10776506960298832], [139517679.7777922, 125974817.37025985, 730052.9061508774, 2358776505.482072, 9499746953.099445, 597976455.1102078, 125974817.24683127, -0.19979917890398272, 8529458.103209978, 125974817.2076395, 8529457.968518402, 125974817.44388145, -0.05166241486205189, 0.006369334276022436, -0.0700279657739224, -0.2212584917021908, 0.18904475711222854, 0.1604553734866507, -0.1725947446397802, 0.18946344630513753, -0.08944897751626303, 0.013110862392131032, -0.10054189784536094, 0.29173567835327296, -0.1340804861060027, 0.050846668462000776, -0.276884070720725, -0.1526044832005292, 0.15483550053067532, 9129498.534427281, -0.15298736984093247, 0.009223905919003041, -0.21461820891013456, 0.005150127773049289, 0.04830678617618085, 9129498.540340835, 0.25574197377725133, 9129498.688640803, -0.07510113179952546, 9129498.726489803, 9129498.610197928, 9129498.765572486, 132312027.78605531, 2565223.216462071, 549841170.2989529, 1945526282.403949, 7647701116.909628, 27051998.217974078, 107751489.74328561, 2565223.124341513, 107751489.87753077, 2565222.9064057604, 107751489.74804969, 2565223.264063286, 2565222.9560976825, 2565222.850817369, -0.022251728930661588, -0.09927889580300188, 0.08168136319470164, 0.06293292373629994, -0.09465056005419785, 0.0672158614129196, -0.13994070270353162, 0.06553056804196301, -0.28690920017433863, -0.1814873206348949, 0.22585628266360555, -0.11991381002433989, 0.07027475500754393, -0.05159972432800051, 0.06735792099062228, 2978648.9874900677, 261593.5797650806, 0.09720339050404399, 0.031139113384022133, 0.12206218076980085, 0.11432550781538844, 2978648.829047053, 261593.54750027164, 2978648.7643174767, 261593.3335953829, 2978648.6650921195, 2978648.712017752, 2978648.6815025527, -0.0889031407578779, 0.08352252236573808, 0.18649577596560837, -0.13974427479553156, -0.03836320094301816, -0.009919739570551811, 0.0020894777425037136, 0.0025700259610565265, -0.10695578112191717, 0.15975692058075427, 0.12254563948749309, -0.05531838273087937, 0.16299388033639725, -0.08796850853703966, 0.12379105427723192, 0.2772217936141597, -0.24299104007591074, 0.2273524260226285, 0.19775179493023337, -0.2158374806914315, -0.1562592780903644, 0.3886564053663644, 0.0302979221328386, -0.09720783131440588, -0.24085927239268845, -0.16050260246949513, 0.21077087185516488, -0.24288427735952123], [-0.01897635023121814, 0.004757881349107637, -0.14233078459870033, -0.046012829944876966, -0.1564570656333485, 0.006410975587184551, -0.10860452013336898, 0.19974196254915408, -1.1022424502575905e-05, 0.163313910964847, -0.05697447404858652, -0.11082748123534222, -0.03933499063245441, -0.17145575417773776, -0.04797293753646961, 0.17513953457628242, -0.07897782287606725, 0.06351153995568128, -0.22476504631313476, 0.003830114543358117, -0.038294178518579323, -0.09430644192395524, -0.08095625188912531, 0.036921897603925384, -0.17411849749254055, -0.03350269048243253, -0.03960564214747287, 0.053107109627776, 0.08383342846020267, 0.13368577025007322, 0.003856835651523166, -0.04839464256647014, 0.04469840382694637, -0.10098316457325386, -0.055362730525955826, -0.08679096509859167, 0.08506899313049729, -0.05474313440091231, 0.14335906594159237, -0.06293591256772825, 0.18517506739067444, -0.23435876107679093, -0.10992267316459031, -0.01868026597300263, 0.09082913670203555, 0.22927142513497234, 0.03311238045440702, -0.03890096801359875, 0.19563558603368975, 0.09638724735635998, 0.06664817245034763, 0.025313960753387967, -0.0001613715546460678, 0.11874287499157618, 0.0308425029763599, 0.04191684985873915, 0.16832404016474053, -0.09788829446126808, -0.13614661742543926, 0.29780294143957453, -0.03349280200515757, 0.0026409447628894084, -0.05090871187244575, -0.26718254732960794, -0.08225018635091456, 0.03656100055234339, 0.11531807641313674, -0.13552716135020085, 0.10082035646269488, 0.0855514213690903, 0.005302258389303304, -0.10563948560980264, 0.017594785948485715, 0.13210043645276645, -0.07649522043361748, 0.02411819180713606, -0.005607082161564969, 0.13214954665612158, 0.03984445547521472, -0.2315882119969769, 0.07704150091664785, -0.014953179826416942, 0.013475674525568058, -0.05791552043623543, 0.09325678333894043, -0.055726756220408666, -0.1069228784905895, 0.08045738675001535, -0.04644119979264967, 0.09294878619943545, 0.2536233947704629, 0.015997462404410037, -0.043081697796883284, -0.1678625510713905, -0.09115310904686566, -0.15825933828545452, -0.19416125222053102, 0.08070861755442706, -0.12725989893477446, 0.16273622127764578, -0.0223028830636233, -0.07113499312472225, 0.2459310117305407, -0.004515123500318039, 0.09816525806721625, -0.10806569463008298, -0.06616642225586375, 0.12149394780890803, -0.22445431933390006, -0.011688544983020613, 0.16048316650129876, -0.11828515855419663], [-0.05900233001550008, 0.004219685189706086, 0.05390985154278635, 0.09465807772969949, 0.0913523926284176, 0.04167963416491887, -0.03551401439877598, -0.042065057272284045, -0.2650131018167305, -0.11614289876203189, -0.04950101851771362, 0.22439510908045263, 0.07842582049185659, -0.10596378800396812, -0.020156054190769383, -0.09105839659233515, 0.00853654203444672, -0.2098204569315625, -0.08840920345030093, -0.2827549147737783, 0.030920763017269016, -0.0902226026220231, -0.007692148964654964, 0.09032413105750955, 0.12138826476640942, 0.17748671249800063, -0.056800980749535046, -0.07291438143089177, 0.09254292470035169, -0.04400276713175124, -0.02700576535347664, -0.04354729808863062, -0.05355833932651046, 0.22099812552426004, -0.1534569234259774, 0.08079277736493906, 0.017107694830514022, 0.08333651411544239, -0.2951281450042924, 0.06855043427759443, 0.20752795543114508, 0.06511228399617806, 0.1881948882160332, 0.0241655462712333, -0.12778208139974317, -0.20492318159757536, -0.10467384874577401, 0.016259853993514786, 0.13720019574381728, -0.13623175574163893, -0.36401571927940757, -0.06420963198096057, -0.03365305143807438, 0.05291795286739087, -0.0810281545814544, 0.045718930863785916, 0.25515454663675363, 0.07042778312730223, -0.06666008211571635, 0.06977131586799434, -0.15297039475433644, -0.0719525926589603, -0.22650517067183584, 0.006510508295864476, -0.12889401649695767, -0.12879078701922264, -0.03478717449870636, 0.03702986245206057, -0.20251247563320274, 0.25287827269597685, -0.10241539858014896, -0.21902224748559043, -0.3250754914355907, 0.010604858464558825, 0.02871669246042341, 0.13693410708497047, -0.19849370967737995, -0.08862224834553496, 0.19837916307858552, 0.050850673679691136, 0.04718648220048564, 0.13819255324224053, -0.033496505184930185, 0.02412556628212529, -0.17526566449244826, 0.23473005679807152, -0.13141152442803258, 0.1606614868783329, -0.12867272619903627, -0.02578213785666839, -0.17871967457148025, -0.016296986066132457, -0.0022591112650070617, -0.07634861661973039, -0.07412615390591745, -0.28155488169735327, 0.14252524067343256, 0.006663842648284053, -0.03566042481593971, -0.06055482928706683, 0.18687459994798886, -0.10563465046219354, -0.009182201265954367, 0.062418441654790775, -0.16436827427257983, 0.015493440547096967, 0.08701530250154854, 0.013879900157381185, 0.045958519202864125, -0.013267993195976317, 0.1559893766550695, 0.07509767979563299], [0.16646853491046806, -0.22435156745653603, 0.23338772658257947, 0.05493052296147917, -0.03714349584499746, -0.009427586573245892, 0.07546824977116967, -0.12452960175190633, -0.009939190329856596, 0.11172692891584249, 0.09658979316721646, 0.07836540928490093, -0.09897119430529565, -0.00309299365566877, 0.025199334786656785, 0.09486746150459538, 0.09600433435322692, -0.08608551658810289, 0.1322026376517748, -0.035866626937232374, 0.08366500970255535, -0.02950414992779329, -0.05500975535122731, -0.14634827022207073, -0.13862308027566542, 0.1158071906149814, 0.1806925204211342, -0.15273091009615788, 0.07426873532188663, 0.038312295615637405, 0.21871259803537865, 0.003738154773517806, -0.10477263554187326, -0.19790396918352324, -0.14683884284177603, 0.05459498062729564, 0.06725678438815909, -0.12149227805890674, 0.06025514903228862, -0.4287853299311152, 0.14308808289001304, -0.18072157843108602, -0.13189892894215377, -0.002447604668620581, -0.2917495427251393, -0.0851126657566776, -0.029901853666505197, 0.06662817329661218, -0.0158345920565141, -0.2232186486391064, 0.06109839082102621, 0.49839353847656653, -0.07269145477189334, 0.1036456658496453, -0.16495550704183784, -0.028983835289255484, -0.048137469989861695, -0.12342357839237543, -0.17726252551976615, 0.12199823897332628, 0.10996732825756585, 0.07049425872225029, -0.03774254428373082, -0.017932067882994073, 0.2881455549211593, 0.1225605184499745, 0.04395493977967418, -0.046488343999190246, -0.007779656052352256, -0.2073432228963974, -0.09358760210781858, -0.11876013889707278, -0.1622530874060115, -0.03579998000799909, 0.11011540700258324, 0.053650258376255464, 0.03472434389626588, 0.060675211133291766, 0.31105578173319265, -0.08901521988161691, -0.018784406805267308, 0.16153704524546897, -0.062012271304771875, 0.26095006326991416, -0.06367488985210581, -0.03853735899732865, 0.42276163373065934, 0.07177881129612489, -0.14335378041894647, 0.19262707331389872, 0.047411413576265216, -0.2878934335731289, 0.12127065750321096, -0.21244276735274845, 0.17478654317528072, 0.00530858518693543, 0.0508789041392786, -0.04458805916658521, 0.2233466596238987, -0.12194207495248037, -0.17351316991533122, -0.06737311947117694, 0.004011152203035094, -0.16287012722408403, 0.012920682487225391, 0.046751785226901016, 0.19293507744783123, 0.19265886369105809, 0.07392046804929708, -0.16901764994001747, 0.032016778839002565, 0.05216962712638414], [-0.2385950073673644, -0.2022067441236964, -0.036584041282583184, 0.20892775487990944, -0.08471008376193846, -0.014838113095086466, 0.009515533751573784, -0.06855232341233689, 0.07408949695913479, -0.030425882582887278, 0.1810825712066931, -0.042174161451801244, -0.04506269327361559, -0.11610958184027946, -0.19468416385393655, 0.17437481204969377, -0.046655037659843884, -0.06506523759260215, -0.26244990790005335, 0.20894979971315655, 0.03037961070975509, 0.00662326026963195, 0.07721336237837415, -0.19066165711310934, -0.13905002843658407, 0.05420337072927832, 0.13533191443304682, 0.08741352639712535, -0.2041791127862642, 0.18513342545736525, -0.09987338408265033, -0.14906781531843874, -0.07494694544549917, 0.19744597041257755, -0.10741507440297765, 0.10094365430686136, 0.035604743761461895, 0.0354008024366241, 0.11433836642700179, -0.1421422112780985, 0.017420298084761227, 0.031113572833236094, 0.07846785560625967, -0.06918772495359958, 0.0072173020092266196, -0.16132886711580882, 0.0596031602665007, -0.02035984646008775, 0.01243260157435156, -0.0169176091563473, -0.16781570177485736, -0.09792260108964848, -0.04714796574846835, 0.09960912050770951, 0.22188690679048773, -0.11045690920801232, -0.28793551649659765, 0.03052544234428842, 0.27298859304800416, 0.026229125378349146, -0.2550908465808049, -0.2808505300640908, -0.05149139913906246, 0.05212395500493969, -0.06632347649473784, 0.10935745715364509, -0.022154946957300428, 0.12261708068673664, -0.035681401745347806, -0.163730382316308, 0.0716067457138208, -0.006580183956448051, 0.10560575072983602, 0.10856742710116195, 0.13995846412908142, -0.14428557627039487, -0.030835004462631117, 0.0466011133782135, 0.10512281165946992, -0.08380215802731844, -0.05604555502535937, 0.004070054646057351, -0.23083003926730764, 0.021779915727940254, 0.07361218294910042, -0.06609557128235909, -0.012939269189859685, 0.12743698153857272, -0.15051740498665497, 0.12474262792466535, -0.03844768670593585, 0.005498321810315864, -0.15217443827530208, 0.10816990559503564, 0.016893234644907752, -0.13443696949400238, -0.06039644768219639, 0.0698398097244449, -0.27032462601594465, -0.17584275969653193, -0.27163795721997885, -0.29899326199471, -0.05118352019987956, -0.10169912950735917, -0.18723792255118407, -0.07560603572980736, -0.0170501523062233, 0.21415986822642546, 0.10446744130298662, -0.1164114633641964, 0.2802818297980083, 0.03053527932689588], [-0.2801354037474682, -0.3855319786032493, -0.17048174963324036, -0.17449849077758683, -0.06986860088207204, 0.09959283771374203, -0.10815820337586501, 0.13273186233672996, -0.04291363228737824, -0.024589147952286568, 0.13364393505823807, -0.06045447204654744, 0.0942191836738374, -0.021847922268643016, -0.09533739296639755, -0.09640974517111303, 0.07463706289852656, -0.0801381677941279, -0.028896721156334824, 0.02335745128164016, -0.024696390772965485, -0.04758505526208987, 0.0031826728314882217, 0.039448343135771405, -0.10401587420036736, -0.06723804623675468, -0.09408984388809473, 0.20888196111282079, -0.07708958997597341, -0.11242900151905509, 0.050014224091574785, 0.04348227361870784, 0.048562491557391604, -0.31716508463002346, 0.18577356677782692, 0.015168555484799437, -0.26167809853705043, 0.16734358350184217, -0.03706895849212622, 0.17468461908128907, -0.01432266346906485, -0.1229516976350162, -0.02475904791462883, 0.005928505499496087, -0.04970951136966731, -0.3116636049894196, -0.032535171921609304, 0.23340757850953991, 0.1551275314101637, 0.09393362405398764, 0.032391110279913635, 0.028354705425007756, -0.16630334114597456, 0.10265207041916134, 0.0349636358069414, -0.16750298942844583, 0.3457145783145407, 0.03396165650087369, 0.019438194432291462, 0.03356317460774177, -0.0063931326725156015, 0.05480311264357418, 0.1453833791056124, -0.045180413112392535, -0.011373434982317845, 0.014514114179451492, -0.0945589720360214, -0.024219264121655135, -0.11593518339901046, 0.19098640589647048, -0.17809927416488291, 0.0065777387169686586, -0.047817961833996156, -0.16932011125931434, -0.18052071816493084, -0.20223073876918177, -0.12575664593722255, 0.16324097391470752, -0.2513563481739351, -0.18929023220043328, 0.11025327401772339, -0.09597440378390196, -0.06824608603006195, -0.14909060842821686, -0.052252937875233114, 0.06319672291332037, 0.034483016194775507, -0.19263468629547736, 0.08022473972018276, -0.03998128237729814, -0.07504281974510933, -0.08455098603829635, -0.21176555367049038, 0.004521185687429089, 0.0948749131810283, 0.17323859763799557, -0.1015157673954884, -0.010106729135800909, 0.048137794529443105, -0.04997427585586728, -0.037518371320987565, -0.1318630102708241, -0.015608758504914576, 0.07990633748980304, -0.13254527546405637, 0.1586997917116172, 0.08319327013994489, -0.019332951897648193, 0.11049363517022269, -0.16968471293698692, 0.001130118098002653, 0.10445194805564548], [-296038717.5921744, -267302491.6252373, -1549079.1694795387, -5005022832.7885275, -20157251139.074738, -1268829753.21438, -267302491.66307765, -0.10424514852292353, -18098422.050484877, -267302491.63552907, -18098421.71796811, -267302491.68792748, 0.24433985831638644, -0.03345828638959548, 0.2535647749722449, -0.061568682533099925, 0.02524193738681697, -0.01396127301860766, -0.04170626386621479, -0.10029393930512227, 0.1595188368793658, 0.1452976128236498, 0.15382905992577015, -0.13738628062703906, -0.037777588760740104, -0.0070066081843639105, -0.0020333031175354785, 0.018930976378711457, 0.20420615898596492, -19371631.526424564, -0.028945314232623375, 0.09621189693312444, -0.011836381662362064, -0.06241455494167045, 0.011020030243204092, -19371631.36973135, -0.14200179887777697, -19371631.34545888, -0.1137884588527676, -19371631.61934389, -19371631.44803447, -19371631.44902225, -280749243.1876641, -5443076.123503026, -1166692819.5098872, -4128158578.001134, -16227446142.659243, -57400888.604694985, -228634915.0620661, -5443076.040390066, -228634915.35289663, -5443076.2744242605, -228634915.42282954, -5443075.968544885, -5443076.011856946, -5443076.118390431, -0.0364779740545028, -0.18905427898932603, -0.0005919049438302254, 0.17155009528255352, -0.2985296239649262, -0.09768049170305618, 0.06978990149715032, -0.11869324024184096, 0.12993264853215963, -0.05531844788561681, -0.24010964512329577, 0.05138224011432502, 0.09150532294478511, -0.0007446311979144315, -0.06671706298560377, -6320312.789594564, -555068.2906617972, -0.2212454415308362, 0.18069434915855498, -0.03814318235907797, 0.04107902303669918, -6320312.817662905, -555068.052785481, -6320312.879062924, -555068.1080813669, -6320313.06496961, -6320312.873301088, -6320312.844278752, -0.11845511116795199, 0.047675772762511316, 0.09014260784876124, -0.2612809023146671, 0.130987117400928, -0.24243891565562387, -0.0835336267831897, -0.16269293515449523, -0.14357007562602522, 0.013780170396805432, -0.10694668670385217, 0.06866886635076735, 0.09109817868597755, -0.08949356312546801, -0.01640426086045952, -0.023332209202048204, 0.02326567906096382, 0.009625308212144546, -0.05406226858152132, -0.058311647928180624, 0.19060558513945372, 0.03665853831491126, 0.0697896550637762, 0.07496437160136218, -0.00541457096963263, -0.17687263332197012, 0.15301519417317136, 0.007221892841289984], [-0.16541349782402281, -0.020941882948647406, 0.09471930479510736, -0.1635018619805452, -8.142394524982837, -1.1003386509115198, 0.04432912004708465, -0.14801344101669148, -0.3289088324209063, 0.02835184198213763, 0.34055249322001513, 0.20929692509003786, 0.21594140255834032, -0.08794998559435208, -0.12232179489950559, -0.34136425155200195, -2.3958526371369255, -3.343845230952874, -7.35504926630801, 0.02132660742691636, 0.14928294710421341, -0.12492768446130151, -0.2834627277175774, -0.03308747963972393, -0.030139631734258644, -0.18049358122516093, 0.19570519828235355, -0.2086950221444017, -0.37093104215666917, -0.03723889378574921, -4.131791650803808, -16.726739261036574, -15.651115964522264, -2.402315085327641, -0.5887453467227728, -0.6565826363741722, -0.1275493939060351, -0.031247824483155325, 0.10044315675919166, 0.04514956292403611, -0.12587142102942495, -0.10430300385208396, -0.31776639577507426, 0.11581501064407991, -2.9333267116089017, -4.6432266993851785, -15.01722874487713, -0.06129931923989158, 0.16456069434703396, -0.19277928305303452, -0.25708129694197623, -0.011347038526382703, 0.08382335709584171, -0.00948652419997364, -0.1842561327888102, -0.253313509879021, 0.11184036241659805, -0.4017160096764552, -0.04923034890891354, 0.003289772433996957, -16.433717444022495, -2.311779536363695, -0.2241432108030023, -0.4333718540801228, -0.3432251256651208, 0.02743672822448498, -0.2885483291457333, 0.16519291855592147, 0.14699882938047112, -0.4163170739104488, 0.09037140577049878, -0.08761227640063761, 0.10528497764602786, 0.2150740252369005, -4.895951013667926, -0.813612771355681, -0.2901988778545226, 0.13099298534552783, -0.27033321424606777, -0.06974329892265689, 0.05245509256927188, 0.13325916857610662, -0.04633077701619503, 0.04363091265762972, -0.46583764871258615, -0.0736325239233194, -0.118316846756138, -7.160440864626312, -18.63290489998655, -0.03141527827581349, -0.3099841038551817, -0.06496633179545855, -0.440597767643832, -0.018037796469446313, 0.1889871780491018, 0.17165525873391924, -0.24918802042728372, 0.13763385422760935, 0.04222460275437273, 0.06139586671710885, -0.19704776410407498, 0.26821996691436206, 0.0943694714511949, -0.1372349285834681, 0.1263812005674337, -0.09250364605584614, -0.10507035183003792, 0.07707164470288283, 0.0048354677240009325, 0.14247537887420797, 0.07152428263813719, 0.04815273860179497], [-38166122023.16975, -34461369088.76058, -199711548.30792397, -645261247034.1497, -2598728006139.6426, -163581005778.1751, -34461369088.8978, 0.09898961614002397, -2333298092.8117423, -34461369088.87049, -2333298093.0391464, -34461369088.772026, 0.020810842425562994, -0.11061972097836345, 0.15825197380359413, -0.12465735388694608, 0.8729788165195931, 1.009292463809237, 2.6247066381316904, 0.06308941040510398, 0.24283062123132643, 0.10014397712989785, 0.14465223522574233, 0.15972718817839002, 0.18515733739615306, 0.02568225954833693, 0.019932207714325943, 0.05814084931567465, 0.004124400472613067, -2497443764.78518, 1.1589164650537418, 5.126750438534666, 4.740706274716319, 0.8363347747205915, -0.19826767383500196, -2497443764.7102942, 0.1365253451222883, -2497443765.040892, -0.09012325634055766, -2497443765.102095, -2497443764.7988367, -2497443764.821426, -36194961119.34689, -701736270.5370369, -150413232628.5899, -532213506500.9004, -2092086786426.0537, -7400279735.190975, -29476239265.816986, -701736270.3176233, -29476239266.00264, -701736270.4910917, -29476239265.999523, -701736270.5200374, -701736270.3267395, -701736270.819692, 0.08656541759574694, -0.1383869731658801, 0.11452025508539859, -0.0006323362729680071, 5.353572365022922, 0.7276098130944821, -0.09807242397982072, 0.07687829923641872, 0.14700214389890673, -0.26115133596217177, 0.1254280133670349, -0.21512491687651292, -0.11831686844740656, 0.04547443606308097, -0.13988496224236235, -814832016.7785105, -71560896.3642593, 0.14053710395242816, 1.5086765924802257, 0.3461301771417734, -0.06712756802781165, -814832016.6954087, -71560895.85923396, -814832017.0161619, -71560896.59442915, -814832016.7665918, -814832017.0372016, -814832016.6595497, -0.13920649207289243, 0.08301258328655642, -0.1218721837980945, 2.0841471504071083, 5.991624284369079, 0.01791620602506236, 0.0476514113966411, 0.1312482041258333, 0.11252102773956257, 0.0782611287761833, 0.18135963371715239, 0.046559136731078414, 0.29863456505462194, -0.21737134855731569, 0.05766877428040822, -0.06404732400077431, -0.07858629582376585, -0.19439607071046694, -0.08433627036671483, -0.2806037434258044, -0.020960228474097994, 0.07759133257508916, -0.18128811670972242, -0.0007172018685388036, 0.09227671975069063, 0.12076642955138789, 0.03749841790153344, 0.2985814402822866], [0.11264113309580177, 0.2743690436296522, -0.05067187612075953, -0.003344943806082462, -2.064553181570401, -0.44245667026888863, -0.26320190191541193, 0.10235430728914442, -0.03318085357802471, -0.06202033889967731, -0.053550729491440234, 0.07258403420739173, 0.11198677992366167, -0.17632111193727554, -0.03341145215026659, -0.08760322768755115, -0.5359722276435698, -0.9286720589223746, -2.0591238932968197, 0.22627880290146055, 0.09509423840448679, -0.11891523659054083, 0.003860963634556642, 0.016092793114451404, 0.09487349664706503, 0.052019533484909904, -0.2925910280328522, 0.16465973615707674, -0.09404182093676458, -0.09676482898899016, -1.1756514319081104, -4.013645304747326, -3.9748671616051245, -0.4992867116199162, 0.054894733323033906, 0.01972505984723169, -0.15595949819257265, -0.18348538402590484, 0.08001878762501775, -0.14154324114239536, -0.1396864952101184, -0.01019505313882952, 0.12441865983822648, -0.13458066312891745, -0.7200251680487849, -1.4061004402171298, -3.5884285742019317, -0.02476451664488199, -0.27537636953038186, 0.0043618092584530865, -0.01232408553308844, -0.06439911103054652, -0.06145971139701059, 0.13186474319835173, -0.171441532950312, -0.1878968947261722, -0.22497725359712764, -0.11961821603977359, 0.14287362861821365, -0.16824459894646066, -4.192568557089484, -0.5375879768203052, -0.016821028331125722, -0.13021001936633317, -0.13427283498314352, -0.12655634460560308, 0.12722978679788385, 0.24608374348559134, 0.11840257264663245, -0.20480829680907253, -0.09310953801503723, 0.023349722601851974, -0.1621764420826874, 0.039885188108216126, -1.4640064861230475, -0.10471350961269324, 0.02550860721873539, 0.009092973556098779, -0.10893557758950245, -0.0913125282631916, -0.17086600863486565, 0.029840390467858368, -0.015850961592449846, 0.009688982262513308, 0.09898241175844275, 0.05484036642142148, -0.2973456541768299, -1.822346577415944, -5.002004296421876, 0.18866896175848633, -0.13699759290051636, 0.09119846642524204, 0.06051519881329226, 0.13433615027883775, -0.23314465388910977, -0.061856875013803714, -0.04598415769044242, -0.06682345416455265, -0.1246497561969267, -0.02981699635396916, -0.09423599945122488, -0.1779632422143649, 0.08891347505987135, 0.5267994273424313, 0.06472953367972595, -0.04867439237669936, -0.056634730902621395, 0.1802412154920154, -0.04858106034667184, -0.0720242526816949, 0.0916454542968485, 0.010714279825184525], [-25211510421.523754, -22764250593.503975, -131924060.123725, -426242169543.43835, -1716649602747.9397, -108057198722.77237, -22764250593.507973, 0.20872810265116584, -1541313763.780726, -22764250593.80624, -1541313763.8430295, -22764250593.70488, 0.0773285188550484, 0.08110229051390078, -0.07948059048959123, 0.03543093045558482, 0.6256177056020369, 0.8108485362935012, 1.8253798696373977, -0.02358670899781659, 0.027310907755530384, 0.3730270607347779, -0.061350429165808115, -0.07332274723297127, -0.24709711719031488, 0.28376753502979934, -0.0025991788389724754, 0.048861728945339425, 0.2790982658859712, -1649743965.9100213, 1.2799098436566863, 4.234024110468458, 3.5443374690299168, 0.3733526347172965, -0.09388250367169537, -1649743965.9178872, 0.19197441050678102, -1649743965.8056965, -0.11336205676677474, -1649743965.7731638, -1649743966.0814686, -1649743965.742338, -23909414713.67438, -463548046.21951616, -99358923069.18163, -351565882367.5978, -1381976083047.478, -4888425121.074598, -19471208340.01752, -463548046.3360409, -19471208340.051334, -463548046.22328484, -19471208339.82977, -463548046.1746137, -463548045.9269521, -463548046.18011105, 0.15119855059579174, 0.11279399367233131, 0.028485365619693594, 0.03115990407024388, 4.007603208317509, 0.723505400397318, 0.031490073002822395, 0.1815818803695023, 0.15593508798404598, -0.10756311814862651, 0.035373766985108385, 0.076226382030068, 0.11512106543901912, 0.19129275880355828, -0.11254235947376118, -538256044.5533074, -47271197.09527043, 0.09325545731626984, 1.3785242053033369, 0.38907918791364704, -0.0585707068976286, -538256044.7795787, -47271197.21313862, -538256044.6794833, -47271197.2137351, -538256044.6517543, -538256044.5157541, -538256044.8462521, 0.18364919207158015, -0.06778606299294797, -0.1334685750235556, 1.7015206636234095, 4.7185806915115664, -0.05235235854238964, 0.08235400227404271, 0.174212653797718, 0.02077959078735092, 0.015301731909012326, -0.029062577304026862, -0.052728678186240885, 0.06886577383510556, 0.1173730359692327, 0.14731915157954564, 0.11824013144148074, -0.17314580797773735, 0.08257160707281351, -0.06358914389613654, -0.07972010223860912, -0.0575288699575226, 0.026189288709368, -0.13239690341982271, -0.02350770706946146, 0.053500831205774146, 0.02108959030833505, -0.11274207363642633, -0.01178520300368694], [-24985524295.958622, -22560200748.70622, -130741544.6486101, -422421501331.22504, -1701262226655.3647, -107088616227.05519, -22560200748.637722, 0.19408626577258173, -1527498029.6660397, -22560200748.65655, -1527498029.7547581, -22560200748.49201, 0.07240964531311606, -0.19165573638756883, -0.0035574615570042253, -0.14905797057829312, 0.9901430659223844, 1.2597413925648533, 2.7691056039195026, 0.16161910864804357, -0.020747589363102954, 0.02898433042339791, -0.012527603036837885, -0.09993979715751741, -0.0009783445563590677, -0.018981469629855367, 0.04192673777345476, 0.16124144754457306, 0.04624432281214649, -1634956305.6687264, 1.4419139723219583, 6.301256514358745, 5.924763979108025, 0.711676011083976, 0.028265773023867347, -1634956305.4906442, 0.04387541076298047, -1634956305.6834986, 0.04654643663649748, -1634956305.8997717, -1634956305.7643464, -1634956305.3583972, -23695100065.27193, -459392982.7607576, -98468308516.41422, -348414583205.59265, -1369588589578.596, -4844607188.675624, -19296676038.539616, -459392982.6391774, -19296676038.52124, -459392982.8221937, -19296676038.79413, -459392982.9566725, -459392982.8756717, -459392982.79918617, 0.2653874475213339, 0.1329286070424997, 0.016725901997682265, 0.07199114158206481, 6.200324530832143, 1.046645217800492, -0.05063241362058468, -0.029059872354247576, -0.000469492099450769, 0.2907893249576539, -0.10405485489510148, -0.15879635811274323, 0.039436202033998446, 0.05876914775110009, -0.0001052852830707925, -533431327.75079566, -46847476.63333908, -0.1702940384092422, 1.9773095342963378, 0.2429924458288032, 0.16167682527179936, -533431327.7408158, -46847476.630976595, -533431327.894486, -46847476.66379535, -533431327.99930274, -533431327.988123, -533431327.73205066, -0.013407079486580459, -0.18582506392962836, -0.07562808877826888, 2.725860905690613, 7.270714795052598, -0.07640545570031816, 0.043245753496167924, 0.3715159019638331, -0.03919017281500195, -0.14192694278746426, 0.15556067652671055, 0.05714848377998861, -0.14766882589716904, 0.12323777825005003, -0.10125137177365531, -0.19199394142928988, -0.013094179117911827, -0.15613005943117866, 0.14833749460893444, -0.3052873848329969, 0.27487918330005673, -0.10412513873820832, 0.014318508370949603, 0.04033979202473389, 0.15390898712276035, -0.015749501076824362, -0.1791812776004657, 0.06684746895856905], [-0.348525492866032, -0.10860189369003422, 0.038320816233994, 0.034199249110351854, 0.0031954581098456317, 0.2668952998564654, 0.051917919350877466, 0.04320752833724648, 0.009399504163413707, 0.017262442235515558, -0.16251411620416945, -0.037082473485198025, 0.14857790473300792, -0.16074452378911647, 0.09132772233187007, -0.15619169799219965, -0.18942124393641704, -0.12269088407268877, -0.00975214323490619, 0.055366591234286285, 0.08743132399819653, 0.031081024424743836, 0.1551211939916714, -0.0984683507826073, -0.2319192766809753, -0.021450857444381508, 0.047487275186340924, 0.09417299762068874, -0.06975795640478212, 0.025626494075389472, -0.007401986937836027, 0.18502716965168733, 0.0712528859861258, -0.018442522096082267, -0.022624979852508453, 0.029765062173636413, -0.03734834274293541, -0.1483783773959499, -0.198549027986937, -0.019965164961693507, 0.06725869870222174, -0.1301275191201092, 0.2293783063346821, -0.06170305348370231, -0.0922890323533542, -0.10821252430535712, -0.31276046405127694, 0.12554415165830227, 0.2285521301310463, 0.26168903552207273, -0.012046941661222993, -0.07154990485936075, 0.037492628167262065, -0.08410312060954796, -0.19225026643155657, -0.12049573373670579, 0.0015313480536931106, 0.004399235162201272, -0.17231043696842885, -0.1036564457436833, -0.07521391308963028, 0.16871940883907152, 0.12072636237933856, 0.11954141268736596, 0.1847593676933987, 0.098865893012305, 0.007901451284366345, -0.146506452359981, -0.1824982044122267, 0.24682539007301482, 0.008854017403062263, 0.07340712209716943, 0.00701242039830414, 0.05208897698074565, -0.0072184348284006425, 0.04851925485166195, -0.1324871000728462, 0.01653954144001328, -0.014174659652607858, -0.06061638570007592, 0.04281691647860821, -0.0023182019885017034, -0.027115495322159577, -0.1282798242370805, -0.3015674931227823, 0.062456899876513323, 0.08374608448662199, -0.22136274330759131, -0.20860123259022678, -0.17515361423605982, 0.29445895462633287, 0.05402306980062485, -0.20106824764391001, -0.22791308265331495, 0.0036686933153631278, 0.2728324665694882, -0.02401632894955398, -0.06279973752980572, -0.21259697079969275, -0.05069948501495677, 0.206201950859088, -0.05841417360898477, -0.004104903351703492, -0.11253448879898856, -0.04364595819243047, 0.07459938865095007, 0.18731108718226955, 0.05692637404402109, 0.029950303313841218, -0.15445943743507276, 0.09499535654737266, -0.053565989959836316], [70612288.26964954, 63758013.600080974, 369492.1319970749, 1193817203.356455, 4807984696.395563, 302646129.59552145, 63758013.38407109, 0.18352490393003526, 4316904.861586389, 63758013.39407799, 4316904.771488449, 63758013.27969458, 0.3361859283070623, -0.043038591588446876, -0.26509794632727685, 0.02631053713810691, 0.01600117133882098, 0.0642921621185903, -0.10689843188146175, 0.034885873959204214, 0.18144290797148693, -0.112380211664538, -0.1301646323205006, -0.12871353078620254, 0.10263358972571529, -0.02713577709232503, -0.20158869719081365, -0.008670116544659162, -0.09032617878836907, 4620595.584852417, 0.1211896959404081, 0.06223352022037026, 0.12104909232811766, -0.06196153716358389, -0.08653397144611669, 4620595.9156240085, 0.098735885445962, 4620595.868355748, -0.06489183062673462, 4620595.791579298, 4620595.759623637, 4620595.459589736, 66965384.023585476, 1298303.1569478686, 278284037.27424526, 984664184.9379274, 3870632566.5260816, 13691479.648758814, 54534875.040862404, 1298303.4016525801, 54534875.04177714, 1298303.1827022505, 54534875.06809657, 1298303.291761473, 1298303.3895460728, 1298303.4244683946, 0.16110134554125718, -0.11520332407185858, 0.11782011788418732, 0.055568238300469926, -0.005655259439630157, 0.01723039206296184, 0.00030358195124277913, 0.059616399648474, -0.06735483971891904, 0.009217484189057096, -0.12286155735805881, 0.029351544749483576, -0.01398583438493479, -0.1800245463164926, -0.2958989457802, 1507545.2691967099, 132397.16121913583, -0.026321520752220075, -0.10920563171868197, -0.0768630987777117, 0.036221778315618985, 1507545.2540425295, 132397.00282872622, 1507545.3779895534, 132396.9471176272, 1507545.2521795656, 1507545.427316911, 1507545.1507729616, -0.002779094931241969, -0.07526188464561849, 0.04353035924857309, -0.06289887647456328, -0.2636680289417282, -0.0632101829886681, 0.09294221641643775, -0.16879234051778536, 0.007487043533609882, -0.013863751416722567, 0.19314716140508917, 0.12426921446386668, -0.13853372130472516, 0.12145019811538597, 0.1305747786980325, 0.12016333115247191, -0.05142730866072008, -0.2892075193679915, -0.02983007487910621, -0.09026287411852602, -0.07333994063516572, -0.09054809030803478, 0.07797175558212238, 0.09642032654867853, 0.01743624941350474, -0.03689323876989726, 0.18914826590840572, 0.023346165235613444], [-2297900295.813546, -2074845072.8075812, -12024203.709841019, -38849794839.422554, -156463835916.96268, -9848861283.417553, -2074845072.6021874, -0.06665887360384502, -140482870.70095435, -2074845072.8998246, -140482870.41607437, -2074845072.5449646, 0.018193470511635487, 0.0710602993228273, 0.25320753201882745, 0.09795283626758926, 1.2808644382749572, 1.5216450593420645, 3.604336944691611, 0.1192468341593263, 0.1137302744407475, 0.009561208835982833, 0.24341094880832226, 0.06619728520725243, 0.019680973843582302, 0.025991445508279774, 0.20607367820415434, 0.019572209209317844, -0.09045747629075894, -150365728.77401924, 1.9699515570809047, 8.170413829102424, 7.336213345313023, 1.1214338819312553, 0.2882821152790601, -150365729.11573458, 0.111650330507234, -150365729.16846567, -0.07446945348686831, -150365729.0575902, -150365729.02209026, -150365729.11241373, -2179220928.0656486, -42250034.784936, -9056057921.886911, -32043432999.925747, -125960055415.96269, -445554960.5394273, -1774701104.7303503, -42250034.62433228, -1774701104.9798734, -42250034.783061184, -1774701105.1962352, -42250035.12171317, -42250034.58539593, -42250035.00562034, -0.14746374530405068, 0.33517429730165793, 0.07885942209614374, -0.016618995745906893, 7.804841117464741, 1.0499436226829952, 0.21837262052582754, 0.21096667903580826, 0.17673098467580778, 0.03179619130278147, 0.099150629486981, -0.020439092367565644, 0.24062344696987156, 0.18767977101070887, -0.08550562658211405, -49059286.78301597, -4308527.802829412, -0.04880534312525348, 2.4554115296555192, 0.42032360998960416, 0.03614325037872475, -49059287.08460359, -4308527.898033817, -49059286.726042524, -4308527.683029295, -49059286.86048601, -49059286.93689372, -49059286.85886225, 0.2797457043705338, 0.014817093225560567, 0.1799154847836046, 3.2029108618877125, 9.259820131155445, 0.1183954585174545, 0.17427080454272184, 0.11163735433661158, 0.137725552596722, 0.005617917159623659, 0.0034814025234914257, -0.1541233458903398, 0.42314774916975284, 0.0605437440132787, -0.07779579453094872, 0.20460362981369493, -0.13509529489369376, 0.12923132292383455, -0.2620120542102329, 0.05900095471168446, 0.07972345978081859, 0.15300608531920187, 0.030837865332323744, 0.10580796885745992, 0.011203462532116697, -0.14869565912441512, 0.13627006961805757, 0.018654613777008687], [-0.018169471575169256, -0.10590875535641112, -0.014132213876535422, 0.0476637720337149, -2.4562584564733294, -0.42993916705331936, -0.02062187137478494, 0.053461845044216846, -0.10330301640102954, -0.02292710769386817, 0.015701269569416323, -0.02357831613614789, 0.17194772909676495, 0.26043616834106814, 0.028882391246381374, -0.1364712584207472, -0.45772567914453055, -0.9208040524806796, -2.120196750761642, 0.11202925859452413, 0.013518801145679937, -0.15270933834614225, -0.2543818370590248, -0.05586112325786347, 0.02928165443053467, 0.0845497154831158, 0.11634364774822953, -0.14464056053888089, 0.13000566163505556, -0.2630039803930405, -1.130162625024168, -4.672152304688583, -4.6393039521328925, -0.6256620600450842, -0.03486854443208323, -0.3840151171742236, -0.14033644063740397, -0.004578845585173048, -0.010741253592545602, 0.09644165861800286, -0.13699179151452356, -0.22988734266091898, 0.1612256782610627, -0.13556882304485757, -0.8692983846914865, -1.508470615416309, -4.44855184217222, -0.10395080986237462, 0.15260284955440667, 0.04834201589139392, -0.45376861099097127, 0.02633832014820682, -0.17021964291133868, -0.01659483436486608, -0.05583719706790105, -0.1488338784238337, -0.028492068310438073, 0.0985418008786, 0.09454616258432043, -0.03555231764925207, -4.677912497970064, -0.6741880239506712, 0.06264396690227547, 0.18400047508640796, -0.27066753899109025, 0.006081332275544154, 0.11878324528328887, -0.005763062466599513, -0.15728452345118193, -0.0811205388354506, -0.00971731371372538, 0.00030623544222709714, 0.06454234933123058, -0.1067337453532008, -1.514566243998056, -0.16499473759463423, 0.044631758194657256, 0.137745687810406, -0.25474285147840914, 0.2580747767219292, -0.14663326169223698, 0.07586061416124788, -0.10819252615426944, 0.08043505437582696, 0.08470885509164346, 0.14293689420959466, 0.03200852803190633, -2.1374726361703087, -5.440656498077622, 0.27953934442354067, -0.081559845520655, -0.25910490870343694, -0.2419546935632812, -0.0005276006635575942, -0.2187424164318662, -0.008308978952877452, -0.018047762563535616, 0.28548612824360386, 0.0567447449867562, -0.005808910412182132, 0.1009051761924126, -0.14542506287904935, -0.12736325631177223, 0.16362777584459795, -0.14793505388901512, -0.12974290344961156, -0.13388967411123837, 0.06002330835535129, 0.1695388618276485, -0.05276422204718919, 0.044758366332330046, -0.03742214030460961], [-16825400018.896185, -15192172780.072458, -88042130.3446724, -284461140469.7978, -1145640057877.4053, -72114108319.33755, -15192172780.12736, -0.08816715951927939, -1028626218.5368972, -15192172779.817383, -1028626218.6027272, -15192172779.925926, -0.0802408548874584, 0.0679851207083633, 0.029294044663291798, -0.08214727312216324, 0.10928744674398617, -0.12010164323698062, 0.11106123793341818, -0.01606393456687468, 0.017417661328720392, -0.2467203608394247, 0.06443877229604301, 0.2437331681581805, 0.18049198721936568, 0.028556871333698802, -0.10517077552947618, 0.05857174439233922, 0.16023822840618318, -1100989258.1288779, 0.03334676263763631, 0.012061812770550906, -0.3250410218585022, -0.11976744535991735, -0.1298797369657344, -1100989258.0465949, 0.18107811145466401, -1100989258.1148055, 0.1191053755828065, -1100989258.433521, -1100989258.1067903, -1100989258.285313, -15956420700.452656, -309357954.8751082, -66309142060.098366, -234624443555.44244, -922289066584.1328, -3262387169.516877, -12994495914.362638, -309357954.78935194, -12994495914.534859, -309357954.8598692, -12994495914.776558, -309357955.05454904, -309357954.89755815, -309357954.98404574, 0.17494944847511917, -0.034188633754460414, -0.06991562469984068, 0.02714306792493477, -0.13747257042799066, -0.4610864606105251, 0.19748804659276972, 0.1615067125595617, 0.07165515582110726, -0.04609553441827465, -0.14642253051693097, 0.2415437552577527, -0.004707450830102814, 0.010782628947265567, 0.18611322250226567, -359215815.14754444, -31547368.39781358, 0.2617949631187133, -0.26184633371251453, -0.02485009655751714, 0.1539928806701042, -359215815.1077919, -31547368.239917405, -359215815.1223828, -31547368.30558179, -359215815.15726477, -359215814.9949104, -359215815.10311204, 0.012148755985599544, -0.08824432732009813, -0.055329033121655755, -0.10138998269526692, -0.06420422305498084, 0.30585371486672813, 0.012286496364044322, 0.0025058946826806033, 0.12161155833527014, -0.11080208899998258, 0.020052666392657358, 0.06518670020310073, 0.06580421327713978, -0.22758097679585937, 0.027301093689604674, 0.17005107710748787, -0.24664744909634922, 0.12463270294865521, 0.08036271544781771, -0.06916783147770542, 0.01917757979464818, 0.012513430832474175, -0.09559486948167775, -0.2411405751054149, -0.017159057078731974, 0.08071047542437992, -0.0851965945599905, -0.0587957379607981], [-0.015404486858952583, 0.030913610302679417, -0.10624825298878769, -0.0799557803940328, -1.9151111594752712, -0.0075478102508471645, -0.11168504101658853, 0.2791162139618352, -0.13755433216935625, 0.17268660676812708, -0.022911784569734195, -0.29015031436705463, 0.08321044657939133, -0.145544515092181, -0.3448170831301406, -0.06910615944292726, -0.6231698478387804, -0.8846991990809076, -1.7862352563128037, 0.04797814652376353, 0.047990974701535, 0.051181127639400276, -0.01562314700280777, -0.12976893897314393, 0.01712448990244654, -0.03256971160883811, -0.2034376201886645, -0.27719502980779104, -0.09652889992635005, -0.028310296863083007, -0.9217524864204301, -4.240962393121585, -4.146801284291876, -0.5733315470197436, -0.12006974491483584, -0.262140823016461, 0.05998063798306204, -0.024272331182454275, 0.04106476786998047, 0.0726679662882825, -0.16434243064406567, -0.24258131869941751, 0.08834095349947443, -0.048701465735249555, -0.965019212086637, -1.4034305948095003, -3.6735550277435496, -0.053351253371498084, -0.09499733824060524, 0.00978723277683697, 0.04090956175467477, -0.06186584181611312, -0.026223940140695384, -0.21188664286952172, -0.02670161313364758, 0.03821891662129031, 0.06697954911524318, 0.006552768784788124, 0.08911548280980412, 0.05924583924214072, -3.800263176182489, -0.6372147464716482, 0.00011447708895202802, 0.013408836967071971, -0.05856362621998706, -0.0130346013587305, -0.0792757937896567, 0.12789634967994715, -0.15036682550174013, -0.10873231023964472, -0.06191638935245425, -0.1761298013120121, 0.11084902667780486, 0.09423888957173128, -1.3770916243703573, -0.47248442100522103, -0.09031697951171655, -0.05994260002846486, 0.10755354847542077, -0.04777802007963005, -0.24726654656506486, 0.12319599219932684, -0.1820214311869842, -0.21302025042193007, -0.21628832718880056, -0.27988840802358894, 0.18653381473384226, -1.5825670359240214, -4.846530459340056, -0.11951951347754267, -0.1424046949478056, -0.1808970926506832, -0.3153704849900071, -0.0423109697239779, -0.2944573496106208, -0.09877382673156182, -0.1188525763509975, 0.07777167558807256, -0.036814606984735126, -0.18337680182999944, 0.1990823437959929, 0.2918183350908682, 0.09366420770055717, -0.1836669117346715, -0.13978743716781145, 0.011131188805723056, 0.08995039992033274, -0.1686441034607003, 0.0760930177710995, 0.1860198079970405, 0.010311112270372737, 0.1255590341328838], [-68037798.20995016, -61433427.26697857, -356020.83201925, -1150291202.3967855, -4632687887.064413, -291611797.0980213, -61433426.91221127, 0.0644873606520286, -4159512.384298993, -61433426.96765158, -4159512.5677370178, -61433426.806118056, 0.1008432364263123, -0.08702908388483147, -0.20312389858712443, -0.17642478977677237, -0.029316446492495603, 0.004316879383597318, -0.1607963836396999, -0.03240461421396627, -0.10162612055468316, 0.14152684987818184, -0.13539360034241918, -0.015994896826540258, 0.16640769437115463, 0.15087456265655838, 0.2583004435407268, -0.006817610814920544, 0.07680040337002031, -4452130.919379261, 0.1703670647521368, -0.11291495855165863, -0.10658885740386886, -0.10413124807456597, 0.0762981680082461, -4452131.103590541, 0.13186485738622, -4452131.142783581, 0.07611512672171086, -4452130.75220301, -4452131.0896997, -4452131.143833022, -64523858.50101281, -1250967.9020097968, -268137934.85950708, -948763802.6328683, -3729511165.1214714, -13192295.059982186, -52546559.73706582, -1250967.9334959793, -52546559.74604262, -1250967.9548995376, -52546559.72482894, -1250967.784429311, -1250967.8485968087, -1250967.6865817453, -0.19495669020310935, -0.16571197388167094, -0.07062316236306955, -0.17489238443617244, 0.1047233382821147, 0.14084825472259835, 0.13466772194721047, -0.03497906244676323, 0.22363505786667348, 0.06983081251526749, -0.08895966784242589, -0.0005175625074347887, -0.12350179105123127, 0.06134473643911591, 0.16059115160178367, -1452581.0349270247, -127569.80068552178, 0.03269297445384403, -0.23291062204644297, -0.12337724190820305, 0.05048031343146593, -1452580.8082358092, -127569.6662236751, -1452580.9532116447, -127569.88343102674, -1452580.7252430026, -1452580.7033092054, -1452580.6468004913, 0.18276785450031133, 0.05705285691114067, 0.06274288105052679, 0.014976009027557836, 0.08905621671344308, 0.0969501829851446, 0.1830466060881112, 0.2648293494853767, 0.023187174510344074, 0.10071137249384811, 0.23412761736912027, 0.04067590258377268, -0.19601016583233166, 0.03353573227260981, -0.007945662934274254, -0.07407562305956711, 0.029712824773261082, -0.11595853576998674, -0.05613689103535004, 0.1877349849319008, 0.05243376193092199, -0.013884385408014665, -0.16098461091443078, 0.13652614794391468, 0.13285191006390176, 0.07425343311014401, 0.09590150863896169, -0.20261289586999498], [-4295105067.6985235, -3878182879.5184007, -22474960.42877144, -72615835852.08858, -292453339145.0469, -18408933619.446785, -3878182879.3365407, -0.17433526592318385, -262582623.88818252, -3878182879.5289216, -262582623.8872763, -3878182879.483824, 0.049519762748031895, 0.08197349126613646, 0.18061223334511628, -0.043904034989861125, 0.7643841375528094, 1.2316083941850802, 3.145328773567975, 0.05979376515097028, 0.12086519267835573, 0.03847240424090953, -0.015469847469688554, -0.03228824794330807, 0.04408470626790992, 0.10696463663520649, 0.0038016303076256475, -0.06793308028046893, 0.1657810102573807, -281055103.4127118, 1.5900948547342928, 6.457628724240397, 5.9029709258058665, 0.9735264964283497, 0.12693043387029285, -281055103.0466449, 0.12763761082247363, -281055103.3161366, -0.1172393854115899, -281055103.29839915, -281055103.6602612, -281055103.2519281, -4073276316.221748, -78971372.02681798, -16927070485.123621, -59893769853.38975, -235437400535.23322, -832806093.5911577, -3317170776.7427516, -78971371.75599398, -3317170776.7973733, -78971371.67267199, -3317170776.761425, -78971371.60100374, -78971371.88215226, -78971371.89401513, -0.0844908072094506, 0.18637924000020617, -0.0640761809507029, -0.0976327608809885, 6.51584643252263, 0.6191232477297012, -0.04675986529224854, 0.009224497566939306, 0.037772747646256044, 0.2011405785371278, -0.07781094912247781, -0.16422183178411337, 0.008000332707482443, 0.17835656680435463, 0.24975521748083226, -91698839.95060928, -8053256.729106435, -0.1550581235560384, 1.9069002233247194, -0.042938425812809655, 0.238817724400573, -91698840.14338592, -8053256.335386216, -91698840.17571501, -8053256.293829968, -91698840.0609097, -91698840.17785268, -91698840.28092271, 0.3563640659301585, -0.09521133287607676, -0.14350389483713477, 2.9566399575854696, 7.567595752871116, 0.006191685916057828, 0.10357257913632402, 0.23528861362520057, 0.48479461507352656, 0.12414972904347596, -0.1792974004243429, -0.0056564745249831055, 0.2888717897180165, -0.05905048845752465, 0.003501855815800747, 0.07447958238032495, 0.18313114164653405, 0.048063840144662466, -0.1268979641312203, -0.13442103997031496, -0.09591667150352166, 0.174665156333602, -0.022790003806901694, 0.003196332802052213, 0.03882558310532912, -0.04229745616936697, -0.2689061333623945, -0.002502190925707178], [0.11496633961943901, 0.19354216618856182, 0.20079689397640735, 0.039247965865702915, -1.252532511425003, -0.1733702918585838, 0.02892277180883895, -0.03156303583573794, 0.15289667858035907, 0.10239596309466231, -0.09675660858383303, 0.10448140824493041, 0.062490186077587016, -0.13403957168878322, -0.06496891856484002, -0.1041440752429005, -0.3849736223568317, -0.4067169698577513, -1.2753340474861303, -0.005288617208074996, 0.13351786370652238, 0.10816921045755382, 0.31602380790503687, 0.07781908255644826, 0.15492541181403593, 0.06575152791066229, -0.05693677127596445, 0.24600170458879866, 0.139237592905438, -0.02528293830396061, -0.5752252950476681, -2.6722756754638577, -2.233888389816856, -0.1747436427035778, -0.22223953351267245, 0.08540590340905857, -0.045753774951125974, 0.158876710751106, 0.0796019778027481, -0.2241025954409382, -0.05733038275933921, -0.015231960823238033, -0.18970040642326436, -0.04949072522624146, -0.4722758203801512, -0.7716070609259703, -2.39623498473255, -0.09907210541972067, 0.13456988980521645, 0.022149437840138064, -0.035495161892706295, 0.10339361200301832, 0.13850527932184045, -0.09182599302473266, 0.03984143247571871, 0.12811709647423436, -0.03261727046851948, -0.11490228064549576, 0.00016924399195311336, 0.17323357557483463, -2.69571417175218, -0.4627789096645722, -0.18953795543589425, -0.04704140910284142, -0.1469688594559181, 0.11115610127341309, 0.13044887104312067, 0.08683051751278117, 0.05848057630114225, -0.17176586035335978, 0.16028543518989263, -0.10391010543738212, -0.13348097616333848, -0.13905942694706566, -0.8455289457289088, -0.3416962552368703, 0.08690901670943908, -0.1945452187777837, 0.09407772953306422, 0.08148774013345436, 0.17345865514878436, 0.0007519862297664732, -0.2810122674210122, -0.17344404218457074, 0.06255785924443527, -0.05528772053741939, 0.0453577492654523, -1.171169137424819, -2.791107333056079, -0.03520450857388592, 0.050420707531054244, 0.10833254356037869, 0.051806748602599616, -0.18923699541418174, 0.04301186229940937, 0.008201827504724285, 0.16222609590963147, 0.1456098107258226, 0.06130610860226265, 0.14929390301716897, 0.11026265622480563, 0.11808020380195018, 0.09761620974716713, 0.052354861480229414, 0.03730774254494359, -0.20530774092750975, -0.008109537315124699, -0.03756843582068399, -0.3579687166214877, 0.12242860755924359, 0.08312023509010759, -0.0775806853776436], [53445011.40548786, 48257149.54973601, 279661.31604576495, 903576072.9173884, 3639066279.9755635, 229066728.40393212, 48257149.894209504, 0.04376419214534771, 3267377.847645153, 48257149.55678603, 3267377.8714434057, 48257149.439917035, 0.16704008592838554, 0.11336523419547045, -0.027347216676702372, 0.08079011253803027, -0.1729444236827527, -0.06900950746811738, -0.29717477397802833, -0.003717895150531188, -0.04849878522398123, 0.10164528372820589, 0.03524812095393934, -0.01946321295929579, -0.025793204973844117, -0.02730800337629881, -0.15420055371259375, -0.3111470318728361, 0.08455746179807479, 3497235.2146989456, 0.15343028545146067, -0.20678545937250373, -0.05643187161197556, 0.11585408910150553, 0.018746524170218423, 3497235.3970175637, -0.02489906221248697, 3497235.4904929367, -0.1703188252711512, 3497235.164657135, 3497235.4127084156, 3497235.5162069337, 50684743.28430646, 982659.5781494736, 210627553.8924042, 745272387.5029421, 2929603429.550033, 10362803.911537806, 41276342.69301162, 982659.4732725744, 41276342.60915218, 982659.36043292, 41276342.86245156, 982659.3744002418, 982659.4598924668, 982659.566026646, -0.0819790792904781, 0.16896222140055125, 0.04542311443622014, 0.20576537062815778, -0.11334037922201269, 0.3670032765368209, -0.09891424393608399, 0.1819373083756194, 0.058255110919426006, 0.13078541180821415, -0.12929558481500183, 0.08935095233973249, 0.13681038051695113, 0.10240113114820219, -0.16783192218431892, 1141030.3133273905, 100208.35678673122, -0.2876716216892202, -0.13550601010297353, -0.19270166609507597, -0.15583354691267357, 1141030.5954519666, 100208.58245325685, 1141030.5927805912, 100208.64541647932, 1141030.2851722448, 1141030.5154053418, 1141030.5897804336, -0.01945785858776453, -0.2802238285073393, -0.20142083973807323, 0.14420323601145335, -0.22438719511804067, 0.18597315878932563, -0.16558502225842492, -0.17248411282175286, 0.0002786452474810438, 0.06683170833820962, -0.018474941453224716, -0.047521247370130915, 0.12593375272448004, -0.07996944273781982, 0.13711858025629703, -0.2642080608824295, 0.097751553915581, -0.21544215720929286, -0.13069375034058414, -0.12935789911972556, -0.0028369662477446484, 0.09440286660813303, 0.03199209407864182, 0.015252655514619004, -0.1933701416964102, -0.0415959161458009, -0.2246200686545912, -0.18068625458114107], [-6134506881.155421, -5539035526.819596, -32099982.99544525, -103713957570.48291, -417698052384.8835, -26292658315.764942, -5539035526.841214, -0.11116713549580759, -375035042.92693835, -5539035526.85992, -375035042.91976035, -5539035526.878294, 0.03048315792133138, 0.12170789587311545, -0.34296233221339884, 0.06403817040543153, 0.18742322350819002, 0.11564129158929012, 0.7530455078861765, 0.033107944389525724, -0.10268831125317784, -0.010584716579058552, -0.2104924287283301, 0.16493733798753243, 0.09837589396558419, 0.18698311873204887, 0.18842186143400572, -0.03916288713914905, 0.024438867458271875, -401418461.15637743, 0.34108083342385687, 1.374542424549198, 1.2020714290784342, 0.16707552671936712, 0.05438679446078461, -401418461.16420966, 0.153072733598336, -401418460.82453537, -0.09558077593305765, -401418460.8506981, -401418460.93676335, -401418460.9232984, -5817678775.958105, -112791285.84009211, -24176179336.00054, -85543598480.88869, -336264731839.8804, -1189459776.0174196, -4737766978.235312, -112791286.04556975, -4737766978.368004, -112791285.94654709, -4737766978.433013, -112791285.83607382, -112791285.77518018, -112791285.69636297, 0.1706793642453492, -0.05116109826548104, -0.007309188621075124, 0.012961745454216855, 1.4341713024750091, 0.3116951453583009, 0.14642815271879997, 0.11699404225246092, -0.18375984390978914, -0.08773641852271666, 0.19887877329780895, 0.08736098165353286, -0.16210004081904192, 0.12590943804747726, -0.1483249380031584, -130969361.34033088, -11502106.776952272, 0.0925127654672846, 0.42134213696888245, -0.032693743301907954, 0.0071680892523941515, -130969361.23398742, -11502106.868846068, -130969361.0116392, -11502106.850061232, -130969361.18178968, -130969360.94536571, -130969360.93611388, 0.13628868018059306, 0.0017740796321989885, -0.15186638004890407, 0.4780082394480982, 1.6265755341720054, 0.14064329150910113, -0.1887341480411016, -0.17973674214718352, 0.0029105558700826366, 0.1679416027815409, -0.05649655515070038, 0.23417460190745462, 0.1469009496238422, 0.1758093270887383, -0.1160021014604207, 0.12622092855950864, -0.0010877020476575431, -0.047985071292587056, 0.1235732095767681, 0.09529623658420387, -0.2546723464800194, 0.3182458264022364, -0.07380215986414809, 0.08061126061549, -0.34051040079420036, -0.09408602148251091, 0.1172225948960129, -0.12298747005426341], [-11329253914.996098, -10229532893.795776, -59282492.35651921, -191539724804.25403, -771407936592.4102, -48557481134.930336, -10229532893.83506, 0.025271003951109452, -692617566.5441569, -10229532893.913483, -692617566.5704876, -10229532893.915363, 0.01477528289056551, 0.021300353440246486, -0.0937886411494163, 0.0319577680202383, 0.295256166247891, 0.33689388928912056, 0.7672262269964876, -0.08550812550297361, 0.16035098977334514, -0.09292801460721276, -0.038381479734231755, 0.13174314383155603, -0.2024040897404322, 0.07095297964018189, 0.12641126836080258, -0.011717929655485034, -0.14881996737302947, -741342663.3225143, 0.427741806185119, 1.6154482827259704, 1.3989375550599432, 0.2295260950619368, 0.16768945767174248, -741342663.4663373, -0.04688037907948222, -741342663.426752, -0.12584348461013015, -741342663.2218143, -741342663.6122522, -741342663.3462989, -10744133363.055809, -208303803.68598315, -44648751675.63112, -157982567589.266, -621016261523.2599, -2196703351.5340567, -8749744050.553913, -208303803.62037963, -8749744050.528025, -208303803.85253075, -8749744050.781073, -208303803.72636783, -208303803.7733219, -208303803.63037643, 0.12391322707208224, 0.08138878961962948, 0.007557097985625986, -0.17016537520019298, 1.5925662959046758, 0.16952868915406333, -0.20743293832979842, -0.13418558188545365, 0.02758429542516992, -0.08824879127055639, -0.11526084537389611, -0.09556056247578024, -0.26998030048156996, 0.10621338766589149, -0.04451820624818993, -241875210.9863414, -21242178.12128893, 0.0017782015104570834, 0.23745824855992323, 0.17502171173899495, 0.1595986938577163, -241875210.8667112, -21242178.072099302, -241875211.111608, -21242178.10832833, -241875210.8668971, -241875211.15017775, -241875210.88818845, -0.09843915556145941, -0.08125044228517264, 0.018985461810459348, 0.7252161845938545, 2.00955999732653, -0.19649722847952233, 0.1828627383999232, 0.10018811489702387, -0.12298491677050633, -0.20560029490991918, 0.1855894852019074, -0.027326060752858015, 0.19628199576952288, -0.04572935665936985, 0.02107372641991147, 0.2690558881800732, -0.12257718113458595, -0.18695607949531978, -0.01843911884008858, -0.20580854305052493, -0.05241667573553658, -0.1506077639299391, -0.019294928323764195, -0.13394162306081409, 0.23794811076722278, -0.2079896543847087, -0.1654894200136199, 0.06160710378713786], [-188458764.43821797, -170165233.11708394, -986146.4963790982, -3186206273.437323, -12832141267.177235, -807739236.2316061, -170165232.87161368, 0.3014791688814485, -11521487.100384533, -170165232.8598967, -11521486.868512306, -170165232.91904446, -0.1506449385938284, -0.05101953999525363, 0.04438991945960908, 0.18418678830935714, -0.18331389677227578, -0.3004801267187383, -0.24083287189977584, -0.13882977802198795, 0.07091959500130852, -0.07702582554874227, -0.22575666259707397, -0.08117399735065935, -0.045772916980561656, 0.15894301972706817, -0.05186070448457773, -0.14736861922938463, -0.26912693104911606, -12332014.379771816, 0.10498343436601552, -0.10160952242372405, -0.14759527693439511, 0.008423264977629668, -0.010626981964329024, -12332014.349921066, 0.17812935777578282, -12332014.32139419, -0.10456498139895871, -12332014.511343393, -12332014.464771394, -12332014.414159244, -178725458.57765466, -3465071.799481898, -742718685.870622, -2627992957.9927144, -10330420545.38252, -36541506.24049619, -145549386.16884482, -3465071.891354931, -145549386.17070943, -3465071.7610351807, -145549386.20761934, -3465071.8970734575, -3465071.510926275, -3465071.7742364127, 0.038276827299470004, 0.15422853527609676, 0.057528832836172876, 0.17470615342835938, -0.03181892581703976, 0.2752431233909143, 0.1527865198929609, 0.14409157596531488, 0.10546155518525877, -0.14760786113470492, -0.03321716037864687, -0.03504177342233412, 0.29980692822175653, -0.08986703356067553, 0.11192006947594856, -4023521.869876737, -353357.31844028644, -0.08720058415477105, -0.14470310332577505, -0.23348851082842295, -0.06594818351496311, -4023522.155996005, -353357.53551719536, -4023522.144412898, -353357.22241167707, -4023521.97304866, -4023522.0076246853, -4023522.386647673, -0.00017765005818201705, 0.0682000861469219, -0.036946608501291965, 0.09813557799361751, 0.1266257146531838, 0.22753748997249074, -0.2757420534351383, 0.05511152968525675, -0.04338173572662253, 0.0015983959664545304, -0.06995202936067339, 0.03468672178908308, -0.1493050174248272, -0.12893120913152015, -0.06901843816271495, 0.12883139016582146, -0.09815928080171106, 0.057989745400197676, -0.07063346402313755, -0.05479072018333756, -0.05037928660209834, -0.09942691525309891, -0.03557872213773006, 0.04382235819986815, -0.1283585444743389, -0.15743373348730513, 0.01218589772085741, -0.008858013426140118], [-0.06281258801335492, -0.08011805966205189, -0.007230773966581557, -0.09499625168094274, -0.08622979834258998, 0.1443291558811183, -0.16527583134096685, 0.08575746072968088, -0.02213389379463017, 0.014738305237645985, 0.011097842177817355, -0.0032478526686184326, 0.063647908138046, 0.12564882753625867, 0.18329407675842635, 0.13612563565970567, -0.15906590122445732, -0.13536912409730897, -0.24763881036882476, -0.035315972280628466, -0.11354320164334052, -0.027776681482788144, 0.08868740136790705, 0.03551096209949038, 0.22177795468562267, -0.10943926606676697, 0.031860300826527445, -0.004178778003653549, 0.04871349533222714, 0.18748387613636097, 0.06373496063388462, 0.08772461795601876, 0.13805703160139793, -0.052966258962644994, -0.020608592922548685, 0.03692257723125053, -0.09774216478807293, -0.27239167832901273, 0.1348567445204388, -0.09071553667396923, -0.07069761687680738, 0.037299667617259176, -0.12762583074354694, 0.057512700194918366, -0.016682417053057765, -0.14831894347990254, 0.026430713409545437, -0.18727420483940974, -0.032848722573902096, 0.02696575901818797, 0.07129101318620733, -0.3162402295848003, 0.016808216848253458, -0.08173991159992232, 0.2213395347009743, 0.041975132160929955, 0.15421701766838763, 0.3488463303997481, -0.3219288712483601, 0.21867672803390462, -0.03850133994989051, -0.09635862447970667, -0.1513440970730981, 0.04504458655024505, -0.24650843368086064, -0.06098177409574372, -0.06239366468402662, -0.010110666491412566, 0.15331813026336122, -0.08199583590965764, -0.10783979260440317, 0.04201633439690276, -0.2026982044011382, 0.16356678886312706, 0.10184665054985154, -0.0163388653975443, -0.05506107006908239, -0.12076003888885835, -0.04664918446153218, 0.138645465460086, -0.054176993605584416, -0.018548547363314963, 0.011286046791828232, 0.08901554403709758, 0.3043378559042864, -0.18896131661256477, -0.05238945122423349, -0.11736345451645024, 0.04736898382143942, 0.03888523742426028, -0.12753465005319964, -0.027932851878916334, -0.04225219521365664, 0.17776022437025343, -0.13113802046570902, 0.1696524969689236, 0.06748628149662468, 0.04708731376068772, 0.115515461791467, -0.20294045760548454, -0.08138584821652119, -0.06886014920231304, 0.13351113263546546, 0.12477892550496647, 0.12861395590659486, -0.010978910712978027, -0.008214132669906535, 0.23444063450364178, 0.1875609140892885, -0.14421692805967712, 0.03482399312835734, -0.2355269348638568], [0.030785277987110463, -0.08448407167029781, -0.14532646368308466, 0.02745061869252966, -3.3057664399492612, -0.6780902522681672, -0.18233723423064038, -0.059278279506516734, -0.13894935356714885, -0.02651709086509635, 0.16436891138096793, 0.04119175348898463, 0.11727047134063565, -0.3990561393884512, -0.028120512865104755, 0.06688126033548154, -0.7377805438771952, -1.2528303977136446, -3.066581679383653, -0.053641750504003195, -0.21930405155216165, -0.08692850816530188, 0.03205789985849078, 0.05703007445132993, 0.2663672845237803, -0.0251186241325475, -0.03510623858358333, -0.030001121267819043, -0.10770743948390993, 0.18680282475686638, -1.8327788233072766, -6.358766525732884, -6.350141389113109, -0.8212360980305375, -0.2654465823232707, -0.12352236380890974, 0.07919155803365645, 0.05305853758192442, 0.198522150460392, 0.15041932836789407, -0.12891880365007868, -0.19300076957750667, 0.030295446129542464, -0.08571056804658479, -1.2025739981405146, -1.7697673714844322, -5.888893705716374, 0.22552041963296413, -0.104687827786374, -0.1778027244341428, -0.2041812147134862, 0.12939960537426554, 0.11243053092889024, -0.08187396118916498, -0.19204139544966814, -0.014956284673731434, -0.06159607220930748, -0.15886417808558548, -0.06384692850787163, -0.0007385315732557175, -6.402473055033844, -1.287650590571902, -0.22912841583454208, -0.05226101577241634, -0.18577180265018217, -0.15196091150604607, 0.05771782780418134, 0.04339352475214177, 0.029447178408743533, -0.1363489005540922, 0.043102849278006394, -0.08303229564887243, 0.029821654732619943, 0.1839577465315338, -2.1728007997765664, -0.47329104659912163, -0.02269129894372118, -0.10782380407624337, 0.09821405300481142, -0.053169779871290186, -0.1151744768585561, -0.0721739168741273, 0.10855357741001402, -0.39216530349342, -0.2472181551876661, -0.018744460696223337, 0.03427062341648586, -2.73922159598872, -7.752139765396365, 0.02805312380773924, 0.15117925319282643, -0.16346602488907447, -0.3877223824429935, 0.15028531346030854, -0.053178822186558894, -0.06964604679809468, -0.4191311110847097, 0.1557985840670113, 0.07624281578114292, -0.09242067098521964, -0.01419325092480471, 0.026845053928405128, 0.0587099043724027, -0.005544496408069785, 0.18999206840053134, 0.048258402193192045, 0.1119092829381411, 0.044377543829679456, -0.007094234614445417, -0.08490583662011895, -0.16351128158857955, 0.19260028888708097], [-6458518558.936465, -5831595666.847985, -33795436.20800775, -109191909426.65402, -439759979965.8528, -27681380911.61046, -5831595666.8633375, 0.08761207094790467, -394843600.5900531, -5831595667.029528, -394843600.2223855, -5831595667.00312, 0.22021917941312985, 0.2576969361688202, 0.0029983469628818912, 0.0641182831804204, 1.1761737175355378, 1.4592619273591079, 3.5390418353813535, -0.1555004053491777, 0.12845723696829434, -0.007444533882954539, 0.289233374472588, 0.09193571531561492, -0.010884761745040156, -0.11988582673098666, 0.0883724608859161, 0.045150869183319536, -0.06124277776830338, -422620534.4942011, 1.8249898122199404, 7.464848016795208, 6.920497352046904, 1.1119711578946425, 0.1608823888287297, -422620534.7352478, 0.21242707734418229, -422620534.9739929, 0.14485869131934828, -422620534.9390647, -422620534.78948534, -422620535.0925666, -6124956262.947339, -118748683.15171096, -25453113988.53585, -90061830403.40286, -354025523680.43866, -1252284525.2537413, -4988005808.290311, -118748683.02673021, -4988005808.422357, -118748682.94449338, -4988005808.178324, -118748683.20449653, -118748682.80567369, -118748682.8582706, -0.0864227988958537, -0.05521652995662138, -0.004769609335714652, 0.2355478737336184, 7.716250456597042, 0.8852878222705878, 0.24534624625200369, -0.1178108958482922, 0.03354379985452552, -0.1683100414125635, -0.05385735377321807, 0.04134623118429884, -0.16264494695952403, -0.1137608741325023, 0.18133204376698972, -137886885.58909065, -12109623.553879248, 0.18977104604818637, 2.133732084921573, 0.4190805067120358, -0.11828824713637373, -137886885.5957562, -12109623.75874876, -137886885.7025971, -12109623.776720334, -137886885.50086892, -137886885.49000084, -137886885.81474882, 0.1203557386483731, -0.03389486741151809, 0.09775168564939385, 3.147831779444961, 8.592639935625312, 0.1107493600020926, 0.22557750485288366, 0.07416591014060711, 0.1316757645509756, 0.06973577208597741, -0.17812716546252347, 0.035817615470927475, 0.27715035670779054, 0.12847803181607054, -0.3169375351572385, 0.17051329170225613, 0.04062410265446228, -0.1621913848401715, 0.036632080178610305, 0.052614055446531055, 0.0001839599295286166, -0.12533803896500037, -0.29920359250114337, 0.05940349983632802, 0.12970872157730912, -0.3161007306494737, 0.2059291796677815, -0.09976789573085079], [-646443469.4814869, -583693752.6313778, -3382639.515150586, -10929193145.370005, -44016280904.36418, -2770673761.351068, -583693752.750503, 0.017325961473218805, -39520528.25686376, -583693752.771958, -39520528.45769882, -583693752.764284, 0.05687149264684917, 0.056294547243198004, 0.13234546947078024, -0.020449056887936246, 2.2889931798517082, 3.566298449244499, 7.966614444976622, -0.08865902978852953, -0.006899268586243387, 0.24120523412583306, 0.06122144357516192, -0.022455023016597218, -0.14527333672691192, 0.13478716129938925, 0.29831954575604214, -0.20554461077664982, 0.12183747608194417, -42300766.00422046, 4.236614808309886, 17.15243201696543, 15.903908043034857, 2.1107773341220004, 0.21673438145340526, -42300766.06854197, 0.4546629725790054, -42300766.339840025, -0.11105167185027538, -42300766.32456137, -42300766.09120047, -42300766.31363666, -613056684.5298177, -11885746.188170742, -2547642953.584577, -9014432884.006435, -35434981817.15266, -125343164.34807296, -499257492.28724056, -11885745.680645408, -499257492.1741436, -11885745.990391305, -499257492.2279867, -11885745.620917935, -11885745.765040668, -11885745.844632998, -0.2077349304885526, 0.12283253741796912, -0.11601345193035659, 0.07207213039383562, 16.94072994383363, 2.3692718115607754, 0.10800763167864964, 0.01073567123898403, 0.42673997624477583, -0.12415030967636678, -0.023373874642536308, -0.13956970433847884, -0.06916495133784457, 0.44396351926661987, -0.05993138507510623, -13801319.062387044, -1212071.7236679038, -0.17578953913157813, 5.37820339675122, 0.9709626198668001, -0.04128354562763095, -13801319.32965163, -1212071.7268227295, -13801319.383364007, -1212071.6232999924, -13801319.353169702, -13801319.278319737, -13801319.12190903, 0.29273058173242755, 0.05521798011944997, 0.11751427385977435, 7.262775030957871, 19.43196379763997, -0.16783723413490773, 0.3559722117677937, 0.5843152628258022, 0.25184854064194395, 0.08965647351158733, -0.025114051965097063, -0.12193474462894577, 0.3062064963512615, 0.09647917885025369, -0.10061897890434308, 0.19780473804229626, -0.02373713067799767, 0.17348002888710898, -0.01427500112201505, -0.08845094951844208, 0.05498325659849747, -0.02601050847010895, 0.02421065456137612, -0.012194530565302696, 0.018218892938077113, 0.15515393484675924, 0.19521413148926006, -0.12096258165846732], [0.03132340514594463, -0.09925840768248696, 0.050909882532564926, 0.1978307849357712, -4.958588980679654, -0.8311337667568194, -0.14094699778213773, 0.00503431411911643, -0.022824399691878744, 0.0793236603850909, 0.008196710469185013, -0.10305399679544679, 0.16284198188641516, 0.07437174342229987, 0.011011676552642027, -0.03055037567352607, -1.5646187705598444, -1.9410502234678944, -4.783906610469362, -0.19348783251012827, 0.055593173888003874, 0.030164361264426134, 0.10765815555078186, 0.22177237665199692, -0.053856093292033135, -0.05917445384011849, 0.08646656512714564, -0.13599296849952508, -0.04783302316567132, -0.15657445928786462, -2.4735672778506173, -10.115934352007871, -9.215496553650382, -1.4286564980198388, -0.05983292183517244, -0.2920343312778167, -0.3193805828704578, 0.09440117269071265, -0.021320517529829844, -0.1501502305878576, -0.17355032970226197, -0.2421328143963594, -0.1944827104663457, 0.10590106249984306, -1.6047239205728914, -2.801620887075399, -8.892128986203165, 0.20514153586969483, -0.13380171348897324, -0.1771573980297467, 0.002955305351479448, -0.0001673603425046504, 0.24444258604405186, -0.14029807033128294, -0.2513897722720228, 0.001868196251095971, 0.09304939681972552, 0.014400848041142833, 0.028759485871173635, -0.032986467729758044, -9.613567156045281, -1.2535963949473703, -0.4071760065466885, -0.037574589153326836, -0.27382986625236094, -0.08083880538185316, 0.17907282527134488, 0.16447796174416549, 0.021721743797996133, -0.18100605232886222, -0.017100583333904594, -0.025606418096492417, 0.15690381977936965, -0.14019687925602328, -3.0787285287913835, -0.5107621734052346, -0.0994663999345797, -0.06653304524345788, -0.035520904990903934, -0.025035719654362496, 0.0805057701996249, -0.025838884390250342, 0.08071834444098915, -0.11559208193767732, -0.17633060485032964, -0.15874383048561733, 0.011760780509738592, -3.9648643984296004, -11.102206707807628, 0.08433414222481275, -0.1414001449304937, -0.1687489212328484, -0.21149716204739805, -0.007899758240674293, 0.13255607016545995, 0.18712113846112371, -0.3290478413106316, 0.03855710205776851, -0.08047694296549843, -0.08011759491157176, 0.08730936475659927, -0.14055735642713996, -0.11328980979133148, -0.18676744738175696, 0.25527968789907973, 0.03398356917124376, 0.21009713670337266, 0.0317559101199486, -0.10784492200233568, 0.02272597018233085, -0.22512154970449047, -0.3873152599030109], [0.12419072231721219, 0.03260220220007333, -0.12895261102814232, -0.012214545893099525, 0.05728261215501883, 0.06515462525275838, 0.0653282600136815, -0.11806292379827718, -0.010470602394259216, -0.06369036607769163, -0.06601660897674297, 0.022782785582646594, 0.12153420648845022, -0.04733619908912017, -0.05096120051420659, 0.42561083777657516, -0.011481310944192876, 0.07968384860218275, 0.10077496884398106, -0.14513348248364918, 0.07005821597974633, 0.0781593058568449, 0.16197401620948595, -0.12798209544073272, -0.05449368341675582, -0.030990833881468425, -0.06322554116935553, 0.2613492556645043, 0.21133746947678878, 0.2832612357625825, 0.013067704287725584, -0.17111811026639343, -0.060501784846819416, 0.20483171692357105, 0.12764497998540608, -0.13316119940400978, -0.027647619697391452, 0.04968628286295842, -0.0502678540472949, 0.06856634697420623, 0.2890254291140923, 0.02444662549510295, 0.029051857944901022, -0.012693267608395512, 0.055243063954048856, -0.017319065635694478, -0.09354713234574905, 0.1914869474963735, 0.08663958097875268, -0.08307054198589009, -0.06327647891586244, 0.011906750724919393, -0.06483037541250268, -0.16238408584047073, -0.09037703808511974, -0.08229873365407696, 0.031115799615564356, -0.09101376827006886, -0.047106911844817245, 0.026461060439605347, 0.11398627473806218, -0.13196142852535098, -0.20503925405078566, 0.08920581413205127, -0.039536019909379036, 0.3134348704338415, 0.07210691501443128, 0.11223645114016799, -0.03006561094591265, 0.061756782275774504, -0.04182420396189638, -0.26078588654150137, 0.01804086913455238, 0.18004230200849577, 0.08185534539607248, 0.19982247132927602, 0.19907006969729168, 0.06978359815747465, -0.19003418772829667, -0.08081870560310354, -0.08601357489368644, -0.013365886269890359, 0.09499050400696453, -0.1131823546996662, 0.09922290579543878, 0.16354098368632888, 0.02712652484121543, -0.1977862051328091, 0.009250177942990951, 0.148520564115569, 0.16797995428429097, -0.1340464433775555, 0.2140082378180378, 0.1676716252217307, -0.28929477687590194, -0.0712942913457256, -0.09556626401693637, -0.20597372686335352, -0.018211791289070346, 0.14154631829846273, -0.15675631607632534, 0.03366425632412061, 0.08734700391569475, -0.07056557360679347, -0.027030543523533474, 0.08776191694241836, 0.10902539391285576, -0.09778664496872841, -0.003355310415298735, -0.04056955879867634, -0.10168602965326631, 0.06274835830519675], [0.02818389540553087, -0.15863911975552203, -0.13020918311414384, -0.009487371895213727, -12.32311303040746, -1.6068933179502367, -0.1295357097902244, -0.2958432878512226, -3.031715658680101e-05, 0.13487709605557008, 0.00574539835795752, -0.1202511152599843, 0.0012059970764743992, -0.11528263496609253, -0.1300753668898871, 0.18653782773285413, -3.78844348573763, -5.088297974255003, -11.805486566553034, -0.20193823002549433, -0.16941772056026944, -0.1197905290417162, -0.26134247153631174, -0.1044772301178454, -0.01648032907670196, 0.09202714471727058, -0.1764235129067543, 0.01222427072541776, -0.17809234618760397, -0.5513908413025135, -6.253739083770499, -25.36205499184506, -23.744745311141788, -3.0336326488477967, -0.7965875876840331, -0.6622837001636391, -0.28390861939675593, 0.2887245732447235, -0.22687466721431312, -0.026025562726119646, -0.4077651811288874, -0.2827342188631375, -0.42672147054331677, 0.050771414831808186, -4.268600018324675, -7.003254539617616, -22.549063730185086, 0.07102435837756495, -0.2863290286432808, 0.002852429289179781, -0.2690461335397747, 0.17369441177721467, 0.18275148488474188, 0.04698012032892996, -0.24214129550268432, 0.09572675909697162, -0.05076504422954027, -0.41337564435381857, 0.12598026529538678, 0.13203601528955597, -24.78349387547228, -3.8845440938740308, -0.1556969514889864, -0.35768926293462844, -0.38735215963250075, 0.016435670002427866, -0.012152288777171345, 0.11977950381645638, -0.11861409955137092, -0.40626643746141955, 0.024100227877600477, -0.34280574467274616, -0.010159194440181665, 0.2223439191973049, -7.709536461046504, -1.3353518216261147, -0.10620700065299574, -0.0706179554735524, -0.1484078637672028, -0.12938437151247278, 0.06632852259832706, 0.013518816189061655, 0.037660889410904945, -0.31638798050408545, -0.5359640687077188, -0.05715597599229605, 0.13407146078476226, -10.430622655632638, -28.896195728848102, 0.11511455396949492, -0.37654393291223653, -0.5778658586310371, -0.6655721028086428, 0.12881091762070343, -0.0814847114846349, -0.15601587807182937, -0.5511648030516957, -0.04257208182710873, 0.04688493419473976, -0.19488651208096344, 0.010329745770468666, 0.018468155497710963, -0.3235737672362071, -0.09673229160856324, 0.13906470101221466, 0.025486116454569243, 0.03678315443730542, 0.08826609200262915, 0.25289110826918276, -0.1656724597640718, -0.10853430879970825, 0.13762608281360916], [0.24488847076632664, 0.121848233347881, -0.05104379773553289, -0.2039296270092398, 0.035503409749392374, 0.23346448955401972, 0.097689993516032, 0.1604801650248409, -0.24576311764667866, -0.11615389939040169, 0.1928440923317455, 0.1509628997559949, -0.085343679880249, 0.07442935384842682, -0.11021610231998015, -0.035557185220595706, 0.009998488941518844, 0.09788602424905292, 0.1788574172955159, 0.321683875543613, 0.029914648746660485, -0.10810284347461552, 0.0792456873486712, -0.0684050707337508, 0.1052581591915785, -0.14547067824665352, -0.13372653777655988, -0.04000968404307616, 0.03587941616055909, 0.09493530405140128, -0.060365939159417084, -0.09277013995523839, 0.13090163201448005, -0.1130705314243933, 0.08995639253566674, 0.11481132722603744, -0.11425719423638321, 0.013637070128848726, -0.0248312071420362, 0.0006633279433034899, 0.02028631666569669, 0.036808494433798335, 0.08594234377861297, -0.08177719833440676, -0.08515789550568789, 0.08194355052175831, -0.1036060766172742, 0.2221118334679136, -0.1004432220208679, -0.32684608876160376, 0.04620741920399142, -0.0869647843507827, -0.055507387429291656, -0.07469693125423126, 0.015652282541390956, 0.04055688660557901, -0.021687874905497322, 0.1368643826552343, -0.012409369467326072, -0.26509829715434363, -0.029164835183678586, 0.1674860016804643, 0.17521557469380505, 0.0008246638960194292, -0.04722352421005806, 0.06845783398843414, 0.23025452529713944, -0.09045381964769729, 0.0072722248852166, -0.07481763889339685, 0.1382404885077822, -0.1119891157510478, 0.12433007701222817, 0.0664312698920645, 0.05640602722424048, -0.10691826719949371, 0.09010760199047556, 0.06219607251453828, 0.04089018528405212, 0.042647603473515316, -0.27878043323710217, -0.15011954795308943, 0.20477478501403645, 0.1913677424344376, 0.09606749518446409, 0.03250335048282973, 0.08874602199972331, 0.07443023626566377, -0.18433341685661606, -0.0738244476622438, 0.05708957161531183, -0.030473059988825605, -0.03546430749337332, -0.1311997780090739, -0.19298716659309817, 0.12575693509039765, -0.009367997447357387, -0.014515371215263927, -0.08937144629666317, 0.10994362796797828, -0.18878497495140134, -0.0026369396406904343, -0.23003841568103517, -0.18832523730169667, -0.17346351780750718, -0.09303637829630526, -0.2515811750063931, -0.1666494148545003, 0.03806291045736839, 0.011642267918961995, -0.010183033418646036, -0.15721153463434898], [110589526.15235054, 99854695.28467126, 578680.8080926272, 1869698358.16146, 7530031453.6269455, 473989627.0039249, 99854695.24104373, -0.09475316935505185, 6760926.32732149, 99854695.09240688, 6760926.168241087, 99854695.48180175, 0.027167019052708827, -0.06302581960994531, 0.2918446642946553, -0.04260510815635348, -0.3272153689095358, -0.08206687069360341, -0.08437857043420657, 0.14517692985821437, 0.04718809776298254, 0.14864331697187622, -0.032822435669285596, 0.10087254879012096, 0.005088908880896117, 0.01966910081475902, -0.009617101179608713, 0.21391134795887712, -0.0069582107535822, 7236551.804366386, 0.030026454876336883, 0.07195560243004459, -0.02874403092887415, -0.12610351383948373, -0.06019287881651207, 7236551.943046103, 0.0144963712058163, 7236551.9631240405, 0.11844705540608291, 7236551.926890738, 7236552.106986039, 7236552.237748248, 104877922.92789985, 2033339.552386552, 435834904.5537829, 1542133087.664489, 6061996202.846046, 21442928.620377798, 85409865.16525505, 2033339.4204703611, 85409865.45948961, 2033339.2928276516, 85409865.19231848, 2033339.5280317059, 2033339.3033117612, 2033339.3771842872, 0.16438562355133096, -0.07050237572570066, 0.18348634261463215, 0.09633815496130417, -0.12265311994777829, 0.3426892637322182, 0.08886089237896863, 0.1071635401256187, 0.08124580991964343, 0.007412827682614399, -0.06301805796899222, -0.008607123681242317, -0.27558932162045174, -0.0848375385830978, 0.038576769673224515, 2361043.8248296976, 207353.52411689912, 0.14402510277291922, -0.20953195396101432, 0.10974834498846042, 0.009470568562795493, 2361043.66002278, 207353.52650733938, 2361043.796148673, 207353.78151728775, 2361043.8417701684, 2361043.9305016734, 2361043.7745443354, 0.04624829585617602, -0.05569720181187074, -0.09715413136415804, -0.06510656451326524, -0.08860974714898072, 0.14109107501757845, 0.018440364201053727, 0.01842424971539714, 0.03455696356637695, 0.21308924150078257, 0.13736178729440074, 0.049456231651247205, -0.16806670297067278, 0.03833654517249708, -0.01947081871060384, 0.045514397511263245, -0.1411160628278495, 0.09250427734380326, 0.06857959293321811, 0.12996579615580656, -0.1171904037684874, -0.11555448524086998, 0.014453901720079088, -0.008439060351912421, 0.032661057584861264, -0.059572528386872894, -0.028126287044092674, 0.06275530129406265], [-12997254504.259441, -11735622087.336319, -68010625.16924669, -219740026098.9584, -884981955008.1794, -55706575660.43691, -11735622087.530258, 0.11643876189109967, -794591316.3172928, -11735622087.793743, -794591316.9840798, -11735622087.676983, -0.38817577585568724, 0.13087391784431424, 0.06737687155983117, -0.416829653074808, 1.520838794011217, 1.9610234136585805, 4.5495885250174215, 0.1241060658647272, 0.20045841672826578, 0.01031838115544502, 0.0938326026786458, -0.016667345268934132, 0.12793107725781994, -0.002511656282943659, -0.008921992126948948, 0.18349552746398873, -0.009800096497751473, -850490185.9689708, 2.462690354050333, 9.739702848409221, 8.658263142951004, 1.4013561717330774, 0.0026346136949186028, -850490185.8550552, 0.15471734536020984, -850490185.7961144, -0.3923877153142661, -850490186.3427413, -850490185.9591331, -850490185.8311205, -12325986935.306292, -238972272.26985034, -51222365847.137, -181242264811.4764, -712448186156.2482, -2520122926.3319516, -10037964646.674555, -238972272.21660542, -10037964646.478569, -238972272.2650649, -10037964646.668352, -238972272.20235386, -238972272.23610654, -238972272.17705452, -0.2001309516069816, 0.27183512586786385, 0.2294836288629324, 0.007133365862621922, 9.382241039965804, 1.415384392879806, -0.18106671301055635, -0.2920559567542842, 0.2142915742093779, 0.03998159881358195, 0.006717180437195644, -0.06833900090320479, -0.025595286015235447, 0.08479533280533018, -0.1603530765049631, -277486381.3408035, -24369653.775235374, 0.01619468509158802, 2.746136308360937, 0.3900808719325523, -0.012257781859159933, -277486381.68696856, -24369653.636027087, -277486381.5299927, -24369653.95330553, -277486381.72725743, -277486381.7286222, -277486381.5978888, 0.008847875207282807, -0.12056382116611654, 0.18875720257943387, 4.064444473057796, 10.864704722069927, -0.08572423786578612, -0.1312170030724861, 0.16726159607730706, 0.23873452214331747, 0.1344233202617345, 0.1598629801600583, -0.002004629475119347, 0.107776814153278, 0.17592974389904806, 0.10918520637177397, -0.12174117116146342, -0.048585456703904926, 0.005060045089575942, -0.13523515969142444, -0.03179822551604383, 0.04040291032006964, -0.004502746281162103, 0.12302542003162509, -0.06678908231284052, -0.23182709836074455, 0.14564953637510417, 0.046699866027796494, -0.05664402691823267], [-4952416859.122189, -4471689975.841586, -25914470.21160804, -83728775916.31331, -337209643212.35913, -21226189298.886986, -4471689975.898544, -0.046903128638783556, -302767590.73562366, -4471689975.948937, -302767590.83322746, -4471689975.950937, -0.004408465822058979, -0.3616578080396655, 0.16027499185684274, 0.28992871421362587, 0.9691862575310403, 1.1419562174568547, 3.083459415399102, -0.19209053867841977, 0.15268889174678008, 0.03538372529991427, 0.10113000214768461, -0.09214761121968833, -0.07623104472611773, -0.020979739288141515, 0.2105282911436619, 0.23422330907110403, -0.07810603868487642, -324067050.73596364, 1.683382731326365, 6.6933754895129844, 6.2499199646177575, 0.7654693047595744, 0.07420584050295664, -324067050.60055083, 0.05370950999607933, -324067050.85722286, 0.01106047203276628, -324067050.8570829, -324067050.86661875, -324067050.9244241, -4696640008.578128, -91056946.61816789, -19517545655.84695, -69059757778.9658, -271468132542.28915, -960256588.3467073, -3824822029.475454, -91056946.40298258, -3824822029.2788396, -91056946.6111449, -3824822029.226987, -91056946.65236254, -91056946.54561833, -91056946.66444829, 0.11330714258249544, 0.18071820215278359, 0.10973059185140815, 0.08660221005839838, 6.780297334385951, 0.8976298527138032, 0.12326051796541967, -0.04679543943822077, -0.05173137903938947, -0.06066435268632589, -0.03702204526505382, -0.010854031394810955, -0.18264957816178173, 0.06350801325777192, -0.1397949028417929, -105732193.77059717, -9285705.91628405, 0.05161867265085983, 2.138438978837845, 0.2183744155885331, 0.15853305152940317, -105732193.85198711, -9285706.0593161, -105732194.19178051, -9285706.17375973, -105732193.92341422, -105732193.91720478, -105732194.1785942, -0.007982910116159939, -0.13186346834910753, -0.08118584683175543, 2.6249065241199165, 7.5897492600733765, -0.0931185775348668, 0.18803224919117356, -0.11841436050778435, 0.05852469047184236, -0.11119407700834771, -0.06230208884942039, -0.11410414499321198, 0.030700802490097087, 0.21053549738155083, 0.15475475553514814, 0.15151852583944675, -0.030284831335969802, -0.13991858845920627, 0.05631694166913747, -0.026269145414097105, -0.0927571626332914, -0.32131054999739145, 0.06729772861678114, -0.017699243449380425, -0.26012472481607274, 0.008848627328330583, -0.016114692884130113, -0.03332352463096848], [-0.1692267923766616, -0.13419460503127176, 0.021245449840515476, 0.24004795861194408, -8.83421260885268, -1.2974299562361802, 0.07488181471044779, 0.20819219649985837, 0.03688765377521214, -0.0383690071801142, -0.07915845786427542, 0.09710326764552138, -0.1258651175813351, 0.1213356385305481, -0.21460351649357573, -0.14954281956569795, -2.458591991915834, -3.479432628928871, -8.309575251666242, -0.028258145841718398, -0.13413694865934533, -0.06367078503027768, -0.17397149181617239, 0.07607598168050389, 0.08392483797335606, 0.11953422802090423, -0.10773268197794399, -0.054727244656152765, -0.12447882279561202, -0.28974895013274954, -4.383081441866434, -17.738398918087366, -16.831265967467075, -2.3297150778397815, -0.4315542981060987, -0.3309846919168944, -0.25986058022322095, 0.07722001134772673, 0.01663225949222089, 0.11693933659999052, -0.21079009803652843, -0.22334105958058814, -0.3770870725243524, 0.20993165926242988, -2.9368317178961445, -5.212770978396293, -15.947698074994815, -0.14922113552465957, -0.1784648606049879, -0.236287730797502, -0.31748182034575745, 0.07786255570129832, -0.14986804843397694, -0.02332465913483973, -0.33757956445854614, -0.004402400568145789, -0.2174896759094662, -0.22942324521102214, 0.004405920047898114, 0.020773553218247365, -17.526088278494484, -2.539092983761832, -0.2909521932019963, -0.44575569839469065, -0.16830030292162224, 0.10889431233719289, 0.3833840833337031, 0.13405366283544878, 0.36631854811584424, -0.25632696038643893, -0.04530487976682116, -0.016177101676162334, -0.14541557695129345, 0.22605419301263147, -5.027655957572798, -0.8746341784345184, -0.12737557637268618, -0.0014957954571483273, -0.14968170910786688, 0.1820051097066108, 0.007973809076346343, 0.11710615386516622, 0.08801502405317467, 0.10693260120244544, -0.2986048092141295, 